svm_type c_svc
kernel_type rbf
gamma 0.0151515
nr_class 2
total_sv 1619
rho -1.9876
label -1 1
nr_sv 848 771
SV
1 1:0.190455 2:0.135692 3:15.3533 4:11.4096 5:15.1341 8:1.37931 9:0.689655 10:0.689655 11:2.06897 18:1.37931 29:0.689655 30:0.689655 31:1.37931 34:0.689655 35:0.689655 37:0.689655 38:0.689655 41:1.37931 46:2.06897 52:0.689655 53:0.689655 55:1.37931 60:0.689655 64:0.689655 66:0.689655 
1 1:0.184286 2:0.0775382 3:14.3546 4:14.2374 5:15.149 7:1.25 22:1.25 26:1.25 28:1.25 30:1.25 31:2.5 39:1.25 40:1.25 43:1.25 44:1.25 46:2.5 48:1.25 50:1.25 57:1.25 
0.07448491628871301 1:0.182797 2:0.0775382 3:15.1256 4:10.3272 5:17.3103 7:2.35294 9:1.17647 14:1.17647 18:1.17647 22:1.17647 37:1.17647 40:1.17647 44:1.17647 46:1.17647 51:1.17647 57:2.35294 58:1.17647 59:1.17647 61:1.17647 65:1.17647 
1 1:0.320597 2:0.227768 3:15.6672 4:4.85686 5:13.4997 7:0.425532 10:0.425532 12:0.851064 13:0.425532 16:0.425532 17:0.425532 18:0.851064 19:0.425532 22:0.425532 23:0.851064 24:0.425532 25:1.2766 27:0.425532 28:0.851064 29:1.2766 33:0.425532 34:0.425532 35:0.425532 36:0.425532 37:0.425532 39:0.425532 40:1.2766 44:1.70213 45:0.851064 50:0.425532 53:0.851064 54:0.425532 55:0.425532 57:0.425532 61:0.425532 62:0.425532 65:0.425532 
0.0796568650133251 1:0.156163 3:14.9141 4:3.27335 5:12.3359 30:20 
0.4258912561032154 1:0.169967 2:0.0339229 3:15.1086 4:7.61079 5:15.2957 11:2.5 17:2.5 22:2.5 26:2.5 28:2.5 29:2.5 34:2.5 65:2.5 
0.7458848201891919 1:0.159505 2:0.0339229 3:15.1668 4:8.42247 5:15.9245 7:2.5 13:2.5 18:2.5 37:2.5 39:2.5 44:2.5 46:2.5 64:2.5 
1 1:0.18568 2:0.140538 3:15.5633 4:10.3695 5:16.2408 8:0.666667 9:1.33333 10:0.666667 11:0.666667 12:0.666667 17:0.666667 20:0.666667 22:0.666667 26:1.33333 32:0.666667 34:1.33333 35:0.666667 36:0.666667 41:1.33333 42:0.666667 44:0.666667 46:2.66667 49:0.666667 51:0.666667 56:0.666667 60:0.666667 62:0.666667 64:0.666667 
1 1:0.201516 2:0.0969227 3:13.9558 4:6.06021 5:14.1664 6:0.952381 7:1.90476 15:0.952381 17:0.952381 18:0.952381 28:0.952381 35:1.90476 43:0.952381 44:0.952381 48:0.952381 55:2.85714 57:1.90476 63:0.952381 64:1.90476 66:0.952381 
1 1:0.277714 2:0.159922 3:16.7533 4:10.8237 5:15.5315 7:0.588235 9:0.588235 10:0.588235 12:0.588235 15:0.588235 16:0.588235 18:0.588235 23:0.588235 26:0.588235 28:0.588235 31:0.588235 35:1.17647 38:0.588235 40:0.588235 43:0.588235 44:0.588235 47:0.588235 50:1.17647 51:0.588235 52:1.17647 53:0.588235 55:0.588235 57:0.588235 58:1.17647 59:0.588235 63:1.17647 64:1.17647 65:0.588235 
1 1:0.174159 2:0.0823843 3:16.1249 4:15.7409 5:15.0337 13:3.33333 17:1.11111 18:1.11111 21:1.11111 29:1.11111 31:1.11111 34:1.11111 40:1.11111 44:1.11111 45:1.11111 46:1.11111 50:1.11111 57:2.22222 58:1.11111 60:1.11111 
1 1:0.241019 2:0.106615 3:13.9031 4:5.44207 5:13.0819 8:1.81818 10:1.81818 15:0.909091 17:0.909091 21:0.909091 26:0.909091 28:0.909091 35:0.909091 38:0.909091 39:1.81818 42:0.909091 45:0.909091 46:0.909091 48:0.909091 49:0.909091 53:0.909091 60:0.909091 61:0.909091 65:0.909091 
0.5956272786710699 1:0.182345 2:0.130846 3:14.7719 4:17.0743 5:15.2922 7:1.42857 10:2.85714 12:0.714286 14:0.714286 17:0.714286 18:0.714286 20:0.714286 22:0.714286 23:0.714286 31:1.42857 34:1.42857 37:0.714286 41:0.714286 43:0.714286 49:0.714286 55:0.714286 56:0.714286 57:0.714286 58:0.714286 59:0.714286 61:0.714286 66:0.714286 
0.08788807622011499 1:0.206559 2:0.169615 3:15.109 4:13.6486 5:14.1867 10:0.571429 13:0.571429 16:0.571429 17:2.28571 18:2.28571 19:0.571429 25:0.571429 27:1.14286 29:0.571429 31:0.571429 35:1.71429 37:0.571429 40:1.14286 41:1.14286 43:0.571429 44:1.14286 47:1.71429 49:1.14286 50:0.571429 64:0.571429 
0.03907062697647689 1:0.156387 2:0.0290768 3:15.8521 4:10.0205 5:14.5303 6:2.85714 8:2.85714 11:2.85714 28:2.85714 29:2.85714 38:2.85714 40:2.85714 
0.7542054403127674 1:0.17619 2:0.0823843 3:15.6325 4:15.7409 5:15.9063 8:1.11111 9:1.11111 11:2.22222 18:1.11111 26:1.11111 29:1.11111 35:3.33333 42:1.11111 46:1.11111 55:2.22222 58:1.11111 64:3.33333 
1 1:0.190729 2:0.0581536 3:16.5582 4:5.7473 5:14.1302 16:1.53846 18:1.53846 21:1.53846 26:1.53846 29:3.07692 30:1.53846 34:1.53846 45:3.07692 46:1.53846 56:1.53846 64:1.53846 
1 1:0.192275 2:0.0823843 3:16.2043 4:15.7409 5:14.424 6:2.22222 15:2.22222 16:1.11111 20:1.11111 21:1.11111 30:1.11111 31:1.11111 37:1.11111 38:1.11111 41:1.11111 45:1.11111 47:1.11111 57:1.11111 58:2.22222 65:1.11111 
0.5570557480982917 1:0.187331 2:0.0775382 3:15.7357 4:9.73131 5:15.1471 6:1.17647 7:1.17647 18:1.17647 23:1.17647 26:2.35294 28:1.17647 42:1.17647 45:1.17647 47:2.35294 50:1.17647 52:1.17647 54:1.17647 55:1.17647 59:1.17647 60:1.17647 
1 1:0.160042 2:0.0339229 3:15.8946 4:12.356 5:13.9748 15:2.5 20:2.5 28:2.5 35:2.5 43:2.5 55:2.5 63:2.5 66:2.5 
1 1:0.289672 2:0.295614 3:15.2974 4:13.8438 5:13.5405 8:0.327869 9:1.31148 10:0.327869 11:0.327869 12:0.983607 13:0.655738 14:0.655738 15:0.327869 16:0.327869 18:0.327869 19:0.327869 20:0.655738 21:0.655738 23:0.655738 24:0.655738 27:0.983607 29:0.327869 30:0.327869 31:0.327869 35:0.327869 36:0.327869 38:0.327869 42:1.63934 44:0.327869 45:0.983607 46:0.655738 47:0.327869 48:0.327869 50:0.327869 52:0.327869 53:0.327869 54:0.655738 56:0.327869 58:0.327869 59:0.327869 62:0.327869 63:0.327869 65:0.983607 
1 1:0.177963 2:0.0629998 3:15.551 4:14.8145 5:15.1235 6:1.42857 7:1.42857 8:2.85714 26:1.42857 28:2.85714 34:1.42857 38:1.42857 46:1.42857 53:1.42857 55:2.85714 62:1.42857 
1 1:0.195121 2:0.121153 3:17.1894 4:16.8764 5:16.4037 9:1.53846 14:0.769231 23:0.769231 24:0.769231 25:0.769231 26:0.769231 29:0.769231 31:0.769231 34:1.53846 40:1.53846 41:0.769231 43:0.769231 45:2.30769 50:0.769231 51:0.769231 53:1.53846 56:0.769231 57:1.53846 62:0.769231 
1 1:0.226582 2:0.179307 3:14.3155 4:8.84365 5:15.041 6:0.526316 7:1.57895 10:1.05263 11:1.57895 18:0.526316 19:0.526316 20:1.05263 22:1.05263 26:1.05263 28:1.05263 31:0.526316 34:1.05263 35:1.57895 38:0.526316 44:0.526316 47:0.526316 49:1.05263 50:0.526316 53:0.526316 56:0.526316 57:0.526316 58:1.05263 62:0.526316 65:0.526316 
1 1:0.172503 2:0.101769 3:14.121 4:16.3928 5:14.219 7:2.85714 11:0.952381 15:0.952381 18:0.952381 20:0.952381 21:0.952381 23:0.952381 35:1.90476 38:0.952381 44:1.90476 45:0.952381 46:0.952381 49:0.952381 50:0.952381 59:1.90476 65:0.952381 
1 1:0.18956 2:0.111461 3:15.1805 4:16.6513 5:13.1059 10:0.833333 11:0.833333 13:0.833333 14:1.66667 15:4.16667 16:0.833333 18:0.833333 21:0.833333 24:0.833333 27:1.66667 29:0.833333 44:0.833333 45:0.833333 46:0.833333 51:1.66667 53:0.833333 63:0.833333 
1 1:0.187619 2:0.101769 3:13.5393 4:11.6185 5:12.9238 7:0.952381 9:0.952381 10:0.952381 12:0.952381 13:0.952381 16:1.90476 17:0.952381 18:0.952381 23:0.952381 29:0.952381 31:0.952381 35:0.952381 38:0.952381 43:0.952381 46:1.90476 47:0.952381 50:0.952381 58:1.90476 
1 1:0.33937 2:0.242307 3:15.8039 4:11.9034 5:14.2095 6:0.784314 7:1.96078 13:0.784314 14:0.784314 15:0.392157 18:0.392157 25:0.392157 26:0.392157 30:0.392157 31:0.392157 32:0.784314 34:0.392157 35:0.392157 38:0.392157 40:1.17647 43:0.784314 44:1.17647 45:0.392157 49:1.56863 50:0.784314 52:0.392157 54:0.392157 55:1.56863 56:0.784314 58:0.784314 59:0.392157 60:0.392157 65:0.392157 66:0.392157 
1 1:0.168696 2:0.0581536 3:16.0075 4:4.86466 5:13.7529 7:1.53846 8:1.53846 10:1.53846 16:1.53846 24:1.53846 26:1.53846 34:1.53846 40:3.07692 44:1.53846 55:1.53846 60:1.53846 66:1.53846 
1 1:0.295494 2:0.126 3:16.6496 4:10.0205 5:17.1647 6:0.740741 10:0.740741 11:0.740741 24:0.740741 28:0.740741 29:2.22222 31:1.48148 33:0.740741 34:0.740741 35:0.740741 41:0.740741 43:0.740741 44:0.740741 45:0.740741 46:0.740741 48:0.740741 49:0.740741 53:0.740741 59:1.48148 60:0.740741 62:0.740741 64:0.740741 66:0.740741 
0.5036685035072134 1:0.184812 2:0.0581536 3:15.491 4:4.01132 5:14.2598 9:1.53846 17:3.07692 24:1.53846 37:1.53846 41:1.53846 51:1.53846 52:1.53846 54:1.53846 57:1.53846 59:3.07692 61:1.53846 
1 1:0.177711 2:0.0678459 3:16.1779 4:15.0808 5:13.5711 7:1.33333 15:1.33333 16:1.33333 28:1.33333 35:2.66667 39:1.33333 44:2.66667 46:1.33333 50:2.66667 55:1.33333 62:1.33333 64:1.33333 
1 1:0.211284 2:0.0969227 3:14.8722 4:9.78511 5:14.0257 7:1 8:1 15:1 18:1 20:1 22:1 29:1 31:1 35:2 37:1 38:1 39:1 44:1 49:1 51:1 54:1 62:2 64:1 
0.1803196622413335 1:0.161017 2:0.0145384 3:16.1366 4:3.75529 5:14.9388 15:5 16:5 35:5 65:5 
1 1:0.169862 2:0.0339229 3:16.3921 4:10.6952 5:15.7051 7:2.5 25:2.5 31:2.5 45:2.5 46:2.5 50:2.5 52:2.5 56:2.5 
1 1:0.18399 2:0.0823843 3:16.1537 4:9.74694 5:15.5245 7:1.11111 23:1.11111 31:1.11111 34:1.11111 39:1.11111 41:1.11111 44:2.22222 46:1.11111 47:1.11111 50:2.22222 51:1.11111 52:1.11111 56:2.22222 60:1.11111 64:1.11111 
1 1:0.250001 2:0.261691 3:16.5231 4:7.42192 5:14.3523 7:0.363636 11:0.727273 12:0.727273 13:0.363636 15:0.727273 18:0.363636 19:0.727273 20:0.727273 21:0.727273 22:0.727273 23:0.363636 24:0.727273 28:0.727273 29:0.727273 30:0.363636 31:0.727273 35:0.727273 37:0.727273 38:1.09091 39:0.727273 40:0.363636 44:0.727273 46:0.363636 47:0.363636 48:0.727273 49:0.727273 51:0.363636 52:0.727273 54:0.363636 55:1.09091 60:0.363636 61:0.363636 63:0.363636 
1 1:0.445255 2:0.339229 3:15.8883 4:11.4896 5:15.5178 6:0.285714 7:0.285714 10:0.285714 11:0.571429 12:0.571429 13:0.285714 15:0.857143 16:0.571429 17:0.285714 18:1.71429 20:0.571429 21:0.285714 22:0.571429 24:0.285714 25:0.285714 26:0.571429 28:0.571429 29:0.285714 30:0.285714 31:0.857143 32:0.285714 34:0.285714 35:0.857143 38:0.857143 39:0.285714 40:1.42857 43:0.857143 44:0.571429 46:1.14286 47:0.285714 49:0.285714 50:0.571429 57:0.285714 58:0.571429 60:0.571429 61:0.285714 64:0.285714 
1 1:0.204313 2:0.0872304 3:13.2277 4:6.4182 5:14.0713 7:2.22222 17:1.11111 22:1.11111 26:1.11111 35:2.22222 38:1.11111 40:1.11111 42:1.11111 43:1.11111 46:2.22222 47:1.11111 55:1.11111 58:1.11111 60:1.11111 65:1.11111 
1 1:0.188704 2:0.188999 3:15.2896 4:17.8921 5:14.7043 6:1 8:0.5 10:0.5 11:1.5 14:1 15:0.5 17:0.5 18:0.5 24:0.5 27:1 28:1 34:0.5 37:0.5 38:1.5 40:0.5 44:0.5 45:0.5 46:1.5 47:0.5 48:0.5 49:0.5 50:1.5 53:0.5 55:0.5 57:0.5 59:0.5 61:0.5 64:0.5 
1 1:0.321718 2:0.281076 3:15.6129 4:11.1662 5:14.371 6:0.344828 7:0.344828 8:0.689655 9:0.344828 11:0.344828 12:0.344828 14:0.344828 15:0.344828 18:1.37931 21:0.344828 22:0.344828 23:0.344828 24:0.344828 26:1.03448 28:1.03448 29:0.689655 31:0.344828 34:0.689655 38:0.689655 39:0.689655 40:0.689655 41:0.344828 42:0.689655 43:1.03448 44:0.689655 45:0.689655 46:0.344828 47:0.344828 49:0.344828 53:0.344828 54:0.689655 55:1.03448 57:1.03448 63:0.344828 64:0.344828 
1 1:0.235646 2:0.155076 3:15.2808 4:9.72281 5:13.0266 6:0.606061 7:0.606061 8:0.606061 9:0.606061 15:0.606061 17:0.606061 20:0.606061 26:0.606061 27:1.21212 28:1.81818 31:0.606061 32:0.606061 38:0.606061 39:0.606061 43:0.606061 48:0.606061 49:0.606061 50:0.606061 51:1.21212 52:0.606061 53:0.606061 55:1.21212 57:0.606061 60:1.21212 61:1.21212 65:0.606061 
1 1:0.24499 2:0.130846 3:16.1647 4:13.394 5:15.3954 6:0.714286 7:0.714286 8:1.42857 13:0.714286 15:0.714286 16:0.714286 17:0.714286 18:0.714286 19:0.714286 26:0.714286 29:0.714286 32:0.714286 34:0.714286 38:0.714286 40:2.14286 42:1.42857 44:0.714286 45:0.714286 50:0.714286 52:0.714286 58:1.42857 64:1.42857 
1 1:0.301394 2:0.15023 3:16.8695 4:16.0929 5:17.3907 19:1.25 23:1.25 28:1.25 29:0.625 31:1.25 34:0.625 35:0.625 38:0.625 43:1.25 44:1.875 49:0.625 50:1.25 57:3.75 59:0.625 63:0.625 65:1.25 66:1.25 
1 1:0.455009 2:0.242307 3:17.2609 4:16.8229 5:16.1718 7:0.392157 9:0.392157 10:0.392157 11:0.392157 14:0.784314 16:0.392157 20:0.392157 21:0.784314 26:0.784314 27:0.784314 28:0.392157 29:0.784314 30:0.784314 31:1.17647 34:0.392157 36:0.392157 38:0.392157 39:0.392157 40:0.784314 41:0.392157 42:1.17647 43:0.784314 44:0.784314 46:0.784314 47:0.392157 48:0.392157 50:1.17647 56:0.392157 57:0.784314 58:0.392157 60:0.392157 64:0.392157 65:0.784314 
1 1:0.209194 2:0.218076 3:14.7508 4:12.1511 5:16.0494 7:0.869565 8:2.17391 10:0.434783 11:0.434783 12:0.434783 13:0.869565 14:0.434783 18:0.869565 20:0.434783 22:1.30435 23:0.434783 24:0.434783 28:0.869565 29:0.434783 31:1.30435 34:0.869565 35:0.434783 40:0.434783 42:0.434783 43:0.434783 45:1.30435 49:0.869565 55:0.434783 57:0.869565 58:0.869565 60:0.434783 64:0.869565 
1 1:0.29776 2:0.179307 3:14.4046 4:6.4182 5:12.8453 13:0.555556 15:2.77778 16:0.555556 18:0.555556 20:0.555556 23:2.22222 24:0.555556 26:1.11111 28:0.555556 29:0.555556 31:1.66667 33:0.555556 36:1.11111 43:0.555556 44:1.11111 45:0.555556 47:1.66667 48:0.555556 50:1.11111 55:0.555556 61:0.555556 
1 1:0.226196 2:0.0823843 3:15.5582 4:13.913 5:16.5452 7:1.11111 15:1.11111 27:1.11111 33:1.11111 34:1.11111 40:1.11111 44:1.11111 45:1.11111 46:1.11111 47:1.11111 49:1.11111 50:1.11111 53:1.11111 60:1.11111 62:1.11111 64:3.33333 
1 1:0.290763 2:0.266537 3:15.4372 4:13.7232 5:14.331 7:0.727273 8:0.727273 10:0.363636 14:0.363636 17:0.363636 21:0.363636 22:0.727273 26:0.727273 29:0.363636 34:0.363636 35:1.45455 38:0.363636 39:0.363636 40:1.45455 41:0.363636 42:0.363636 44:1.09091 46:0.727273 47:0.727273 48:0.363636 52:1.09091 53:0.363636 54:0.363636 55:2.54545 57:0.727273 58:0.727273 60:0.727273 64:0.727273 65:0.363636 
1 1:0.446837 2:0.30046 3:15.731 4:4.65802 5:14.3134 6:0.322581 7:0.967742 10:0.645161 12:0.645161 15:0.322581 16:0.322581 17:0.967742 19:0.322581 21:0.322581 23:0.322581 24:0.967742 25:0.322581 27:0.322581 28:0.967742 29:0.322581 31:0.645161 33:0.322581 35:1.6129 36:0.322581 37:0.322581 38:0.645161 39:0.322581 40:0.322581 41:0.322581 43:0.967742 44:0.322581 45:0.645161 46:0.322581 49:0.322581 50:0.322581 52:0.967742 53:0.322581 54:0.322581 55:0.645161 58:0.322581 60:0.322581 61:0.322581 63:0.645161 64:0.322581 
1 1:0.161052 2:0.0387691 3:15.3285 4:9.00841 5:14.2603 7:2.22222 12:2.22222 15:6.66667 40:2.22222 46:2.22222 49:2.22222 64:2.22222 
1 1:0.322192 2:0.285922 3:15.5901 4:6.91992 5:13.8477 6:0.333333 7:1 10:2.33333 11:0.666667 14:0.333333 15:0.666667 16:0.333333 19:0.333333 21:0.666667 23:0.333333 25:0.333333 28:0.333333 29:0.666667 31:0.666667 32:0.666667 34:0.333333 35:0.333333 42:0.666667 45:1.66667 48:0.333333 50:1 53:0.333333 54:1 55:0.666667 56:0.333333 59:0.333333 60:1.66667 62:1 63:0.333333 66:0.333333 
1 1:0.165286 2:0.15023 3:15.9221 4:15.3218 5:14.4102 16:0.625 18:1.25 20:0.625 21:0.625 24:0.625 30:1.25 31:0.625 32:0.625 35:1.875 43:0.625 49:1.25 50:1.25 53:1.25 55:3.125 56:0.625 57:0.625 58:0.625 60:0.625 61:1.25 65:0.625 
1 1:0.261153 2:0.164769 3:14.882 4:8.23447 5:14.0898 7:1.76471 10:0.588235 11:0.588235 14:0.588235 19:0.588235 21:1.17647 23:0.588235 27:0.588235 30:0.588235 31:1.17647 39:0.588235 43:1.17647 44:1.17647 45:0.588235 48:0.588235 49:0.588235 50:0.588235 53:1.76471 58:0.588235 59:0.588235 61:1.17647 65:1.76471 66:0.588235 
1 1:0.17072 2:0.072692 3:15.4196 4:15.3218 5:15.653 7:2.5 9:1.25 11:1.25 15:1.25 18:1.25 26:1.25 40:1.25 46:1.25 48:1.25 50:2.5 51:1.25 60:1.25 64:2.5 
1 1:0.156224 3:14.9141 4:3.27335 5:12.3359 46:20 
1 1:0.159011 2:0.0436152 3:14.8053 4:13.394 5:14.5261 10:4 15:2 18:2 20:2 26:2 46:2 51:2 55:2 65:2 
1 1:0.287569 2:0.188999 3:14.4944 4:17.501 5:15.8066 6:0.5 7:1 9:1 10:1 11:1.5 12:1 15:1.5 24:0.5 28:2 31:0.5 34:0.5 35:0.5 38:0.5 42:0.5 44:0.5 45:0.5 46:1 48:0.5 49:0.5 51:0.5 55:0.5 57:1 58:0.5 61:0.5 64:1 65:0.5 
1 1:0.232796 2:0.135692 3:14.9699 4:12.1289 5:13.5686 6:1.37931 7:0.689655 11:1.37931 13:0.689655 15:0.689655 17:0.689655 18:0.689655 19:0.689655 26:1.37931 31:0.689655 32:0.689655 35:0.689655 42:0.689655 43:1.37931 44:0.689655 45:0.689655 47:0.689655 50:1.37931 54:1.37931 55:0.689655 61:0.689655 63:1.37931 
1 1:0.240965 2:0.247153 3:15.1518 4:7.99634 5:14.2771 7:0.384615 8:0.769231 10:0.769231 13:0.769231 15:0.769231 17:0.769231 18:1.92308 19:0.384615 22:0.384615 23:1.15385 24:0.384615 25:0.384615 27:0.769231 28:1.15385 29:0.384615 34:0.384615 39:1.92308 40:1.15385 43:0.384615 44:0.769231 45:0.384615 46:0.769231 49:0.769231 52:0.384615 55:0.384615 58:0.384615 65:0.384615 66:0.769231 
1 1:0.229179 2:0.140538 3:14.81 4:4.23723 5:13.1595 8:0.689655 11:0.689655 16:1.37931 18:2.06897 25:1.37931 26:0.689655 31:2.06897 33:1.37931 38:0.689655 39:0.689655 40:1.37931 44:0.689655 46:1.37931 49:0.689655 52:0.689655 54:0.689655 55:0.689655 60:0.689655 61:1.37931 
1 1:0.220851 2:0.116307 3:15.0395 4:5.28314 5:14.5496 9:0.8 11:0.8 16:1.6 18:0.8 20:0.8 22:0.8 27:1.6 28:2.4 33:0.8 35:0.8 37:0.8 43:1.6 44:1.6 46:0.8 51:1.6 58:0.8 61:0.8 64:0.8 
1 1:0.188389 2:0.0969227 3:14.8269 4:8.94381 5:14.2486 6:1.90476 11:0.952381 16:0.952381 17:0.952381 18:0.952381 20:0.952381 21:2.85714 29:0.952381 34:0.952381 35:0.952381 37:0.952381 43:0.952381 46:0.952381 49:0.952381 51:0.952381 57:0.952381 58:0.952381 66:0.952381 
0.03515938537661036 1:0.158397 3:14.9141 4:3.27335 5:12.3359 58:20 
1 1:0.158594 2:0.0339229 3:15.8613 4:12.356 5:17.9147 41:2.5 43:2.5 44:2.5 46:2.5 47:2.5 51:2.5 57:2.5 61:2.5 
1 1:0.268027 2:0.305307 3:15.0428 4:16.9451 5:15.566 7:0.3125 8:0.3125 10:0.3125 11:0.9375 14:0.625 15:0.3125 16:0.3125 17:0.3125 18:1.875 19:0.625 20:2.5 22:0.3125 24:0.3125 27:0.3125 28:0.3125 29:0.9375 31:0.3125 32:0.625 34:0.625 40:0.3125 44:0.625 45:1.25 46:1.25 48:0.3125 51:0.625 53:0.9375 57:0.625 58:0.625 61:0.625 62:0.3125 64:0.3125 
1 1:0.161409 2:0.0533075 3:15.7592 4:14.1878 5:13.679 8:1.66667 11:1.66667 13:1.66667 24:1.66667 33:1.66667 35:1.66667 37:1.66667 40:1.66667 42:1.66667 44:1.66667 46:1.66667 57:1.66667 
1 1:0.184052 2:0.0823843 3:16.0223 4:15.7409 5:14.9319 10:1.11111 11:1.11111 13:1.11111 16:1.11111 26:4.44444 28:1.11111 38:2.22222 42:1.11111 46:2.22222 51:1.11111 55:3.33333 
1 1:0.225553 2:0.237461 3:15.5401 4:10.3335 5:14.6946 6:0.8 7:0.4 9:0.4 11:0.4 12:0.4 13:0.4 14:0.4 15:0.4 16:0.4 17:0.4 18:0.4 19:0.8 20:0.4 22:0.4 28:0.4 30:0.4 31:0.4 36:0.8 38:0.4 39:0.8 40:1.2 44:0.4 45:0.4 46:0.4 47:0.8 48:0.4 49:0.4 50:0.4 51:0.4 52:0.4 54:0.8 57:0.4 58:0.4 60:0.8 61:2 63:0.4 64:0.4 
1 1:0.187852 2:0.121153 3:14.8459 4:9.46844 5:13.8756 7:1.6 16:0.8 17:1.6 18:1.6 23:1.6 26:0.8 28:0.8 29:1.6 34:1.6 44:0.8 45:1.6 46:0.8 49:0.8 55:0.8 58:1.6 60:0.8 61:0.8 
1 1:0.199454 2:0.382845 3:15.0206 4:12.6503 5:13.6528 7:0.5 8:0.25 9:0.25 10:0.75 11:0.75 12:0.25 13:0.75 14:0.25 15:1.5 17:0.5 18:0.25 19:1.25 21:0.25 22:0.25 24:0.25 26:0.25 27:0.25 28:0.5 29:0.25 31:0.25 34:0.75 35:1 38:0.25 41:0.25 42:0.5 43:0.25 44:0.25 45:0.75 46:1 47:0.75 50:0.5 51:0.25 54:0.25 55:0.25 56:0.5 57:0.25 58:0.5 59:0.5 60:0.25 61:0.25 63:0.25 65:0.25 66:0.75 
1 1:0.170541 2:0.0872304 3:14.3693 4:10.294 5:14.8168 6:1.05263 7:2.10526 18:1.05263 19:1.05263 35:1.05263 37:1.05263 41:1.05263 45:1.05263 46:1.05263 47:2.10526 50:1.05263 51:1.05263 53:1.05263 54:1.05263 58:2.10526 65:1.05263 
1 1:0.186246 2:0.140538 3:14.5144 4:17.2495 5:18.3418 6:1.33333 7:2.66667 10:1.33333 11:0.666667 21:0.666667 22:0.666667 27:0.666667 28:0.666667 31:1.33333 35:1.33333 43:0.666667 44:1.33333 45:0.666667 47:0.666667 50:0.666667 51:1.33333 56:0.666667 57:1.33333 58:0.666667 64:0.666667 
0.3715755725991751 1:0.160605 2:0.0339229 3:15.2785 4:7.99634 5:14.6227 7:2.5 15:5 38:5 53:2.5 58:2.5 61:2.5 
1 1:0.16711 2:0.0581536 3:16.268 4:10.8639 5:14.4415 6:1.53846 11:1.53846 13:1.53846 19:1.53846 20:3.07692 35:1.53846 40:1.53846 41:1.53846 44:1.53846 46:1.53846 52:1.53846 63:1.53846 
0.5490201048271836 1:0.156292 2:0.00969227 3:15.701 4:7.4903 5:13.6027 20:6.66667 46:6.66667 54:6.66667 
1 1:0.260587 2:0.184153 3:14.7031 4:11.3406 5:13.3772 7:2.05128 10:1.02564 18:1.02564 23:1.02564 24:0.512821 27:0.512821 29:0.512821 32:0.512821 34:0.512821 36:0.512821 37:0.512821 39:0.512821 40:0.512821 43:0.512821 46:0.512821 49:1.02564 50:0.512821 51:1.53846 53:0.512821 55:0.512821 56:0.512821 57:1.02564 58:0.512821 60:0.512821 61:1.02564 64:0.512821 65:0.512821 66:0.512821 
1 1:0.240356 2:0.242307 3:15.0167 4:18.3339 5:15.2657 7:0.4 8:0.4 9:0.8 10:0.8 11:0.8 13:0.4 14:0.4 17:0.8 18:1.2 19:0.4 20:0.8 21:0.4 22:0.4 25:0.4 26:1.2 30:0.8 31:0.4 32:0.4 34:0.4 35:0.8 36:0.4 40:0.8 41:0.4 44:0.8 48:0.4 50:0.4 51:0.4 54:1.6 55:0.8 60:0.4 61:0.4 64:0.8 
1 1:0.163823 2:0.0290768 3:15.8618 4:11.7073 5:13.068 9:2.85714 10:2.85714 11:2.85714 20:2.85714 38:2.85714 46:2.85714 55:2.85714 
1 1:0.19085 2:0.0969227 3:14.5809 4:12.0446 5:12.2566 8:1 9:1 10:1 14:1 19:1 35:1 36:1 39:1 40:1 42:2 43:3 46:2 50:2 51:1 65:1 
1 1:0.194947 2:0.140538 3:14.5761 4:17.2495 5:15.5036 6:0.666667 7:0.666667 9:0.666667 11:2 14:0.666667 17:0.666667 18:1.33333 22:1.33333 28:0.666667 31:0.666667 38:0.666667 40:0.666667 43:0.666667 44:0.666667 45:0.666667 46:2 47:0.666667 48:0.666667 51:0.666667 52:0.666667 53:0.666667 57:0.666667 61:0.666667 66:0.666667 
1 1:0.170021 2:0.0920766 3:13.8583 4:16.0929 5:15.4388 8:1 11:1 13:2 17:2 19:1 22:1 28:1 29:1 31:1 44:1 45:1 46:1 49:1 58:1 59:1 60:1 64:1 65:1 
0.01165500378098241 1:0.156219 3:14.9141 4:3.27335 5:12.3359 6:20 
1 1:0.170145 2:0.111461 3:17.1633 4:12.6838 5:14.1632 6:1.66667 7:0.833333 9:1.66667 10:0.833333 13:0.833333 24:0.833333 25:0.833333 28:1.66667 31:0.833333 32:0.833333 35:0.833333 38:1.66667 41:0.833333 43:0.833333 50:0.833333 55:0.833333 61:1.66667 62:0.833333 65:0.833333 
1 1:0.269666 2:0.126 3:13.441 4:14.2818 5:13.3258 6:0.769231 7:0.769231 8:0.769231 10:1.53846 17:0.769231 18:0.769231 20:1.53846 24:1.53846 30:0.769231 35:1.53846 40:1.53846 42:0.769231 44:0.769231 45:0.769231 46:0.769231 48:0.769231 49:0.769231 56:0.769231 58:0.769231 61:0.769231 65:0.769231 
0.5143694217277728 1:0.158889 2:0.0387691 3:17.7076 4:12.9121 5:17.4909 9:2.22222 14:2.22222 18:2.22222 23:2.22222 40:2.22222 44:2.22222 46:2.22222 51:2.22222 52:2.22222 
1 1:0.321485 2:0.242307 3:15.1486 4:7.01917 5:15.5113 6:0.392157 7:1.17647 9:0.392157 10:1.17647 11:0.784314 15:0.392157 17:1.17647 26:0.392157 28:1.17647 31:0.784314 35:1.17647 40:0.784314 41:0.392157 42:0.392157 43:0.784314 45:0.392157 46:0.392157 49:1.56863 51:0.392157 52:0.392157 53:0.784314 56:0.392157 57:0.392157 58:1.17647 59:1.17647 62:0.392157 65:1.17647 
1 1:0.16131 2:0.0629998 3:14.7211 4:14.8145 5:15.711 6:1.42857 8:1.42857 14:1.42857 15:1.42857 17:1.42857 19:1.42857 38:1.42857 41:1.42857 45:2.85714 46:1.42857 50:1.42857 55:1.42857 61:1.42857 
1 1:0.196638 2:0.0775382 3:17.6396 4:8.50237 5:16.4073 8:1.17647 10:1.17647 13:1.17647 19:2.35294 29:1.17647 40:1.17647 44:2.35294 46:1.17647 53:3.52941 64:2.35294 65:2.35294 
0.06638985804395162 1:0.226146 2:0.126 3:14.2246 4:15.5146 5:13.8783 6:0.769231 7:0.769231 13:0.769231 18:0.769231 30:0.769231 38:0.769231 40:0.769231 43:0.769231 44:0.769231 46:0.769231 47:1.53846 48:0.769231 49:0.769231 50:1.53846 51:0.769231 53:1.53846 57:0.769231 60:0.769231 63:0.769231 64:0.769231 65:1.53846 66:0.769231 
0.2698714393092455 1:0.175395 2:0.155076 3:15.1795 4:11.6185 5:13.499 7:0.606061 14:0.606061 15:0.606061 17:0.606061 18:0.606061 19:0.606061 20:0.606061 22:1.21212 24:1.21212 25:0.606061 26:0.606061 27:1.81818 35:1.21212 36:0.606061 37:0.606061 40:0.606061 42:0.606061 43:0.606061 45:0.606061 49:0.606061 54:0.606061 56:0.606061 57:1.21212 58:0.606061 62:1.21212 66:0.606061 
1 1:0.246834 2:0.130846 3:16.853 4:16.0929 5:17.4516 7:0.714286 8:0.714286 9:0.714286 10:2.14286 13:0.714286 17:1.42857 18:0.714286 19:0.714286 20:0.714286 28:1.42857 29:0.714286 31:2.14286 42:0.714286 44:2.14286 53:0.714286 55:0.714286 56:0.714286 61:0.714286 64:0.714286 65:0.714286 
1 1:0.16786 2:0.0581536 3:15.8306 4:14.5186 5:14.5394 8:1.53846 9:1.53846 13:1.53846 20:1.53846 29:1.53846 43:1.53846 44:1.53846 46:1.53846 57:3.07692 58:1.53846 65:3.07692 
0.2815469343050856 1:0.164057 2:0.0387691 3:15.2411 4:8.57466 5:17.2302 31:5 38:2.5 40:2.5 46:2.5 49:2.5 59:2.5 64:2.5 
1 1:0.281407 2:0.440998 3:15.123 4:11.6859 5:14.241 6:0.217391 7:0.434783 8:0.652174 9:0.869565 10:0.652174 11:0.652174 12:0.434783 13:0.652174 14:0.217391 15:1.08696 17:0.434783 18:0.434783 20:0.217391 23:0.434783 24:0.217391 27:0.217391 28:0.217391 29:0.434783 30:0.217391 31:0.217391 33:0.217391 34:0.652174 37:0.434783 40:0.652174 41:0.217391 42:0.217391 43:0.217391 44:0.217391 45:0.869565 46:0.217391 47:0.217391 49:0.434783 50:1.30435 51:0.217391 53:0.869565 55:0.217391 56:0.652174 57:0.652174 59:0.652174 60:0.652174 61:0.434783 62:0.217391 63:0.217391 64:0.217391 66:0.217391 
1 1:0.172993 2:0.072692 3:18.2478 4:11.8947 5:14.5168 7:1.25 13:2.5 18:1.25 25:2.5 28:1.25 29:1.25 35:1.25 38:1.25 40:2.5 41:1.25 46:1.25 48:2.5 
1 1:0.170458 2:0.0775382 3:14.3618 4:14.8608 5:15.6817 8:1.17647 11:1.17647 12:1.17647 18:2.35294 19:1.17647 26:1.17647 29:1.17647 30:1.17647 35:1.17647 46:1.17647 47:2.35294 51:1.17647 52:1.17647 56:1.17647 58:1.17647 
0.4022137134780308 1:0.21142 2:0.193845 3:14.4477 4:10.4048 5:14.0411 6:0.487805 9:0.487805 11:1.46341 15:1.46341 16:0.487805 17:0.97561 22:0.487805 26:0.487805 27:0.487805 34:1.46341 35:0.487805 36:0.97561 40:0.487805 41:0.487805 44:0.487805 45:0.97561 48:0.97561 49:0.487805 51:0.487805 52:0.487805 56:0.97561 57:0.487805 58:0.97561 59:0.487805 61:0.97561 63:0.487805 64:0.487805 65:0.487805 
0.7400698256866882 1:0.171627 2:0.0484614 3:16.624 4:13.8157 5:13.1419 15:1.81818 28:1.81818 31:1.81818 37:1.81818 39:1.81818 47:1.81818 49:3.63636 50:1.81818 53:1.81818 66:1.81818 
1 1:0.215621 2:0.130846 3:16.3634 4:8.11368 5:15.9087 11:0.714286 28:0.714286 31:0.714286 35:1.42857 40:0.714286 41:1.42857 42:0.714286 43:1.42857 44:2.14286 45:0.714286 47:1.42857 48:0.714286 50:0.714286 51:0.714286 52:0.714286 56:1.42857 57:2.85714 64:0.714286 
1 1:0.30829 2:0.247153 3:15.6793 4:8.0591 5:15.2124 8:0.392157 9:0.392157 12:0.392157 15:1.17647 16:0.392157 20:0.392157 21:0.784314 25:1.17647 28:0.784314 29:0.392157 30:0.392157 31:1.96078 34:0.784314 35:0.784314 38:0.392157 40:0.784314 41:0.392157 42:0.392157 43:0.392157 44:0.392157 47:0.784314 49:0.392157 50:0.392157 51:1.56863 55:0.392157 57:0.392157 59:0.392157 61:1.17647 62:0.392157 64:0.392157 65:0.392157 66:0.392157 
1 1:0.220722 2:0.111461 3:14.0431 4:16.6513 5:14.6985 6:0.833333 7:1.66667 8:0.833333 13:0.833333 14:0.833333 17:0.833333 20:0.833333 22:0.833333 26:0.833333 27:0.833333 28:0.833333 30:1.66667 32:0.833333 34:0.833333 35:0.833333 42:0.833333 46:0.833333 55:0.833333 57:0.833333 58:0.833333 60:1.66667 
0.009752743194365591 1:0.156386 3:14.9141 4:3.27335 5:12.3359 14:20 
0.0802133862384096 1:0.159244 2:0.0193845 3:18.8347 4:10.0205 5:16.679 28:4 31:4 44:8 46:4 
1 1:0.169991 2:0.0339229 3:16.5358 4:12.356 5:14.6894 16:2.5 19:2.5 20:2.5 25:2.5 31:2.5 46:2.5 65:5 
0.3229813984342086 1:0.244905 2:0.164769 3:14.9267 4:9.22147 5:12.7893 11:1.17647 12:1.76471 16:0.588235 17:0.588235 21:0.588235 25:1.17647 28:1.76471 29:0.588235 30:0.588235 32:0.588235 34:0.588235 35:0.588235 36:0.588235 37:0.588235 38:0.588235 41:0.588235 42:0.588235 44:1.17647 46:0.588235 47:0.588235 50:0.588235 53:1.17647 56:0.588235 57:0.588235 59:1.17647 
1 1:0.354014 2:0.353768 3:15.5445 4:12.2788 5:14.7362 6:0.547945 7:0.273973 8:0.547945 9:0.821918 11:0.273973 12:0.547945 17:0.273973 18:0.547945 19:0.547945 21:0.547945 22:0.547945 23:0.547945 24:0.273973 25:0.821918 26:0.547945 27:0.273973 29:0.547945 31:0.547945 32:0.273973 33:0.273973 35:0.547945 36:0.273973 38:0.273973 41:0.821918 42:1.09589 45:0.273973 46:0.273973 48:0.273973 49:0.273973 50:0.273973 51:0.273973 52:1.36986 53:0.273973 54:0.821918 55:0.273973 56:0.273973 57:0.547945 59:0.273973 62:1.09589 64:0.821918 
1 1:0.255562 2:0.208384 3:14.3853 4:8.38189 5:12.8686 6:0.909091 8:0.454545 10:0.454545 11:1.81818 13:0.909091 15:1.81818 16:0.454545 19:0.454545 20:0.454545 21:0.454545 23:0.454545 26:0.909091 27:0.454545 29:0.454545 32:0.909091 34:0.454545 37:0.454545 38:0.909091 39:0.454545 41:0.454545 44:0.454545 45:0.909091 49:0.454545 53:0.454545 58:1.36364 59:0.454545 61:0.909091 65:0.454545 66:0.454545 
1 1:0.310027 2:0.184153 3:14.158 4:11.8606 5:13.8196 6:0.526316 9:1.05263 11:1.57895 13:0.526316 14:0.526316 15:1.05263 16:0.526316 17:1.05263 18:1.05263 19:0.526316 20:1.57895 25:0.526316 26:0.526316 28:1.05263 31:1.05263 36:0.526316 38:1.05263 40:0.526316 44:0.526316 46:0.526316 47:0.526316 49:1.57895 51:0.526316 58:0.526316 59:0.526316 
1 1:0.161332 2:0.0484614 3:15.0148 4:9.17708 5:14.3367 7:1.81818 11:1.81818 15:1.81818 24:1.81818 34:1.81818 42:1.81818 45:1.81818 46:3.63636 49:1.81818 50:1.81818 
1 1:0.277191 2:0.271384 3:15.0539 4:17.6499 5:14.3961 6:0.350877 10:0.350877 11:0.350877 12:1.40351 14:0.350877 15:0.350877 16:1.05263 17:0.701754 20:0.350877 21:0.350877 23:0.350877 24:0.701754 28:0.350877 29:1.75439 32:0.350877 33:0.350877 34:1.40351 41:0.350877 42:0.350877 43:0.350877 44:0.350877 49:0.701754 50:0.350877 51:0.350877 53:0.350877 57:1.40351 58:0.701754 59:1.05263 60:0.701754 61:0.701754 62:0.701754 64:0.350877 66:0.350877 
1 1:0.303797 2:0.198692 3:16.0305 4:10.5265 5:16.4149 6:0.952381 7:1.42857 9:0.47619 14:0.47619 17:0.952381 20:0.47619 26:0.47619 29:0.952381 32:0.47619 35:0.47619 40:0.952381 41:0.47619 42:0.47619 43:0.47619 44:2.38095 45:0.47619 47:0.47619 49:0.47619 50:0.952381 53:0.47619 55:1.42857 57:0.952381 59:0.47619 60:0.47619 62:0.47619 64:0.952381 65:0.47619 
1 1:0.312034 2:0.222922 3:14.8048 4:5.77229 5:14.6811 7:0.444444 12:0.444444 15:0.888889 18:0.888889 21:0.444444 26:0.444444 29:0.444444 30:0.444444 32:0.444444 34:0.888889 35:1.77778 39:0.444444 40:0.888889 42:0.888889 43:1.33333 44:0.888889 45:0.888889 46:1.77778 47:0.444444 48:0.888889 51:0.444444 54:0.888889 55:0.444444 58:0.888889 59:0.444444 60:0.444444 63:0.444444 
1 1:0.280306 2:0.222922 3:14.8557 4:10.5891 5:15.2232 6:0.434783 7:0.434783 10:0.434783 12:0.434783 14:0.434783 15:0.434783 18:0.869565 19:0.869565 21:0.434783 26:0.869565 28:0.869565 30:1.30435 31:0.434783 33:0.869565 34:0.434783 35:0.869565 36:0.434783 41:0.869565 42:0.434783 43:0.434783 46:0.869565 47:0.434783 50:0.869565 53:0.434783 54:0.869565 57:0.434783 58:0.869565 59:0.434783 61:0.434783 62:0.434783 63:0.434783 64:0.869565 
1 1:0.722972 2:0.528229 3:16.2103 4:9.2159 5:14.5815 7:0.545455 9:0.181818 10:0.727273 11:0.181818 13:0.363636 14:0.363636 15:0.363636 16:1.09091 17:0.363636 18:0.181818 19:0.909091 20:1.09091 22:0.545455 23:0.181818 24:0.181818 25:0.363636 26:0.545455 28:0.181818 29:0.181818 31:0.363636 32:0.363636 34:0.363636 35:0.909091 37:0.545455 38:0.181818 40:1.09091 41:0.181818 42:0.727273 43:0.545455 44:0.545455 45:0.545455 46:0.363636 48:0.363636 49:0.181818 50:0.181818 51:0.181818 54:0.181818 55:0.181818 57:0.363636 58:0.363636 60:0.181818 61:0.363636 62:0.181818 63:0.909091 64:0.363636 65:0.363636 66:0.363636 
1 1:0.226374 2:0.188999 3:16.1507 4:12.5506 5:15.1018 7:1 8:0.5 10:1.5 16:0.5 22:1 25:0.5 26:1 28:0.5 30:1 34:0.5 36:0.5 38:0.5 40:0.5 41:0.5 42:0.5 43:0.5 44:0.5 45:0.5 46:1.5 47:1.5 51:0.5 54:0.5 55:0.5 56:0.5 61:0.5 63:1.5 64:0.5 65:0.5 
1 1:0.188892 2:0.193845 3:15.1043 4:12.8669 5:14.4242 8:0.97561 9:0.97561 10:0.97561 15:0.487805 16:0.487805 17:0.487805 18:1.46341 19:0.487805 20:0.487805 23:0.487805 24:0.487805 26:0.487805 27:0.487805 28:0.97561 29:0.487805 31:0.487805 32:0.487805 34:0.487805 40:0.487805 45:0.487805 47:0.487805 49:0.487805 50:1.46341 51:0.97561 53:0.487805 56:0.97561 57:0.487805 59:0.487805 60:0.487805 61:0.487805 64:0.487805 
1 1:0.18743 2:0.140538 3:15.4392 4:10.5531 5:14.7553 7:2 10:1.33333 11:0.666667 12:0.666667 13:0.666667 15:2 17:0.666667 18:0.666667 21:0.666667 24:0.666667 29:0.666667 31:0.666667 33:0.666667 34:1.33333 35:1.33333 38:0.666667 43:0.666667 52:0.666667 57:0.666667 59:0.666667 62:0.666667 64:0.666667 66:0.666667 
1 1:0.189524 2:0.130846 3:15.344 4:7.07395 5:14.6233 10:0.714286 11:0.714286 12:0.714286 13:2.14286 22:0.714286 27:0.714286 30:0.714286 33:0.714286 35:0.714286 38:0.714286 41:0.714286 42:0.714286 43:1.42857 44:0.714286 46:0.714286 47:0.714286 50:0.714286 51:0.714286 53:2.14286 56:0.714286 58:0.714286 61:0.714286 65:0.714286 
1 1:0.414324 2:0.232614 3:14.8283 4:6.42497 5:14.3989 7:0.425532 9:1.2766 10:0.425532 14:0.425532 17:0.425532 18:0.425532 21:0.425532 26:0.425532 28:1.2766 29:0.425532 31:1.2766 35:2.12766 37:2.12766 43:0.425532 44:0.851064 47:1.70213 52:0.851064 54:0.851064 57:0.851064 58:0.425532 59:0.425532 60:0.851064 61:0.425532 63:0.425532 64:0.425532 
0.1225995308776144 1:0.166433 2:0.0387691 3:16.0223 4:12.9121 5:17.023 6:2.22222 11:2.22222 17:4.44444 29:2.22222 38:2.22222 44:2.22222 53:2.22222 58:2.22222 
0.09523623019832148 1:0.187058 2:0.072692 3:16.055 4:8.42247 5:14.7841 8:1.25 9:1.25 13:1.25 15:1.25 19:1.25 22:1.25 23:1.25 26:1.25 27:1.25 31:1.25 34:1.25 37:1.25 45:1.25 53:1.25 64:2.5 
1 1:0.156151 3:14.9141 4:3.27335 5:12.3359 46:20 
1 1:0.182855 2:0.072692 3:17.0704 4:10.6952 5:15.4498 7:2.5 22:1.25 26:1.25 31:1.25 35:2.5 38:1.25 40:1.25 44:2.5 46:1.25 49:1.25 52:1.25 55:2.5 
1 1:0.176873 2:0.159922 3:14.6194 4:14.2374 5:12.9448 7:1.17647 8:1.17647 10:1.17647 11:0.588235 15:1.17647 20:0.588235 21:1.17647 26:0.588235 30:0.588235 34:0.588235 35:1.76471 42:0.588235 44:0.588235 45:0.588235 46:0.588235 47:1.17647 48:0.588235 49:0.588235 50:0.588235 51:0.588235 55:0.588235 57:0.588235 61:1.17647 62:0.588235 65:0.588235 
1 1:0.241719 2:0.499152 3:15.4702 4:17.0144 5:15.6655 6:0.769231 7:0.384615 8:0.384615 9:0.384615 10:0.384615 11:0.576923 12:0.384615 13:1.15385 15:0.384615 17:0.192308 18:0.961538 20:0.961538 21:0.384615 24:0.192308 26:0.769231 28:0.769231 29:0.192308 31:0.961538 32:0.192308 33:0.192308 34:0.576923 35:0.769231 38:0.384615 39:0.384615 41:0.192308 42:0.384615 44:0.384615 45:0.576923 46:0.384615 47:0.192308 51:0.384615 53:0.769231 54:0.384615 55:0.576923 56:0.384615 57:0.576923 58:0.384615 60:0.384615 62:0.384615 64:0.384615 65:0.576923 
0.3476594774514408 1:0.215063 2:0.159922 3:14.5416 4:17.5461 5:15.8244 7:3.52941 8:1.76471 9:0.588235 11:0.588235 12:0.588235 20:0.588235 26:0.588235 27:0.588235 28:1.17647 31:0.588235 35:1.17647 37:0.588235 39:0.588235 43:0.588235 44:2.94118 47:0.588235 50:1.17647 51:0.588235 59:0.588235 63:0.588235 
0.4380748064524258 1:0.195184 2:0.0678459 3:16.61 4:13.1007 5:15.1318 16:1.33333 22:2.66667 34:5.33333 38:1.33333 45:2.66667 46:2.66667 48:1.33333 53:2.66667 
1 1:0.171684 2:0.0339229 3:16.6211 4:7.61079 5:14.6147 18:2.5 26:2.5 29:2.5 35:5 42:2.5 58:2.5 59:2.5 
1 1:0.208301 2:0.111461 3:14.5822 4:10.9405 5:14.333 6:0.833333 10:0.833333 11:2.5 14:0.833333 15:1.66667 16:0.833333 17:1.66667 24:0.833333 25:1.66667 31:0.833333 34:1.66667 35:0.833333 38:0.833333 43:0.833333 45:0.833333 49:0.833333 58:0.833333 60:0.833333 
1 1:0.292373 2:0.222922 3:15.0635 4:13.299 5:14.6123 6:0.425532 9:0.425532 10:1.2766 11:0.425532 12:1.2766 14:0.851064 15:0.851064 17:0.851064 19:0.425532 21:0.425532 26:0.425532 31:0.425532 32:1.2766 34:0.851064 39:0.425532 41:0.425532 43:0.425532 44:0.851064 45:0.851064 47:0.425532 48:0.425532 49:1.2766 50:0.425532 54:0.425532 55:0.425532 56:0.425532 57:0.425532 58:0.425532 61:0.851064 63:0.851064 65:0.425532 
1 1:0.314893 2:0.305307 3:16.1818 4:18.6744 5:16.0346 6:0.625 7:1.25 8:0.625 9:0.3125 12:0.3125 17:0.625 20:1.5625 24:0.625 31:0.3125 34:0.625 35:0.625 38:0.3125 42:0.9375 43:1.25 44:3.125 46:0.9375 50:0.3125 51:0.625 52:0.3125 53:2.1875 54:0.625 56:1.25 58:0.625 
1 1:0.280378 2:0.218076 3:14.797 4:9.02825 5:15.1739 6:0.869565 7:0.869565 8:0.434783 10:0.869565 11:0.434783 16:0.434783 17:0.869565 20:0.434783 23:0.434783 26:0.434783 28:0.434783 29:0.434783 30:0.434783 34:0.434783 35:1.30435 38:0.434783 39:0.434783 40:1.30435 41:0.434783 43:0.869565 44:0.434783 47:0.434783 50:0.869565 51:0.869565 55:1.30435 57:0.869565 58:0.869565 61:1.30435 62:0.434783 
1 1:0.204666 2:0.242307 3:15.6402 4:17.6982 5:14.337 7:1.56863 9:0.392157 10:0.784314 11:0.784314 12:0.392157 13:1.17647 15:0.392157 17:0.392157 19:0.784314 21:0.392157 22:0.392157 24:0.784314 26:0.784314 27:0.784314 28:1.17647 29:0.392157 31:0.392157 32:0.392157 34:0.784314 40:0.784314 42:0.392157 43:0.392157 44:0.392157 45:0.392157 46:0.392157 50:0.784314 52:0.784314 54:0.392157 55:0.392157 56:0.784314 58:0.392157 62:0.392157 64:0.392157 
1 1:0.225825 2:0.0920766 3:18.7254 4:10.0205 5:17.3432 8:1 9:4 10:1 12:1 15:1 23:1 28:1 29:1 30:1 31:2 39:1 40:1 42:1 44:1 53:1 57:1 
1 1:0.271602 2:0.145384 3:14.1962 4:13.5407 5:13.8095 7:0.645161 8:0.645161 10:0.645161 11:0.645161 14:0.645161 17:2.58065 18:1.93548 20:2.58065 22:0.645161 24:0.645161 26:0.645161 29:0.645161 30:0.645161 31:0.645161 32:0.645161 40:0.645161 43:0.645161 45:0.645161 46:0.645161 53:0.645161 56:0.645161 61:0.645161 65:0.645161 
1 1:0.222221 2:0.174461 3:14.8265 4:7.86714 5:12.771 10:1.08108 11:0.540541 13:0.540541 15:0.540541 19:1.08108 21:0.540541 23:0.540541 24:0.540541 30:1.08108 35:0.540541 39:0.540541 40:0.540541 42:1.08108 43:0.540541 44:0.540541 45:1.08108 47:1.08108 48:0.540541 49:1.62162 51:0.540541 52:1.08108 53:0.540541 56:0.540541 57:0.540541 58:0.540541 62:0.540541 63:0.540541 66:0.540541 
1 1:0.164505 2:0.0242307 3:16.3563 4:10.9405 5:13.4609 7:3.33333 40:3.33333 43:3.33333 46:3.33333 50:3.33333 66:3.33333 
1 1:0.276214 2:0.310153 3:15.3153 4:10.0205 5:13.4112 6:0.923077 7:0.615385 8:0.307692 9:0.307692 10:0.615385 11:0.923077 12:0.307692 15:1.53846 16:0.307692 18:0.615385 19:0.307692 20:0.307692 21:0.615385 23:0.307692 26:0.615385 28:0.307692 29:0.615385 30:0.307692 34:0.923077 38:0.307692 39:0.615385 40:1.23077 43:1.23077 45:0.615385 49:0.615385 50:0.615385 53:0.307692 55:0.615385 56:0.923077 61:1.23077 63:0.307692 65:0.307692 66:0.307692 
1 1:0.219185 2:0.208384 3:15.5893 4:17.7122 5:14.7731 6:0.454545 8:0.454545 10:0.454545 11:0.909091 12:0.454545 14:0.454545 16:0.454545 17:0.909091 18:0.909091 20:0.454545 23:0.909091 28:1.36364 29:0.454545 30:0.454545 34:1.36364 37:1.36364 38:0.454545 40:0.454545 42:0.454545 44:0.454545 45:0.454545 47:0.909091 53:1.81818 56:0.909091 57:0.454545 58:0.454545 59:0.454545 61:0.909091 
0.1831811677451891 1:0.167105 2:0.0290768 3:13.8481 4:11.7073 5:12.2319 6:2.85714 12:2.85714 31:2.85714 46:5.71429 58:2.85714 66:2.85714 
1 1:0.260556 2:0.188999 3:14.8898 4:9.10041 5:14.5746 6:0.5 8:1 9:1 10:1.5 11:0.5 13:1 14:0.5 15:1 17:1 18:1.5 19:0.5 22:0.5 26:1 28:1.5 31:1 33:0.5 36:0.5 38:0.5 43:1 45:1 50:0.5 55:1 57:0.5 58:0.5 
1 1:0.198659 2:0.0969227 3:15.3037 4:6.86813 5:14.0872 6:0.952381 7:1.90476 10:0.952381 23:0.952381 30:0.952381 35:1.90476 43:0.952381 44:1.90476 48:0.952381 49:0.952381 51:0.952381 55:0.952381 56:0.952381 60:0.952381 61:0.952381 64:0.952381 65:1.90476 
1 1:0.168454 2:0.0920766 3:14.7985 4:12.1673 5:15.1097 7:2 8:1 15:1 19:2 22:1 29:1 30:2 35:1 45:1 46:1 49:1 51:1 57:1 59:1 61:2 65:1 
1 1:0.342965 2:0.203538 3:15.7923 4:8.5174 5:14.809 7:1.42857 8:0.47619 10:0.952381 17:0.47619 21:0.47619 23:0.47619 27:0.952381 29:1.42857 30:0.952381 34:0.47619 40:0.952381 41:1.90476 42:0.47619 44:0.952381 46:1.42857 47:0.47619 49:0.952381 50:0.47619 51:0.47619 53:0.47619 57:0.47619 60:1.42857 61:1.42857 
1 1:0.159725 2:0.0484614 3:15.3195 4:13.8157 5:15.264 10:3.63636 16:1.81818 20:1.81818 24:1.81818 26:1.81818 46:1.81818 53:1.81818 58:3.63636 63:1.81818 
1 1:0.164204 2:0.0387691 3:16.5273 4:6.40595 5:14.5584 10:2.22222 17:2.22222 24:2.22222 25:2.22222 28:2.22222 45:2.22222 51:2.22222 53:2.22222 63:2.22222 
1 1:0.228224 2:0.164769 3:14.9685 4:14.6591 5:13.0799 7:0.571429 8:1.71429 10:1.14286 16:0.571429 20:0.571429 23:0.571429 24:0.571429 31:0.571429 32:1.14286 34:0.571429 35:0.571429 37:1.14286 39:0.571429 42:0.571429 43:0.571429 44:1.14286 48:0.571429 49:1.14286 56:1.14286 58:1.14286 61:1.14286 63:0.571429 64:0.571429 65:0.571429 66:0.571429 
0.2286086887674627 1:0.268165 2:0.15023 3:14.1953 4:4.88228 5:12.1587 11:0.645161 16:0.645161 17:0.645161 18:0.645161 29:1.29032 31:0.645161 32:1.29032 34:0.645161 35:1.29032 36:0.645161 38:0.645161 39:1.29032 42:0.645161 46:0.645161 50:0.645161 55:3.22581 59:1.29032 62:1.93548 63:0.645161 64:0.645161 
1 1:0.208913 2:0.0969227 3:14.7684 4:9.78511 5:15.2566 6:0.952381 7:1.90476 8:1.90476 10:0.952381 11:0.952381 13:1.90476 15:0.952381 24:0.952381 34:0.952381 38:1.90476 39:0.952381 40:0.952381 44:0.952381 46:0.952381 49:0.952381 51:0.952381 60:0.952381 
1 1:0.278584 2:0.21323 3:14.4662 4:10.7434 5:13.9344 6:0.888889 10:3.55556 11:0.888889 13:0.444444 15:1.77778 24:0.444444 26:0.444444 27:0.444444 28:0.444444 29:0.444444 32:0.444444 34:0.444444 42:0.888889 43:0.444444 45:0.888889 46:1.33333 47:0.888889 49:0.888889 50:0.444444 53:0.888889 56:1.33333 60:0.444444 61:0.444444 65:0.444444 
1 1:0.169784 2:0.0484614 3:16.1485 4:13.8157 5:14.6745 6:1.81818 14:1.81818 18:1.81818 21:1.81818 45:1.81818 46:1.81818 50:1.81818 55:1.81818 58:1.81818 61:1.81818 63:1.81818 
1 1:0.245765 2:0.179307 3:14.2425 4:7.912 5:13.512 6:0.540541 7:0.540541 8:0.540541 12:0.540541 13:0.540541 15:1.08108 17:0.540541 18:0.540541 19:0.540541 20:1.62162 23:1.08108 24:0.540541 28:0.540541 29:0.540541 31:1.08108 34:1.62162 35:0.540541 36:0.540541 39:0.540541 43:1.08108 44:0.540541 46:0.540541 52:0.540541 55:0.540541 58:1.08108 59:0.540541 61:1.08108 
1 1:0.340785 2:0.348922 3:15.3697 4:14.3863 5:14.4831 7:0.28169 8:0.56338 9:0.28169 10:0.28169 11:0.56338 13:0.28169 14:0.56338 16:0.28169 17:0.84507 18:0.56338 19:0.28169 21:0.28169 28:1.12676 30:0.56338 31:0.84507 34:0.28169 35:1.40845 36:0.28169 38:0.84507 40:0.84507 41:0.28169 42:0.28169 43:0.84507 44:1.69014 46:0.28169 47:0.28169 48:0.28169 49:0.84507 50:1.12676 55:0.56338 56:0.28169 57:0.28169 58:0.84507 60:0.28169 61:0.28169 64:0.28169 
1 1:0.169086 2:0.072692 3:16.7148 4:15.3218 5:14.0757 7:1.25 23:1.25 24:1.25 29:1.25 37:1.25 40:1.25 42:1.25 43:1.25 44:1.25 45:1.25 49:2.5 50:1.25 60:1.25 61:2.5 
0.4937353420310151 1:0.187081 2:0.0823843 3:14.6314 4:15.7409 5:17.1888 7:1.11111 12:2.22222 13:1.11111 20:1.11111 22:1.11111 24:1.11111 31:2.22222 49:1.11111 50:1.11111 51:1.11111 53:1.11111 54:1.11111 55:1.11111 56:1.11111 57:1.11111 58:1.11111 
0.6387931640226044 1:0.212868 2:0.0775382 3:14.9561 4:8.72295 5:13.7682 8:1.17647 10:1.17647 11:2.35294 13:1.17647 14:1.17647 15:1.17647 24:2.35294 26:1.17647 31:1.17647 33:1.17647 44:1.17647 53:1.17647 61:1.17647 64:1.17647 66:1.17647 
1 1:0.317973 2:0.339229 3:15.4608 4:12.183 5:14.372 6:1.14286 7:0.571429 8:0.571429 9:0.285714 10:1.42857 12:0.857143 14:0.285714 16:0.285714 17:0.285714 18:0.285714 19:0.285714 20:0.857143 21:0.571429 22:0.285714 24:0.285714 25:0.571429 26:0.285714 28:1.14286 29:0.857143 30:0.285714 31:0.857143 36:0.285714 37:0.285714 40:0.285714 41:0.285714 43:0.285714 44:0.857143 46:0.571429 47:0.285714 50:0.571429 52:0.571429 53:0.571429 55:0.285714 56:0.285714 57:0.571429 58:0.285714 59:0.571429 64:0.285714 65:0.571429 
0.3357991778784242 1:0.167826 2:0.0533075 3:15.6078 4:5.29749 5:15.0899 10:3.33333 13:1.66667 18:1.66667 28:1.66667 29:1.66667 44:1.66667 45:5 55:1.66667 57:1.66667 
1 1:0.25481 2:0.251999 3:15.2297 4:18.3962 5:14.7747 8:0.377358 9:0.754717 10:1.13208 11:1.88679 14:0.377358 17:0.377358 18:0.377358 19:1.13208 20:0.377358 23:0.377358 24:0.377358 28:0.754717 29:0.754717 31:0.754717 34:0.377358 36:0.754717 38:0.377358 39:0.377358 40:0.377358 41:0.377358 43:1.50943 45:0.754717 46:0.754717 49:0.377358 54:0.377358 55:0.377358 57:0.377358 58:0.754717 59:0.377358 60:0.377358 61:0.754717 65:0.754717 
1 1:0.171 2:0.0484614 3:15.8499 4:10.5024 5:16.7528 11:1.81818 16:1.81818 28:1.81818 29:1.81818 42:1.81818 44:3.63636 46:1.81818 57:3.63636 65:1.81818 
1 1:0.197614 2:0.121153 3:16.0294 4:16.8764 5:16.2462 6:0.769231 7:0.769231 9:0.769231 15:0.769231 17:0.769231 24:0.769231 26:0.769231 27:1.53846 28:0.769231 29:0.769231 31:1.53846 41:0.769231 43:0.769231 44:0.769231 45:0.769231 47:0.769231 51:0.769231 53:1.53846 56:1.53846 57:0.769231 62:0.769231 63:0.769231 
0.7379892625808838 1:0.159557 2:0.0629998 3:14.3291 4:14.8145 5:13.8731 7:1.42857 8:1.42857 10:1.42857 11:1.42857 12:1.42857 24:1.42857 38:1.42857 44:1.42857 48:1.42857 50:1.42857 51:1.42857 55:1.42857 56:1.42857 63:1.42857 
1 1:0.216504 2:0.101769 3:15.4629 4:5.6089 5:16.0285 7:1.81818 8:0.909091 13:1.81818 18:0.909091 24:0.909091 26:0.909091 28:0.909091 31:0.909091 34:0.909091 40:0.909091 43:1.81818 46:0.909091 49:3.63636 51:0.909091 65:1.81818 
0.9015887535463151 1:0.23861 2:0.164769 3:13.2705 4:11.9074 5:14.9023 6:0.571429 7:1.14286 10:0.571429 11:0.571429 14:0.571429 15:0.571429 17:1.14286 20:1.71429 22:0.571429 23:0.571429 24:0.571429 28:0.571429 30:0.571429 34:1.14286 38:0.571429 45:1.14286 46:0.571429 47:1.14286 49:0.571429 55:0.571429 57:0.571429 58:2.28571 59:0.571429 60:0.571429 62:0.571429 
1 1:0.301627 2:0.271384 3:15.2776 4:8.26036 5:13.8952 9:0.350877 10:1.05263 11:0.350877 13:0.701754 14:0.350877 15:0.701754 16:0.701754 17:0.701754 18:0.350877 19:0.350877 20:0.701754 22:0.350877 24:0.350877 25:0.350877 30:1.05263 31:0.350877 32:0.350877 34:0.701754 35:0.350877 36:0.350877 39:0.350877 42:0.350877 43:0.701754 44:0.350877 45:0.350877 47:0.350877 48:0.350877 49:0.350877 50:1.05263 52:0.350877 53:1.05263 54:0.350877 60:0.701754 61:1.05263 64:1.05263 66:0.701754 
1 1:0.223543 2:0.188999 3:15.6412 4:15.4701 5:13.5747 7:0.5 8:1 9:0.5 11:1 12:1 15:0.5 16:0.5 19:0.5 20:0.5 21:0.5 22:0.5 23:0.5 24:0.5 31:0.5 38:0.5 39:0.5 40:0.5 42:0.5 43:0.5 44:1.5 45:1 46:1 54:1 55:0.5 56:1.5 58:0.5 61:0.5 63:0.5 64:0.5 66:0.5 
0.1558843012324908 1:0.167587 2:0.0678459 3:16.7497 4:15.0808 5:14.8071 7:1.33333 11:1.33333 14:1.33333 28:1.33333 31:4 38:1.33333 41:2.66667 44:1.33333 47:2.66667 52:1.33333 62:1.33333 
1 1:0.24828 2:0.145384 3:16.0943 4:15.2042 5:13.8325 7:0.645161 8:1.29032 9:0.645161 12:0.645161 15:1.29032 18:0.645161 23:0.645161 24:0.645161 28:1.29032 29:0.645161 30:0.645161 31:0.645161 32:0.645161 35:0.645161 37:0.645161 38:0.645161 39:0.645161 40:0.645161 43:0.645161 50:0.645161 51:0.645161 52:0.645161 55:1.93548 62:1.29032 64:0.645161 
0.8926230359053194 1:0.157995 2:0.0290768 3:16.3406 4:11.7073 5:14.7706 7:2.85714 33:2.85714 38:2.85714 42:2.85714 57:2.85714 58:2.85714 61:2.85714 
1 1:0.270541 2:0.116307 3:16.7724 4:9.63122 5:15.3694 9:1.6 16:0.8 18:0.8 24:0.8 26:0.8 28:0.8 29:1.6 34:1.6 35:0.8 38:0.8 39:1.6 43:0.8 47:0.8 49:2.4 51:0.8 56:0.8 57:0.8 61:1.6 
1 1:0.207842 2:0.130846 3:14.9791 4:17.0743 5:13.7096 7:0.714286 8:0.714286 9:1.42857 11:0.714286 12:0.714286 13:0.714286 19:0.714286 22:0.714286 35:0.714286 40:0.714286 43:1.42857 45:2.85714 46:0.714286 50:0.714286 51:0.714286 52:0.714286 54:0.714286 57:0.714286 60:0.714286 61:1.42857 65:1.42857 
1 1:0.256493 2:0.164769 3:15.5849 4:16.3753 5:14.9708 6:0.588235 7:0.588235 8:0.588235 11:1.17647 12:0.588235 13:0.588235 14:0.588235 17:0.588235 24:1.17647 26:0.588235 29:1.17647 30:0.588235 31:1.17647 34:0.588235 35:1.17647 38:0.588235 40:1.17647 41:0.588235 44:1.17647 46:1.17647 50:0.588235 52:0.588235 53:0.588235 59:0.588235 61:0.588235 64:0.588235 
1 1:0.329075 2:0.377999 3:15.3874 4:12.9003 5:15.7973 6:0.25641 7:1.28205 8:0.25641 9:0.25641 10:0.769231 11:0.25641 12:0.25641 14:0.25641 15:0.769231 16:0.25641 17:0.512821 18:1.28205 20:0.25641 22:0.512821 23:0.25641 24:0.512821 25:0.769231 27:0.25641 28:0.25641 29:0.25641 31:1.79487 38:0.769231 40:0.25641 43:0.25641 44:0.512821 45:0.25641 46:0.769231 49:1.02564 52:0.25641 54:0.25641 55:1.53846 56:0.25641 58:0.769231 60:0.25641 61:0.25641 64:0.512821 65:0.25641 66:0.512821 
0.7745300056556457 1:0.181924 2:0.126 3:14.7937 4:16.9784 5:14.0573 7:0.8 14:0.8 15:0.8 18:0.8 20:0.8 21:0.8 24:0.8 26:0.8 29:2.4 32:0.8 40:0.8 41:0.8 43:0.8 44:2.4 47:1.6 57:0.8 58:0.8 59:0.8 60:0.8 65:0.8 
1 1:0.22806 2:0.126 3:15.813 4:13.5627 5:15.3589 8:0.740741 10:2.22222 11:0.740741 15:0.740741 19:1.48148 21:0.740741 24:0.740741 25:1.48148 27:0.740741 28:2.22222 37:0.740741 38:0.740741 40:0.740741 43:0.740741 45:0.740741 47:0.740741 53:0.740741 55:0.740741 58:0.740741 59:0.740741 64:0.740741 
0.7278386177937878 1:0.166824 2:0.0436152 3:15.102 4:7.68493 5:14.8515 11:4 18:2 20:2 26:2 29:2 32:2 40:2 42:2 44:2 
1 1:0.245468 2:0.0920766 3:17.8717 4:8.89595 5:16.2476 7:1 16:1 19:2 21:1 23:1 28:1 29:1 30:1 31:2 40:1 44:1 50:1 54:1 63:2 64:1 65:2 
1 1:0.186871 2:0.159922 3:14.7744 4:13.394 5:15.4436 7:0.588235 9:0.588235 10:0.588235 11:3.52941 16:1.17647 29:0.588235 38:0.588235 40:0.588235 41:1.76471 45:3.52941 46:0.588235 47:0.588235 53:0.588235 54:0.588235 55:0.588235 57:0.588235 58:1.17647 60:0.588235 63:1.17647 
1 1:0.205523 2:0.159922 3:14.5995 4:17.5461 5:15.1093 6:0.588235 7:1.17647 9:0.588235 11:1.17647 14:0.588235 17:0.588235 18:0.588235 21:0.588235 22:0.588235 24:1.17647 27:0.588235 31:0.588235 32:0.588235 34:0.588235 35:2.35294 47:1.17647 48:0.588235 49:0.588235 50:0.588235 51:0.588235 53:0.588235 55:0.588235 56:1.17647 57:1.17647 60:0.588235 
0.1103747315936076 1:0.164407 2:0.0533075 3:15.6637 4:14.1878 5:14.75 6:1.66667 8:1.66667 10:1.66667 15:1.66667 18:1.66667 29:1.66667 32:1.66667 35:1.66667 40:1.66667 55:1.66667 57:1.66667 66:1.66667 
0.5891637507644641 1:0.175139 2:0.0484614 3:14.5982 4:13.8157 5:14.6279 7:1.81818 9:1.81818 11:1.81818 19:1.81818 30:1.81818 35:1.81818 39:1.81818 46:1.81818 55:1.81818 61:1.81818 62:1.81818 
0.9611889173692171 1:0.210086 2:0.184153 3:14.5874 4:12.2344 5:14.5619 6:0.512821 7:1.53846 8:0.512821 9:0.512821 11:1.02564 12:0.512821 15:1.02564 17:0.512821 19:1.02564 21:0.512821 23:0.512821 27:0.512821 28:0.512821 30:0.512821 35:1.02564 39:1.02564 45:0.512821 51:1.02564 53:0.512821 57:1.53846 58:1.02564 59:1.02564 60:1.02564 62:0.512821 65:1.02564 
1 1:0.338266 2:0.232614 3:15.4027 4:13.8692 5:14.9698 7:0.408163 8:0.816327 9:0.408163 10:0.816327 11:1.22449 15:2.04082 18:0.408163 20:0.408163 22:0.816327 27:0.408163 28:1.22449 32:0.408163 35:0.408163 39:0.408163 40:0.816327 41:0.816327 42:0.408163 44:1.22449 45:0.816327 48:0.408163 50:1.63265 52:0.408163 57:1.22449 58:0.408163 59:0.816327 62:0.408163 65:0.408163 
1 1:0.203182 2:0.0823843 3:17.7304 4:10.3096 5:17.5366 7:1.11111 9:1.11111 10:2.22222 21:1.11111 26:1.11111 31:1.11111 35:2.22222 38:1.11111 40:2.22222 43:1.11111 50:1.11111 51:1.11111 55:2.22222 58:1.11111 
0.1780644409967439 1:0.194287 2:0.106615 3:13.8937 4:16.5266 5:14.8851 7:0.909091 9:0.909091 11:1.81818 18:0.909091 22:0.909091 27:0.909091 29:0.909091 31:1.81818 35:0.909091 40:0.909091 45:2.72727 46:0.909091 48:0.909091 49:0.909091 50:0.909091 55:0.909091 58:0.909091 65:0.909091 
1 1:0.253228 2:0.344076 3:15.3275 4:18.8268 5:14.2138 7:0.277778 8:0.555556 9:0.555556 10:0.833333 11:0.555556 12:0.833333 13:0.555556 14:0.277778 15:0.555556 16:0.277778 18:2.22222 19:0.277778 20:0.555556 21:0.277778 24:0.277778 26:0.833333 28:1.38889 29:0.833333 32:0.277778 34:0.277778 35:0.555556 37:0.277778 38:0.277778 40:0.277778 42:0.277778 43:0.277778 44:0.277778 45:0.833333 47:0.277778 49:1.11111 55:0.277778 56:0.277778 57:0.277778 58:0.555556 61:0.555556 62:0.277778 63:0.277778 64:0.277778 65:0.277778 
1 1:0.159679 2:0.0290768 3:16.2344 4:10.0205 5:15.5872 26:2.85714 30:2.85714 32:2.85714 40:2.85714 42:2.85714 46:2.85714 64:2.85714 
1 1:0.174063 2:0.0775382 3:15.9267 4:15.5408 5:13.9031 7:1.17647 15:1.17647 16:1.17647 21:1.17647 27:1.17647 29:1.17647 32:1.17647 35:1.17647 37:1.17647 40:2.35294 46:1.17647 47:1.17647 51:1.17647 55:3.52941 
0.3680704862595849 1:0.18626 2:0.0533075 3:16.5219 4:8.57466 5:12.2748 7:1.66667 12:1.66667 13:1.66667 15:1.66667 21:1.66667 30:3.33333 36:1.66667 38:3.33333 42:1.66667 44:1.66667 
1 1:0.162296 2:0.0290768 3:15.6951 4:11.7073 5:12.9106 8:2.85714 9:2.85714 15:2.85714 16:2.85714 45:2.85714 46:2.85714 65:2.85714 
1 1:0.162555 2:0.0484614 3:16.226 4:13.8157 5:13.8524 9:1.81818 11:1.81818 14:1.81818 25:1.81818 32:1.81818 46:1.81818 49:1.81818 50:1.81818 54:1.81818 62:1.81818 65:1.81818 
0.3038895197458319 1:0.167255 2:0.0484614 3:15.695 4:5.07782 5:14.0369 9:1.81818 15:3.63636 17:1.81818 20:1.81818 21:1.81818 23:5.45455 34:1.81818 61:1.81818 
1 1:0.22044 2:0.135692 3:14.7974 4:11.4096 5:14.614 7:1.37931 9:0.689655 10:0.689655 11:2.06897 15:0.689655 16:0.689655 20:0.689655 22:0.689655 24:1.37931 26:0.689655 31:0.689655 32:0.689655 35:0.689655 38:0.689655 40:0.689655 44:0.689655 49:0.689655 50:0.689655 51:0.689655 53:0.689655 55:0.689655 58:1.37931 62:0.689655 65:0.689655 
1 1:0.156552 3:14.9141 4:3.27335 5:12.3359 8:20 
1 1:0.27623 2:0.237461 3:14.94 4:13.5764 5:15.8043 6:0.408163 7:1.22449 9:0.408163 10:0.408163 13:1.22449 17:0.408163 21:0.408163 28:0.816327 29:0.408163 30:0.408163 31:1.22449 32:0.408163 35:1.22449 36:0.408163 37:0.816327 38:0.408163 40:0.408163 41:0.408163 43:0.408163 44:0.816327 46:1.22449 47:0.816327 51:0.816327 52:0.408163 54:0.408163 55:0.408163 56:0.408163 57:0.408163 58:0.408163 59:0.408163 60:0.408163 64:0.816327 66:0.408163 
1 1:0.223429 2:0.135692 3:13.8274 4:4.24794 5:12.6661 11:2.14286 13:0.714286 14:0.714286 15:1.42857 18:0.714286 20:0.714286 23:0.714286 24:0.714286 26:0.714286 31:1.42857 35:1.42857 36:0.714286 37:0.714286 41:0.714286 43:0.714286 46:0.714286 48:0.714286 50:0.714286 54:1.42857 55:0.714286 58:0.714286 65:0.714286 
1 1:0.17473 2:0.0484614 3:15.2883 4:6.85776 5:13.3815 10:1.81818 11:1.81818 13:1.81818 16:1.81818 18:1.81818 25:1.81818 40:1.81818 45:3.63636 46:1.81818 56:1.81818 
1 1:0.221177 2:0.0872304 3:13.7274 4:15.9242 5:14.119 8:1.11111 10:1.11111 11:2.22222 25:2.22222 26:2.22222 27:1.11111 29:2.22222 35:1.11111 39:1.11111 43:1.11111 44:1.11111 46:1.11111 58:1.11111 60:1.11111 
1 1:0.191283 2:0.155076 3:14.3665 4:17.4778 5:14.1344 7:0.606061 8:1.21212 10:0.606061 14:0.606061 17:0.606061 20:0.606061 22:0.606061 27:0.606061 28:0.606061 30:1.21212 34:0.606061 36:1.21212 38:0.606061 40:0.606061 46:0.606061 47:0.606061 48:0.606061 49:0.606061 50:1.21212 51:1.21212 52:0.606061 54:0.606061 55:0.606061 57:0.606061 60:0.606061 62:1.21212 65:0.606061 
1 1:0.164523 2:0.0629998 3:15.187 4:10.3953 5:13.8535 7:2.85714 9:1.42857 11:1.42857 15:1.42857 18:1.42857 19:1.42857 29:1.42857 34:1.42857 35:1.42857 43:1.42857 44:1.42857 58:1.42857 63:1.42857 
1 1:0.297091 2:0.21323 3:14.7763 4:8.33369 5:13.8321 6:0.454545 7:0.454545 10:1.36364 11:0.909091 15:0.454545 18:0.909091 20:0.454545 22:0.454545 24:0.454545 26:0.454545 28:0.454545 30:0.454545 35:1.36364 38:0.909091 39:0.454545 41:1.36364 44:1.81818 45:0.454545 46:0.454545 47:0.454545 50:0.454545 52:0.454545 55:1.36364 56:0.454545 58:0.454545 59:0.909091 60:0.454545 62:0.454545 64:0.454545 
1 1:0.178849 2:0.164769 3:15.5912 4:17.179 5:13.4887 8:0.571429 9:0.571429 10:2.28571 15:0.571429 20:0.571429 30:1.14286 37:0.571429 41:0.571429 42:1.14286 43:1.71429 44:1.14286 45:1.14286 46:1.14286 47:1.14286 48:0.571429 50:1.14286 52:0.571429 53:0.571429 56:0.571429 59:0.571429 61:0.571429 64:0.571429 66:0.571429 
1 1:0.24135 2:0.387691 3:14.9805 4:12.6095 5:14.6961 6:0.246914 7:0.246914 8:0.987654 9:0.493827 10:0.493827 11:1.7284 12:0.246914 13:0.493827 15:0.987654 16:0.246914 17:0.246914 20:1.23457 21:0.493827 22:0.493827 23:0.493827 24:0.246914 26:0.246914 28:2.46914 29:0.493827 30:0.493827 31:0.493827 35:0.246914 38:0.246914 39:0.246914 40:0.246914 43:0.246914 44:0.246914 45:0.740741 47:0.246914 49:0.493827 50:0.246914 53:0.246914 54:0.246914 55:0.246914 56:0.246914 57:0.246914 58:0.493827 60:0.493827 61:0.246914 64:0.246914 65:0.493827 
1 1:0.165667 2:0.072692 3:13.5465 4:15.3218 5:14.6356 8:2.5 9:1.25 11:1.25 15:1.25 17:1.25 18:1.25 22:1.25 26:1.25 30:1.25 43:1.25 44:2.5 46:1.25 57:1.25 58:1.25 
1 1:0.253827 2:0.164769 3:14.6584 4:11.7073 5:14.4386 6:1.14286 8:0.571429 11:1.71429 12:0.571429 14:1.14286 15:0.571429 17:1.14286 18:0.571429 25:0.571429 26:1.14286 27:0.571429 28:0.571429 30:0.571429 34:1.14286 35:0.571429 36:0.571429 40:0.571429 41:0.571429 43:0.571429 46:0.571429 53:1.14286 54:1.14286 57:1.14286 61:0.571429 64:0.571429 
1 1:0.235213 2:0.0678459 3:17.8143 4:4.05898 5:15.9962 8:1.33333 12:1.33333 18:1.33333 21:1.33333 25:1.33333 26:2.66667 31:1.33333 34:1.33333 38:1.33333 39:1.33333 40:1.33333 44:1.33333 61:1.33333 64:1.33333 
1 1:0.179418 2:0.0290768 3:16.0489 4:10.799 5:13.5954 20:2.85714 29:2.85714 45:2.85714 46:2.85714 53:2.85714 56:2.85714 65:2.85714 
1 1:0.229381 2:0.174461 3:14.8355 4:12.8124 5:15.2762 6:1.08108 7:1.62162 8:1.08108 11:0.540541 13:1.62162 16:0.540541 17:0.540541 19:0.540541 20:1.08108 21:1.08108 22:0.540541 24:1.08108 30:0.540541 31:0.540541 34:0.540541 38:0.540541 41:0.540541 42:0.540541 46:0.540541 51:0.540541 52:0.540541 54:0.540541 55:0.540541 57:0.540541 58:0.540541 60:0.540541 65:0.540541 66:0.540541 
1 1:0.353209 2:0.421614 3:15.9416 4:8.76168 5:13.66 6:0.229885 8:0.689655 9:0.91954 10:0.229885 11:0.45977 12:0.229885 13:0.45977 14:0.229885 16:0.229885 18:0.229885 19:0.229885 20:0.229885 21:0.45977 23:0.45977 24:0.45977 25:0.689655 26:1.6092 27:0.45977 28:0.229885 29:0.689655 30:0.689655 32:0.45977 35:1.14943 36:0.45977 38:0.229885 39:1.6092 40:0.689655 41:0.229885 42:0.45977 43:0.229885 44:0.45977 46:0.45977 49:0.229885 55:0.229885 56:0.229885 57:0.45977 61:0.45977 62:0.229885 63:0.229885 64:0.45977 65:0.689655 66:0.229885 
0.5102916359701295 1:0.176156 2:0.0387691 3:14.5157 4:5.77632 5:15.3563 7:2.22222 15:2.22222 17:2.22222 23:2.22222 45:2.22222 55:2.22222 61:2.22222 64:2.22222 66:2.22222 
1 1:0.200311 2:0.0629998 3:16.9899 4:3.7817 5:13.3445 6:1.42857 16:1.42857 26:1.42857 28:1.42857 29:2.85714 35:1.42857 37:1.42857 39:1.42857 40:1.42857 46:2.85714 52:1.42857 62:1.42857 
1 1:0.185467 2:0.111461 3:16.8728 4:6.55449 5:16.9937 7:0.833333 9:0.833333 12:0.833333 14:0.833333 19:2.5 21:0.833333 29:0.833333 34:0.833333 36:0.833333 37:0.833333 38:0.833333 39:0.833333 40:0.833333 44:0.833333 45:1.66667 46:0.833333 51:0.833333 55:0.833333 57:0.833333 64:0.833333 66:0.833333 
1 1:0.432511 2:0.353768 3:15.5117 4:6.55695 5:13.9391 7:0.821918 9:0.273973 11:1.09589 12:0.547945 13:0.547945 15:0.547945 18:0.821918 19:0.547945 21:0.273973 22:0.273973 27:0.273973 29:0.273973 30:0.273973 31:0.821918 32:0.547945 35:0.821918 36:0.547945 37:0.273973 38:0.547945 39:0.273973 40:0.821918 42:0.547945 43:0.273973 44:1.36986 45:0.547945 46:0.821918 47:0.273973 50:0.547945 52:0.547945 53:0.273973 54:0.547945 56:0.273973 58:0.547945 61:0.273973 63:0.547945 64:0.273973 65:0.821918 66:0.273973 
1 1:0.199973 2:0.0387691 3:16.9116 4:2.36158 5:15.3535 9:2.22222 29:2.22222 30:2.22222 36:2.22222 44:4.44444 50:2.22222 56:2.22222 63:2.22222 
0.5185041753275306 1:0.172748 2:0.0775382 3:13.9733 4:7.54653 5:12.8956 8:2.35294 10:1.17647 11:1.17647 15:4.70588 24:1.17647 28:1.17647 35:1.17647 38:1.17647 47:2.35294 54:1.17647 61:1.17647 64:1.17647 
1 1:0.165439 2:0.0484614 3:15.303 4:12.2695 5:16.6168 17:1.81818 18:1.81818 25:1.81818 28:1.81818 29:1.81818 38:1.81818 47:1.81818 48:1.81818 51:1.81818 58:1.81818 62:1.81818 
1 1:0.28217 2:0.27623 3:15.4602 4:11.8794 5:13.4574 7:1.75439 10:1.40351 11:1.05263 14:0.350877 19:0.350877 20:1.05263 21:0.701754 22:0.350877 23:2.10526 24:1.05263 29:1.05263 31:0.350877 34:0.350877 38:0.701754 42:0.701754 43:0.701754 44:1.05263 45:0.350877 47:0.350877 49:1.05263 50:0.350877 53:0.350877 54:0.350877 56:0.350877 58:0.350877 61:0.350877 62:0.350877 66:0.701754 
0.3224095545382845 1:0.190031 2:0.0484614 3:17.1036 4:5.6089 5:14.8357 26:1.81818 29:1.81818 32:1.81818 38:3.63636 41:1.81818 44:1.81818 51:1.81818 52:1.81818 55:1.81818 60:1.81818 
0.06066373526574717 1:0.156338 3:14.9141 4:3.27335 5:12.3359 17:20 
1 1:0.220812 2:0.222922 3:15.2824 4:13.8901 5:14.7501 6:0.425532 7:0.425532 9:0.425532 10:0.425532 17:0.425532 19:0.851064 22:0.851064 24:0.851064 27:0.425532 28:0.425532 35:1.70213 38:0.425532 39:0.425532 43:0.851064 44:0.425532 45:1.2766 46:0.425532 47:0.851064 50:0.851064 53:0.425532 57:0.851064 58:1.2766 59:0.425532 60:2.12766 62:0.425532 63:0.851064 64:0.425532 65:0.425532 
1 1:0.183564 2:0.101769 3:16.2242 4:16.3928 5:16.4298 7:0.909091 10:0.909091 15:0.909091 20:0.909091 22:0.909091 23:0.909091 24:0.909091 30:0.909091 31:1.81818 34:1.81818 43:0.909091 44:1.81818 45:1.81818 46:1.81818 48:0.909091 50:0.909091 51:0.909091 
1 1:0.234755 2:0.193845 3:15.1008 4:17.941 5:15.2666 6:0.487805 7:2.92683 11:1.46341 15:0.487805 17:0.487805 18:0.97561 19:0.487805 21:0.487805 26:0.487805 27:0.487805 34:0.97561 35:0.97561 37:0.487805 38:0.487805 40:0.97561 41:0.487805 43:0.97561 44:1.46341 45:0.487805 47:0.487805 49:0.487805 52:0.487805 55:0.487805 57:0.97561 58:0.487805 65:0.487805 
1 1:0.447971 2:0.285922 3:15.4267 4:9.77363 5:14.4706 6:0.677966 7:0.677966 8:0.338983 11:0.338983 15:0.338983 16:0.338983 18:0.338983 20:0.338983 21:0.338983 22:0.677966 23:0.677966 24:0.677966 28:0.338983 29:0.338983 30:0.338983 31:0.338983 34:0.338983 36:0.338983 40:1.01695 42:0.677966 43:0.338983 44:1.01695 45:0.677966 46:0.338983 47:0.677966 48:1.35593 49:0.338983 50:0.338983 51:0.338983 53:1.01695 54:0.338983 60:0.338983 61:0.677966 62:0.338983 64:0.338983 65:1.69492 66:0.338983 
1 1:0.611289 2:0.30046 3:16.1353 4:6.37292 5:14.1447 8:0.634921 11:0.31746 12:0.31746 14:1.26984 15:0.634921 18:0.31746 19:0.952381 20:0.952381 26:0.952381 27:0.31746 28:0.634921 29:0.952381 30:0.952381 33:0.31746 34:0.952381 35:0.634921 37:0.31746 40:0.952381 41:0.31746 42:0.952381 43:0.31746 47:0.634921 49:0.31746 50:1.5873 54:0.31746 57:0.31746 58:0.634921 59:0.31746 61:0.31746 62:0.634921 64:0.952381 
1 1:0.180824 2:0.135692 3:14.9546 4:8.40703 5:14.6164 9:2.06897 10:0.689655 11:2.06897 12:0.689655 13:1.37931 14:0.689655 15:0.689655 16:1.37931 18:0.689655 19:0.689655 22:0.689655 27:0.689655 28:0.689655 30:0.689655 36:0.689655 40:0.689655 41:0.689655 45:0.689655 46:0.689655 49:0.689655 57:0.689655 63:1.37931 
1 1:0.185779 2:0.0872304 3:14.6944 4:15.9242 5:16.0538 7:1.05263 9:1.05263 11:2.10526 15:1.05263 17:1.05263 19:1.05263 20:1.05263 21:1.05263 26:1.05263 29:1.05263 31:1.05263 35:1.05263 38:1.05263 41:1.05263 51:1.05263 56:1.05263 61:2.10526 
1 1:0.271414 2:0.155076 3:14.6329 4:6.51331 5:13.963 7:1.25 8:0.625 11:0.625 12:0.625 13:1.25 15:0.625 18:0.625 25:0.625 26:0.625 27:1.25 28:1.25 31:0.625 32:0.625 35:1.25 37:0.625 40:1.25 43:0.625 44:0.625 50:0.625 51:0.625 55:1.25 56:1.25 58:0.625 64:0.625 
1 1:0.230407 2:0.106615 3:13.9825 4:9.40084 5:13.2322 8:0.909091 11:1.81818 14:0.909091 19:0.909091 20:0.909091 21:0.909091 24:0.909091 28:0.909091 30:0.909091 31:0.909091 34:0.909091 35:0.909091 38:0.909091 40:0.909091 46:0.909091 47:0.909091 49:0.909091 50:0.909091 54:0.909091 59:0.909091 63:0.909091 
1 1:0.273609 2:0.392537 3:15.7278 4:15.5582 5:14.2437 6:0.25 7:0.25 9:0.75 11:0.5 13:1.5 16:0.75 18:1.75 19:0.25 21:0.25 25:0.25 26:0.5 27:0.25 28:1.25 31:0.5 35:1 36:0.5 37:0.5 38:0.5 40:1.75 44:0.75 46:0.75 50:0.25 52:1.5 55:1 57:0.5 58:1 63:0.25 64:0.75 
1 1:0.163606 2:0.0484614 3:16.0084 4:6.85776 5:15.203 10:1.81818 12:1.81818 20:3.63636 26:1.81818 34:1.81818 39:3.63636 46:1.81818 49:1.81818 53:1.81818 
1 1:0.380753 2:0.198692 3:14.3524 4:5.76281 5:13.6346 7:2 15:0.5 16:0.5 18:1 25:1 26:1 28:0.5 30:1 35:1.5 38:0.5 40:1 41:1 44:0.5 46:2 47:0.5 48:0.5 49:0.5 51:0.5 54:0.5 55:1 56:0.5 59:0.5 60:0.5 62:1 
1 1:0.211562 2:0.111461 3:16.1559 4:7.61079 5:14.6492 6:0.833333 15:1.66667 16:0.833333 19:1.66667 21:0.833333 22:0.833333 23:0.833333 24:0.833333 29:0.833333 30:0.833333 31:1.66667 32:0.833333 33:0.833333 35:0.833333 38:0.833333 39:0.833333 49:1.66667 50:1.66667 62:0.833333 
1 1:0.25374 2:0.30046 3:15.1671 4:11.4926 5:13.5313 6:0.31746 8:0.634921 10:1.26984 11:0.31746 12:0.31746 14:0.31746 15:0.31746 16:0.952381 18:0.31746 20:1.5873 21:0.31746 22:0.31746 26:0.952381 27:0.31746 28:0.31746 30:0.31746 31:0.952381 34:0.634921 40:0.952381 43:0.31746 45:0.31746 49:0.952381 52:0.31746 53:0.31746 54:0.634921 55:0.952381 56:0.952381 57:0.31746 61:0.31746 62:0.952381 63:0.31746 64:0.31746 65:1.26984 66:0.31746 
1 1:0.2792 2:0.319845 3:15.0636 4:7.47617 5:14.2982 6:0.30303 7:0.909091 9:0.606061 12:0.606061 13:0.606061 15:0.909091 16:0.30303 17:0.606061 18:0.606061 20:0.30303 21:0.606061 24:0.909091 25:0.30303 26:0.606061 28:0.909091 29:0.30303 35:1.81818 37:0.30303 38:0.606061 40:0.909091 43:0.30303 45:0.30303 46:0.30303 48:0.30303 49:0.606061 50:0.30303 51:0.909091 52:0.30303 53:0.30303 54:0.909091 55:0.909091 56:0.30303 57:0.30303 58:0.30303 59:0.30303 66:0.30303 
1 1:0.222578 2:0.188999 3:15.4143 4:11.4663 5:13.5562 7:0.5 8:1.5 10:0.5 11:1 13:0.5 17:0.5 18:1 21:0.5 28:0.5 32:0.5 35:1.5 36:0.5 37:0.5 38:1 40:1 41:0.5 42:1 43:0.5 45:0.5 47:1 52:0.5 55:1.5 56:1 57:1 58:0.5 61:0.5 
0.02179675491095439 1:0.163042 2:0.0436152 3:14.9596 4:13.394 5:13.3218 8:2 15:2 23:2 35:2 44:2 45:2 47:2 50:2 56:2 61:2 
1 1:0.189623 2:0.155076 3:15.3909 4:13.5317 5:15.2908 7:3.0303 9:0.606061 10:0.606061 11:0.606061 13:0.606061 18:0.606061 21:0.606061 29:0.606061 30:0.606061 33:0.606061 34:0.606061 35:1.81818 41:0.606061 43:0.606061 44:0.606061 46:0.606061 49:0.606061 50:1.81818 51:1.21212 52:0.606061 56:0.606061 62:0.606061 63:0.606061 65:0.606061 
0.01404131887599405 1:0.156037 3:14.9141 4:3.27335 5:12.3359 53:20 
1 1:0.172948 2:0.0484614 3:15.7197 4:7.32163 5:13.9399 15:1.81818 18:3.63636 34:1.81818 44:1.81818 45:1.81818 48:1.81818 55:1.81818 58:1.81818 63:3.63636 
0.08940235932075632 1:0.156037 3:14.9141 4:3.27335 5:12.3359 
1 1:0.221794 2:0.174461 3:14.1297 4:6.0893 5:13.0012 6:1.11111 8:0.555556 10:1.11111 11:0.555556 13:1.11111 14:0.555556 15:0.555556 19:0.555556 22:0.555556 28:0.555556 29:1.11111 30:0.555556 36:0.555556 40:0.555556 41:0.555556 45:1.11111 46:1.11111 47:1.11111 49:0.555556 50:0.555556 53:1.11111 56:0.555556 58:0.555556 59:0.555556 62:0.555556 63:0.555556 64:0.555556 65:0.555556 
0.9223382244759238 1:0.167113 2:0.0872304 3:14.9199 4:15.9242 5:13.8462 6:1.05263 7:1.05263 10:1.05263 14:1.05263 15:1.05263 19:1.05263 34:1.05263 44:1.05263 46:1.05263 47:1.05263 48:1.05263 50:1.05263 51:1.05263 53:2.10526 60:1.05263 61:1.05263 64:1.05263 66:1.05263 
1 1:0.182667 2:0.193845 3:14.8249 4:17.941 5:16.1129 6:0.97561 7:0.487805 9:0.97561 10:0.487805 13:0.487805 15:0.487805 16:0.487805 17:0.97561 18:0.487805 21:0.487805 34:0.487805 35:0.97561 40:0.97561 42:0.487805 43:0.487805 44:0.487805 45:0.97561 49:0.97561 51:1.95122 52:0.487805 56:0.487805 57:0.97561 58:0.487805 59:0.487805 60:0.487805 61:1.46341 62:0.487805 66:0.487805 
0.7715521469051562 1:0.176692 2:0.0387691 3:16.9842 4:5.9722 5:14.2978 7:6.66667 9:2.22222 28:2.22222 35:2.22222 40:2.22222 42:2.22222 47:2.22222 
1 1:0.180931 2:0.0581536 3:15.2156 4:14.5186 5:14.7277 7:1.53846 9:1.53846 10:1.53846 11:1.53846 18:1.53846 33:1.53846 34:1.53846 45:1.53846 46:1.53846 49:1.53846 50:1.53846 53:1.53846 65:1.53846 
0.06942412603916305 1:0.173334 2:0.111461 3:15.2955 4:13.394 5:14.9169 9:1.66667 10:1.66667 11:1.66667 13:0.833333 16:0.833333 17:0.833333 28:2.5 29:0.833333 30:0.833333 31:0.833333 48:0.833333 49:0.833333 50:0.833333 52:0.833333 55:0.833333 58:2.5 62:0.833333 
1 1:0.212062 2:0.155076 3:14.1795 4:8.57466 5:14.8952 8:1.81818 11:1.21212 15:2.42424 17:0.606061 18:1.21212 26:0.606061 27:0.606061 28:0.606061 29:1.21212 34:0.606061 38:1.21212 42:0.606061 43:0.606061 45:0.606061 50:1.21212 51:1.21212 55:0.606061 57:1.21212 58:0.606061 62:0.606061 64:0.606061 
1 1:0.220575 2:0.0872304 3:15.58 4:6.7674 5:13.3501 7:1.05263 8:1.05263 13:1.05263 16:1.05263 18:1.05263 24:1.05263 29:1.05263 30:1.05263 37:1.05263 38:1.05263 44:2.10526 45:1.05263 46:1.05263 51:1.05263 52:1.05263 59:1.05263 60:1.05263 63:1.05263 
0.4694141553496007 1:0.1611 2:0.0775382 3:14.8346 4:15.5408 5:13.262 10:1.17647 11:1.17647 16:1.17647 19:1.17647 40:1.17647 43:1.17647 45:1.17647 46:1.17647 47:1.17647 49:2.35294 52:1.17647 59:1.17647 60:3.52941 62:1.17647 
1 1:0.173843 2:0.126 3:15.924 4:16.9784 5:14.4329 7:0.740741 8:0.740741 11:0.740741 12:0.740741 14:0.740741 17:0.740741 21:1.48148 24:0.740741 26:1.48148 28:0.740741 30:0.740741 34:0.740741 43:0.740741 44:0.740741 50:0.740741 52:1.48148 53:1.48148 57:0.740741 59:0.740741 61:0.740741 65:2.22222 
1 1:0.194896 2:0.0969227 3:15.0676 4:16.2486 5:14.0391 7:0.952381 9:0.952381 10:0.952381 11:0.952381 13:0.952381 15:0.952381 16:0.952381 22:0.952381 26:0.952381 27:0.952381 31:0.952381 33:0.952381 38:0.952381 43:0.952381 46:0.952381 49:0.952381 53:0.952381 56:0.952381 58:0.952381 61:0.952381 64:0.952381 
1 1:0.247637 2:0.218076 3:15.0911 4:10.4805 5:14.2963 14:0.444444 15:0.888889 16:0.888889 17:0.888889 18:0.444444 20:0.444444 24:0.888889 28:0.888889 29:0.444444 34:0.444444 37:0.444444 38:0.444444 40:0.444444 42:0.444444 44:0.444444 45:0.444444 46:1.33333 47:0.444444 48:0.444444 49:0.444444 50:1.33333 51:0.444444 53:0.444444 54:0.444444 55:0.888889 56:0.444444 58:0.888889 59:0.444444 60:0.888889 64:0.444444 65:1.33333 
0.7348690276857162 1:0.158501 2:0.0290768 3:15.3797 4:11.7073 5:13.9951 18:2.85714 28:2.85714 46:2.85714 50:5.71429 55:2.85714 58:2.85714 
0.6359272480110871 1:0.22377 2:0.121153 3:13.3869 4:6.16498 5:12.3621 6:0.8 9:0.8 10:0.8 20:1.6 26:0.8 29:0.8 30:0.8 43:1.6 44:0.8 45:0.8 46:0.8 49:0.8 50:0.8 53:1.6 55:1.6 56:1.6 57:0.8 58:0.8 61:0.8 64:0.8 
1 1:0.265411 2:0.184153 3:14.2961 4:8.03807 5:14.4933 7:1.05263 8:0.526316 9:1.05263 10:1.05263 11:0.526316 12:0.526316 15:0.526316 17:0.526316 18:0.526316 20:0.526316 24:0.526316 28:0.526316 30:0.526316 31:0.526316 35:0.526316 36:1.57895 38:0.526316 39:0.526316 40:0.526316 42:1.05263 43:1.05263 46:1.05263 47:0.526316 49:0.526316 50:0.526316 51:1.05263 55:0.526316 58:0.526316 60:0.526316 
1 1:0.234215 2:0.15023 3:17.1538 4:8.65281 5:15.3868 13:0.625 16:0.625 18:0.625 19:0.625 20:1.25 26:0.625 27:0.625 29:1.25 31:1.875 32:1.875 33:0.625 38:0.625 40:1.25 41:1.25 43:0.625 44:0.625 47:0.625 48:1.25 53:0.625 57:0.625 58:0.625 59:0.625 64:0.625 
1 1:0.203156 2:0.121153 3:14.9191 4:8.81972 5:14.1024 7:0.769231 10:1.53846 11:0.769231 13:0.769231 16:1.53846 23:1.53846 29:0.769231 31:0.769231 35:0.769231 43:1.53846 49:2.30769 51:0.769231 55:0.769231 57:0.769231 58:0.769231 61:0.769231 62:0.769231 65:1.53846 66:0.769231 
1 1:0.270703 2:0.285922 3:15.1053 4:8.96309 5:13.8706 7:0.333333 8:0.666667 9:0.666667 10:0.666667 11:1 12:0.666667 13:0.333333 15:0.666667 16:0.333333 17:1 18:0.666667 20:0.333333 22:0.333333 23:0.666667 24:0.333333 26:1 29:0.666667 30:0.666667 32:0.333333 33:1 35:0.333333 38:0.333333 41:1 42:0.666667 45:1 53:0.666667 55:0.666667 59:0.666667 61:0.333333 62:0.666667 64:0.333333 65:0.666667 66:0.333333 
1 1:0.195324 2:0.0920766 3:14.484 4:9.31438 5:15.4917 7:1 11:1 15:2 17:1 20:1 22:1 28:1 31:1 35:1 43:1 44:1 49:1 50:2 53:1 57:2 59:1 62:1 
0.372022521809893 1:0.183988 2:0.135692 3:13.3764 4:17.1645 5:16.7514 6:0.689655 7:2.75862 8:0.689655 17:0.689655 19:0.689655 20:0.689655 21:0.689655 22:1.37931 27:0.689655 31:1.37931 43:0.689655 44:1.37931 45:0.689655 46:0.689655 51:0.689655 56:0.689655 57:2.06897 58:2.06897 64:0.689655 
0.471796880152439 1:0.161901 2:0.0581536 3:15.9527 4:14.5186 5:14.0625 10:1.53846 12:1.53846 17:1.53846 19:1.53846 34:1.53846 35:3.07692 37:1.53846 38:4.61538 51:1.53846 56:1.53846 
0.02183050594733923 1:0.156179 3:14.9141 4:3.27335 5:12.3359 8:20 
1 1:0.187653 2:0.0920766 3:14.6149 4:12.1673 5:14.6633 6:1 10:1 11:1 16:2 18:1 27:2 34:1 38:1 44:1 46:4 49:1 55:1 56:1 57:1 58:1 
1 1:0.228636 2:0.227768 3:15.0658 4:14.8473 5:14.3328 6:0.425532 7:1.70213 10:0.425532 11:0.425532 14:0.425532 15:0.851064 17:0.425532 18:0.425532 19:0.425532 20:0.851064 21:0.425532 22:0.425532 23:0.425532 24:0.851064 26:0.425532 27:0.425532 28:0.425532 30:0.425532 31:0.425532 32:0.425532 33:0.425532 34:0.851064 35:0.425532 38:0.851064 43:1.2766 44:1.2766 46:0.851064 49:0.425532 51:0.425532 54:0.425532 55:0.425532 56:0.425532 58:0.425532 59:0.425532 
1 1:0.21877 2:0.208384 3:14.7281 4:5.95843 5:13.8194 7:0.454545 10:1.36364 11:0.909091 15:1.36364 16:0.454545 17:0.454545 18:0.454545 19:0.454545 20:0.454545 21:0.909091 24:0.454545 26:0.454545 27:0.454545 28:1.36364 30:0.909091 33:0.454545 34:0.454545 35:0.454545 41:0.454545 43:0.454545 45:0.454545 48:0.454545 50:0.909091 54:0.454545 55:0.909091 58:0.909091 59:0.454545 61:1.36364 62:0.454545 65:0.454545 
1 1:0.233854 2:0.184153 3:14.56 4:10.7137 5:15.5143 6:1.02564 7:1.53846 8:0.512821 9:0.512821 11:0.512821 14:0.512821 15:1.02564 17:1.02564 19:1.02564 22:0.512821 24:0.512821 26:1.02564 28:0.512821 31:1.02564 32:0.512821 35:1.02564 37:0.512821 40:0.512821 43:1.02564 44:0.512821 47:0.512821 49:0.512821 51:0.512821 53:1.02564 56:0.512821 57:0.512821 61:1.02564 
1 1:0.205978 2:0.184153 3:14.3246 4:6.70508 5:13.7446 6:1.05263 7:0.526316 8:0.526316 11:0.526316 12:0.526316 15:1.05263 21:0.526316 22:0.526316 28:1.57895 29:1.05263 32:1.05263 34:0.526316 35:1.57895 38:0.526316 41:0.526316 44:0.526316 45:2.63158 46:0.526316 50:1.05263 55:0.526316 56:0.526316 58:0.526316 59:0.526316 61:1.05263 
0.6102877819967921 1:0.171786 2:0.0387691 3:17.739 4:7.18668 5:14.7205 12:2.22222 21:2.22222 24:2.22222 31:2.22222 41:2.22222 42:2.22222 51:2.22222 53:2.22222 63:2.22222 
1 1:0.163407 2:0.0920766 3:15.5799 4:16.0929 5:14.3543 7:1 8:1 9:1 10:2 14:1 15:1 28:1 30:1 35:1 41:1 43:2 44:1 45:1 54:1 56:1 60:1 61:1 64:1 
1 1:0.173736 2:0.0436152 3:17.0077 4:8.33369 5:14.8297 7:2 14:2 16:2 20:2 26:2 36:2 40:2 44:2 46:2 60:2 
1 1:0.208386 2:0.130846 3:14.822 4:9.50586 5:14.3783 10:2.14286 11:0.714286 14:0.714286 15:2.14286 17:0.714286 21:0.714286 24:0.714286 28:0.714286 30:0.714286 35:0.714286 40:1.42857 45:2.14286 46:0.714286 49:0.714286 51:0.714286 54:0.714286 56:0.714286 57:1.42857 61:0.714286 65:0.714286 
1 1:0.188829 2:0.116307 3:14.9017 4:11.9482 5:14.1973 10:1.6 11:1.6 15:1.6 18:0.8 19:0.8 21:1.6 24:0.8 25:0.8 28:0.8 31:0.8 32:0.8 44:0.8 45:2.4 53:0.8 54:0.8 60:0.8 61:0.8 62:0.8 66:0.8 
1 1:0.362553 2:0.155076 3:17.2866 4:6.51331 5:16.1184 12:0.606061 15:0.606061 16:0.606061 22:0.606061 29:0.606061 30:0.606061 31:1.81818 33:0.606061 36:1.21212 38:1.81818 40:0.606061 42:0.606061 43:1.21212 44:2.42424 46:1.21212 47:0.606061 48:0.606061 54:0.606061 55:0.606061 57:1.21212 59:0.606061 65:0.606061 
0.3421595001485219 1:0.215849 2:0.0969227 3:15.0035 4:12.4018 5:16.6046 7:2.85714 8:1.90476 17:0.952381 31:0.952381 35:1.90476 36:0.952381 38:1.90476 42:0.952381 44:0.952381 46:0.952381 51:1.90476 52:1.90476 58:1.90476 
0.0763493141894824 1:0.15987 2:0.0290768 3:16.4922 4:11.7073 5:13.8642 7:2.85714 11:2.85714 38:5.71429 40:2.85714 49:2.85714 64:2.85714 
0.6396943795761812 1:0.193461 2:0.310153 3:14.5534 4:15.3785 5:13.8226 10:0.3125 11:1.5625 12:0.9375 13:0.625 14:0.625 16:0.3125 17:0.625 18:0.3125 20:0.3125 21:0.3125 23:0.3125 26:0.9375 28:0.9375 29:0.9375 30:0.3125 31:0.3125 32:0.3125 34:0.3125 35:0.625 37:0.3125 38:0.625 39:0.3125 41:0.3125 44:0.3125 45:0.9375 50:0.625 51:0.3125 53:0.625 54:0.3125 55:0.3125 56:0.3125 58:0.3125 60:0.3125 61:1.25 62:0.3125 64:0.625 65:0.625 66:0.3125 
1 1:0.235539 2:0.164769 3:14.7209 4:14.3579 5:15.3453 7:0.571429 10:0.571429 11:1.71429 15:0.571429 17:0.571429 18:0.571429 19:0.571429 21:0.571429 29:0.571429 34:1.14286 35:1.14286 44:1.14286 45:0.571429 46:1.14286 48:0.571429 49:1.71429 50:0.571429 51:1.14286 53:0.571429 56:1.14286 57:0.571429 60:0.571429 61:1.14286 65:0.571429 
1 1:0.24973 2:0.126 3:16.1894 4:16.4609 5:15.8388 11:0.740741 13:0.740741 14:0.740741 15:2.22222 22:0.740741 23:1.48148 28:0.740741 35:0.740741 39:0.740741 40:0.740741 41:0.740741 42:0.740741 44:0.740741 46:1.48148 47:0.740741 48:0.740741 49:0.740741 53:0.740741 57:0.740741 61:0.740741 62:0.740741 64:1.48148 
1 1:0.215477 2:0.155076 3:15.0759 4:11.6185 5:14.7245 7:1.21212 8:2.42424 13:0.606061 16:0.606061 18:1.21212 19:0.606061 21:0.606061 26:1.81818 27:0.606061 31:0.606061 32:0.606061 34:0.606061 35:1.21212 40:1.81818 46:0.606061 48:0.606061 51:0.606061 52:0.606061 57:1.21212 59:0.606061 60:0.606061 62:0.606061 
1 1:0.165586 2:0.111461 3:15.8576 4:16.6513 5:15.4015 10:0.833333 11:1.66667 15:0.833333 17:0.833333 18:2.5 26:2.5 31:0.833333 32:1.66667 34:0.833333 35:1.66667 42:0.833333 44:0.833333 45:1.66667 54:1.66667 59:0.833333 
1 1:0.26945 2:0.179307 3:15.2443 4:13.635 5:14.7699 6:0.526316 7:1.05263 9:0.526316 11:0.526316 13:0.526316 14:1.57895 15:0.526316 17:0.526316 21:0.526316 22:0.526316 26:0.526316 28:1.57895 29:1.05263 30:0.526316 34:0.526316 35:0.526316 39:0.526316 42:0.526316 44:0.526316 45:0.526316 46:1.05263 47:0.526316 49:0.526316 51:1.05263 55:0.526316 56:0.526316 58:0.526316 61:0.526316 62:0.526316 66:0.526316 
1 1:0.24033 2:0.208384 3:15.144 4:18.0757 5:14.9523 6:0.909091 7:0.909091 8:0.454545 11:0.909091 14:0.909091 16:0.454545 18:0.454545 20:0.909091 26:0.909091 27:0.454545 29:0.454545 30:1.36364 35:0.909091 36:0.454545 38:0.909091 44:0.454545 45:0.454545 52:1.36364 53:0.909091 54:0.454545 57:0.454545 58:2.27273 60:0.454545 62:0.454545 64:0.909091 66:0.454545 
1 1:0.195394 2:0.0581536 3:18.6002 4:14.5186 5:15.7524 14:1.53846 23:3.07692 26:1.53846 29:3.07692 30:1.53846 34:1.53846 40:1.53846 42:1.53846 44:1.53846 49:1.53846 58:1.53846 
1 1:0.177572 2:0.0678459 3:14.8708 4:4.57088 5:15.2021 6:1.33333 8:1.33333 9:1.33333 28:1.33333 32:1.33333 42:1.33333 43:1.33333 44:1.33333 46:1.33333 47:1.33333 49:1.33333 51:2.66667 53:1.33333 64:1.33333 
1 1:0.203664 2:0.21323 3:15.521 4:14.5911 5:13.3422 7:0.888889 8:0.888889 13:0.444444 14:0.444444 15:0.888889 16:0.444444 17:1.33333 20:0.888889 21:0.444444 30:0.444444 32:0.444444 33:0.444444 35:0.888889 37:0.444444 38:0.444444 40:0.888889 42:1.33333 44:0.888889 50:0.444444 51:0.444444 52:1.33333 54:0.444444 55:0.888889 56:0.444444 57:0.888889 61:0.444444 64:0.888889 65:0.444444 66:0.444444 
1 1:0.30728 2:0.169615 3:14.8876 4:4.48274 5:14.8273 7:0.588235 10:1.76471 15:0.588235 21:0.588235 24:0.588235 26:1.17647 28:0.588235 29:1.76471 31:2.35294 32:0.588235 38:0.588235 39:1.17647 44:0.588235 47:0.588235 49:0.588235 50:0.588235 51:0.588235 52:0.588235 55:0.588235 57:0.588235 58:0.588235 61:0.588235 63:0.588235 64:0.588235 65:0.588235 
1 1:0.240048 2:0.174461 3:14.7688 4:8.71074 5:13.9338 10:1.62162 11:1.08108 15:1.08108 18:0.540541 19:0.540541 20:1.62162 21:0.540541 24:0.540541 27:0.540541 30:0.540541 34:0.540541 35:0.540541 36:0.540541 43:0.540541 45:0.540541 46:1.08108 49:0.540541 50:1.08108 53:0.540541 54:0.540541 55:0.540541 59:0.540541 60:0.540541 61:1.62162 64:0.540541 65:0.540541 66:0.540541 
1 1:0.255167 2:0.159922 3:14.4941 4:5.03566 5:13.5964 7:1.21212 9:1.21212 10:0.606061 15:0.606061 17:0.606061 19:1.21212 23:0.606061 26:0.606061 32:0.606061 35:1.81818 38:0.606061 40:0.606061 41:0.606061 43:0.606061 45:0.606061 46:0.606061 49:0.606061 52:0.606061 55:0.606061 57:0.606061 60:0.606061 61:1.21212 62:0.606061 63:0.606061 64:1.21212 65:0.606061 
1 1:0.297539 2:0.232614 3:14.7649 4:7.30149 5:12.8284 7:1.2766 9:0.425532 12:1.2766 14:0.851064 15:0.851064 16:1.2766 18:0.425532 19:0.425532 21:0.425532 22:0.425532 23:0.425532 25:0.851064 26:0.425532 29:0.851064 31:0.425532 35:0.425532 39:0.425532 40:1.2766 41:0.425532 44:0.425532 46:0.425532 49:0.425532 51:0.425532 52:0.425532 54:1.2766 55:0.425532 56:0.425532 59:0.425532 60:0.425532 61:1.2766 63:0.425532 
1 1:0.521828 2:0.455537 3:15.8004 4:6.28826 5:14.3064 6:0.212766 7:0.212766 8:0.212766 9:0.851064 10:0.425532 11:0.212766 12:0.638298 13:0.851064 15:0.638298 16:0.425532 17:0.212766 18:0.638298 20:0.638298 21:0.212766 22:0.212766 23:0.638298 25:0.425532 29:0.425532 30:0.212766 31:0.851064 34:0.425532 35:0.425532 36:0.212766 37:0.212766 38:0.212766 39:0.425532 40:0.638298 41:0.425532 43:0.425532 44:0.638298 45:0.851064 46:0.638298 47:0.212766 52:0.425532 54:0.425532 55:0.425532 56:0.212766 57:0.212766 58:0.212766 59:0.212766 60:1.2766 63:0.212766 64:0.425532 65:1.06383 
1 1:0.180903 2:0.101769 3:14.3881 4:12.9971 5:15.1635 6:1.81818 7:1.81818 11:0.909091 12:0.909091 13:0.909091 17:1.81818 21:0.909091 29:0.909091 34:0.909091 35:1.81818 45:0.909091 46:0.909091 49:0.909091 51:0.909091 53:0.909091 58:0.909091 59:0.909091 65:0.909091 
1 1:0.190001 2:0.111461 3:15.1172 4:10.0205 5:13.8534 6:0.833333 7:0.833333 8:0.833333 12:1.66667 15:0.833333 18:0.833333 19:0.833333 20:0.833333 21:1.66667 23:1.66667 28:0.833333 31:0.833333 34:0.833333 40:0.833333 47:0.833333 55:1.66667 56:0.833333 60:0.833333 61:0.833333 62:0.833333 
1 1:0.249659 2:0.193845 3:15.2185 4:3.10403 5:14.2831 7:0.5 9:0.5 11:0.5 12:0.5 14:1 15:0.5 16:0.5 17:1 21:0.5 22:0.5 23:0.5 28:0.5 29:0.5 31:0.5 34:1.5 35:1.5 36:1 39:1.5 44:1 45:0.5 50:1 51:1 52:0.5 53:1 54:1 60:0.5 
1 1:0.204875 2:0.116307 3:15.9377 4:7.80658 5:14.5718 6:1.6 7:0.8 9:0.8 10:0.8 26:0.8 30:0.8 35:3.2 38:1.6 39:0.8 41:0.8 44:0.8 47:0.8 52:0.8 57:1.6 58:1.6 60:0.8 61:0.8 62:0.8 
1 1:0.251802 2:0.15023 3:14.9746 4:9.56731 5:13.4643 7:1.93548 9:0.645161 10:0.645161 15:1.29032 19:0.645161 24:0.645161 27:0.645161 32:0.645161 34:0.645161 35:0.645161 36:0.645161 37:0.645161 38:0.645161 41:0.645161 49:0.645161 50:1.93548 52:1.29032 54:0.645161 55:1.93548 57:1.93548 61:0.645161 
1 1:0.332341 2:0.232614 3:14.9307 4:14.7032 5:14.8739 6:0.416667 7:0.416667 8:0.833333 18:0.416667 19:0.416667 20:1.66667 21:0.416667 23:0.833333 29:1.66667 31:0.416667 34:1.66667 37:0.416667 43:1.66667 44:1.25 45:0.833333 46:0.416667 47:0.416667 48:0.416667 49:0.416667 50:0.416667 53:0.833333 54:0.416667 56:0.833333 57:0.833333 58:0.416667 60:0.416667 61:0.416667 62:0.416667 
1 1:0.302646 2:0.222922 3:14.8697 4:14.099 5:14.9485 6:0.434783 7:0.869565 8:0.869565 18:0.434783 19:0.434783 20:1.73913 23:0.869565 24:0.434783 29:1.30435 31:0.869565 34:2.17391 38:0.434783 43:1.30435 44:1.30435 45:0.869565 46:0.434783 48:0.434783 49:0.434783 53:0.434783 54:0.434783 56:0.434783 57:0.869565 58:0.434783 60:0.434783 61:0.434783 62:0.434783 65:0.434783 
1 1:0.469925 2:0.455537 3:15.7282 4:10.5827 5:15.0885 6:0.631579 7:0.421053 8:1.05263 9:0.210526 10:0.421053 11:0.210526 12:0.421053 15:0.210526 18:0.631579 21:0.842105 22:0.421053 23:0.210526 25:1.26316 26:0.631579 27:0.210526 29:0.210526 30:0.210526 31:1.05263 33:0.210526 34:0.210526 35:0.421053 36:0.421053 39:0.631579 44:1.26316 46:0.421053 47:0.631579 48:1.47368 49:0.421053 50:0.210526 51:0.210526 55:1.26316 57:1.26316 58:0.210526 60:0.421053 61:0.631579 65:0.210526 66:0.210526 
1 1:0.409102 2:0.416768 3:16.1073 4:10.6376 5:13.4935 6:0.235294 7:0.470588 9:0.235294 12:0.235294 13:0.235294 15:0.470588 16:0.235294 18:0.235294 19:0.235294 20:0.470588 21:0.470588 22:0.705882 25:0.470588 26:0.470588 28:0.470588 29:0.705882 30:0.705882 31:0.470588 32:0.470588 34:0.470588 35:0.941176 36:0.235294 37:0.941176 38:0.941176 40:1.64706 43:0.235294 44:0.705882 45:0.235294 47:0.235294 48:0.235294 49:0.235294 50:0.705882 52:0.235294 53:0.470588 55:0.705882 59:0.705882 60:0.941176 63:0.235294 65:0.235294 66:0.705882 
0.08115922351802315 1:0.163902 2:0.0387691 3:16.7517 4:12.9121 5:13.9095 10:2.22222 15:2.22222 29:2.22222 30:2.22222 43:2.22222 48:2.22222 50:2.22222 53:4.44444 
0.378041002521019 1:0.223685 2:0.242307 3:15.0369 4:12.8037 5:13.3843 6:0.8 7:0.4 8:0.4 10:0.4 11:1.2 12:0.4 13:0.4 18:0.4 19:0.4 22:0.4 26:0.4 28:0.8 29:0.4 31:0.8 32:0.8 37:0.4 38:0.8 39:0.4 40:1.6 41:0.4 42:0.4 43:0.8 45:0.8 50:0.4 54:0.4 55:0.4 56:1.2 59:1.2 60:0.4 61:1.6 62:0.4 
1 1:0.200543 2:0.140538 3:15.3923 4:17.2495 5:14.9066 7:1.33333 10:0.666667 16:0.666667 17:0.666667 20:0.666667 23:0.666667 28:0.666667 31:0.666667 33:0.666667 34:2 42:0.666667 43:1.33333 47:2 49:0.666667 53:2 55:0.666667 58:0.666667 59:0.666667 60:0.666667 61:0.666667 63:0.666667 64:0.666667 
1 1:0.194569 2:0.218076 3:14.84 4:7.79049 5:13.5564 7:0.434783 8:0.434783 10:0.869565 11:0.869565 12:0.434783 17:0.869565 18:0.434783 20:0.869565 24:0.869565 26:0.434783 27:0.434783 28:0.434783 29:0.434783 30:0.434783 32:0.869565 34:1.73913 35:0.869565 39:0.434783 40:0.434783 43:1.30435 44:0.434783 45:1.30435 46:0.434783 48:0.434783 53:0.869565 58:0.434783 60:0.869565 62:0.434783 64:0.434783 65:0.434783 
1 1:0.231639 2:0.261691 3:15.4381 4:18.4544 5:14.8188 6:1.45455 8:0.363636 9:0.727273 17:0.727273 18:0.363636 19:0.363636 20:0.363636 21:0.727273 28:0.363636 29:0.363636 30:0.363636 31:0.363636 35:0.363636 36:0.363636 39:0.363636 41:1.45455 42:0.727273 43:0.363636 44:1.09091 47:1.09091 50:1.09091 51:1.09091 52:0.363636 54:0.363636 55:0.363636 56:0.727273 57:1.45455 58:0.363636 60:0.363636 61:0.363636 65:0.727273 66:0.363636 
1 1:0.21134 2:0.164769 3:15.1063 4:16.3753 5:15.3847 7:1.14286 10:0.571429 11:1.14286 14:0.571429 16:0.571429 18:0.571429 19:0.571429 20:1.14286 23:0.571429 28:0.571429 30:0.571429 31:0.571429 32:0.571429 34:1.14286 38:0.571429 41:0.571429 43:1.14286 49:2.28571 50:0.571429 53:0.571429 57:1.14286 59:1.14286 60:0.571429 62:0.571429 65:0.571429 
0.1160831341318392 1:0.179579 2:0.0823843 3:13.73 4:15.7409 5:15.446 8:2.22222 11:1.11111 18:1.11111 22:3.33333 43:2.22222 45:1.11111 46:1.11111 47:2.22222 51:1.11111 54:2.22222 55:1.11111 64:1.11111 
1 1:0.443076 2:0.256845 3:16.6849 4:5.74489 5:14.1728 7:0.37037 8:0.740741 9:0.740741 10:0.37037 16:2.22222 18:0.740741 20:0.740741 21:0.740741 24:0.740741 25:1.11111 26:0.740741 27:0.37037 28:1.48148 31:0.37037 32:0.37037 34:0.740741 36:0.37037 38:0.740741 39:0.37037 45:0.37037 46:0.740741 47:0.740741 48:0.740741 52:0.740741 53:0.37037 54:0.37037 55:0.740741 58:0.37037 59:0.37037 64:0.37037 
1 1:0.664632 2:0.314999 3:17.8048 4:13.8157 5:17.0036 9:1.81818 10:1.51515 18:0.909091 21:0.30303 22:0.909091 25:0.909091 26:0.606061 27:0.30303 28:0.606061 29:1.21212 30:0.30303 31:0.606061 32:0.30303 33:0.30303 35:0.909091 38:0.30303 39:0.30303 40:0.30303 42:0.30303 44:0.30303 45:1.21212 46:1.21212 47:0.606061 49:0.30303 53:0.909091 56:0.30303 57:0.30303 58:0.909091 61:0.30303 64:0.30303 65:0.606061 
1 1:0.2575 2:0.27623 3:15.3593 4:14.0444 5:15.157 6:0.350877 7:0.701754 9:1.05263 12:0.350877 16:0.350877 17:0.350877 19:0.350877 20:1.40351 21:0.350877 22:0.350877 23:0.350877 26:0.701754 29:0.350877 30:1.05263 31:0.701754 32:0.350877 34:0.350877 35:1.05263 38:0.701754 40:0.350877 42:0.350877 44:0.350877 46:0.701754 47:1.05263 50:0.350877 54:0.350877 55:1.05263 57:0.701754 58:0.701754 60:0.350877 61:0.350877 62:0.701754 64:0.701754 66:0.701754 
1 1:0.200406 2:0.111461 3:16.527 4:10.4605 5:14.873 8:0.833333 9:0.833333 10:0.833333 14:0.833333 15:1.66667 18:0.833333 19:0.833333 21:0.833333 35:1.66667 39:0.833333 40:0.833333 44:0.833333 45:3.33333 49:0.833333 50:0.833333 51:0.833333 53:1.66667 54:0.833333 
1 1:0.263901 2:0.193845 3:15.2115 4:14.9888 5:14.481 8:0.487805 9:0.487805 10:0.97561 11:0.97561 13:0.97561 15:0.97561 16:0.97561 18:0.487805 19:0.97561 22:0.487805 24:0.487805 26:0.97561 28:0.487805 31:0.487805 35:0.97561 38:0.487805 40:0.487805 41:0.97561 44:0.487805 46:0.487805 47:0.487805 49:0.487805 53:0.487805 56:0.97561 57:0.487805 58:0.97561 59:0.487805 60:0.487805 61:0.487805 66:0.487805 
1 1:0.159609 2:0.0290768 3:14.4694 4:11.7073 5:15.3913 8:2.85714 15:2.85714 34:2.85714 46:2.85714 49:2.85714 58:2.85714 61:2.85714 
1 1:0.195422 2:0.15023 3:14.8163 4:17.4058 5:16.3496 6:0.625 8:0.625 13:0.625 18:0.625 19:0.625 20:0.625 26:0.625 27:0.625 28:1.25 31:1.875 38:0.625 43:2.5 44:1.875 45:0.625 47:0.625 50:0.625 51:2.5 55:0.625 57:0.625 60:0.625 65:0.625 
1 1:0.197871 2:0.106615 3:15.8159 4:16.5266 5:13.4573 6:0.869565 7:0.869565 9:0.869565 10:0.869565 13:0.869565 18:0.869565 20:0.869565 23:0.869565 27:0.869565 35:0.869565 38:1.73913 40:1.73913 43:1.73913 46:0.869565 47:0.869565 52:1.73913 55:1.73913 63:0.869565 
1 1:0.270516 2:0.135692 3:13.9847 4:4.67215 5:12.7189 8:0.714286 11:1.42857 13:1.42857 16:0.714286 24:0.714286 25:0.714286 28:2.14286 30:0.714286 35:0.714286 40:0.714286 44:0.714286 46:0.714286 49:0.714286 50:1.42857 52:0.714286 55:0.714286 56:0.714286 58:1.42857 59:0.714286 61:2.14286 
1 1:0.177609 2:0.247153 3:14.9022 4:15.6095 5:14.5668 6:0.769231 7:1.53846 10:0.384615 11:0.384615 17:0.384615 18:0.384615 19:0.384615 20:0.384615 22:0.769231 28:0.384615 30:0.384615 34:0.384615 35:0.769231 40:0.769231 41:0.384615 42:0.769231 43:0.769231 44:0.384615 45:0.384615 46:0.384615 47:1.53846 49:0.384615 50:1.53846 51:0.384615 53:0.769231 54:0.384615 55:0.769231 58:0.769231 59:0.384615 61:0.769231 62:1.15385 
1 1:0.438172 2:0.256845 3:16.4807 4:18.117 5:15.6781 8:0.37037 9:0.37037 11:0.37037 13:0.37037 15:0.37037 16:0.37037 17:0.37037 20:0.37037 22:1.11111 24:0.740741 27:1.11111 28:0.740741 29:0.37037 31:1.11111 32:0.37037 34:0.37037 36:0.740741 38:0.37037 40:0.740741 42:0.740741 43:0.37037 44:1.11111 45:0.740741 50:0.37037 51:0.37037 54:0.37037 55:0.740741 56:0.740741 57:0.740741 59:0.740741 64:0.37037 65:1.85185 
1 1:0.249221 2:0.159922 3:15.8016 4:8.50237 5:16.8824 6:0.588235 9:0.588235 10:0.588235 13:0.588235 15:0.588235 17:1.17647 18:0.588235 21:1.17647 22:0.588235 26:1.17647 31:1.17647 33:0.588235 34:0.588235 35:0.588235 38:0.588235 40:0.588235 46:0.588235 47:0.588235 50:0.588235 52:1.17647 54:0.588235 56:0.588235 57:1.17647 64:2.35294 65:0.588235 
0.673548932985546 1:0.163263 2:0.00969227 3:14.4192 4:4.23723 5:13.7214 18:6.66667 46:6.66667 57:6.66667 
1 1:0.233222 2:0.21323 3:14.5167 4:17.4164 5:15.1943 6:0.444444 7:0.888889 8:0.444444 10:0.444444 11:2.22222 12:0.444444 13:0.444444 14:0.444444 17:0.444444 20:0.888889 22:0.888889 24:1.33333 25:0.444444 28:0.444444 30:0.444444 31:0.444444 35:0.444444 37:0.444444 40:1.33333 41:0.444444 43:0.444444 44:0.444444 45:0.888889 47:0.444444 49:0.888889 52:0.444444 56:0.444444 57:0.444444 58:0.888889 60:0.444444 61:0.444444 
1 1:0.185304 2:0.101769 3:14.6149 4:12.9971 5:15.5576 6:0.909091 10:0.909091 15:1.81818 17:0.909091 19:1.81818 20:0.909091 28:0.909091 31:0.909091 32:0.909091 43:0.909091 44:0.909091 46:1.81818 48:0.909091 49:2.72727 57:1.81818 61:0.909091 
1 1:0.162537 2:0.106615 3:14.5321 4:16.5266 5:16.1674 7:0.869565 8:0.869565 9:0.869565 11:0.869565 13:0.869565 15:0.869565 17:0.869565 18:1.73913 22:1.73913 25:0.869565 31:0.869565 35:1.73913 37:1.73913 43:0.869565 45:0.869565 46:0.869565 57:1.73913 58:0.869565 
1 1:0.219903 2:0.203538 3:15.0243 4:18.0327 5:14.1143 7:1.90476 12:0.952381 15:0.952381 17:0.952381 19:0.952381 21:0.952381 23:0.47619 24:0.952381 27:0.47619 29:0.952381 30:0.47619 31:0.47619 34:0.952381 40:0.47619 41:0.47619 45:0.47619 46:1.90476 47:0.47619 49:0.47619 50:0.47619 51:0.47619 52:0.952381 53:0.47619 58:0.47619 59:0.47619 62:0.47619 63:0.47619 
1 1:0.170317 2:0.0581536 3:17.2844 4:14.5186 5:15.381 9:1.53846 15:1.53846 17:1.53846 23:1.53846 25:1.53846 32:1.53846 35:1.53846 41:3.07692 46:1.53846 49:1.53846 52:1.53846 64:1.53846 
0.2275388157382674 1:0.177618 2:0.0678459 3:14.9774 4:9.694 5:12.6907 6:1.33333 8:4 15:1.33333 16:1.33333 18:1.33333 20:1.33333 26:2.66667 29:1.33333 30:1.33333 37:1.33333 38:1.33333 53:1.33333 
1 1:0.270608 2:0.135692 3:16.8794 4:14.9511 5:14.6675 7:1.37931 9:1.37931 10:1.37931 15:0.689655 16:0.689655 18:1.37931 19:0.689655 23:0.689655 24:0.689655 29:2.06897 35:1.37931 36:0.689655 40:0.689655 43:0.689655 44:0.689655 47:0.689655 49:0.689655 58:0.689655 59:0.689655 61:0.689655 64:0.689655 66:0.689655 
1 1:0.389608 2:0.295614 3:15.5478 4:7.59896 5:13.152 6:0.327869 7:0.327869 8:0.327869 9:0.655738 10:0.655738 14:0.327869 15:0.327869 16:0.327869 19:0.327869 25:0.327869 26:0.327869 29:0.327869 30:0.327869 31:0.327869 34:0.327869 35:0.655738 36:0.655738 37:0.327869 38:0.327869 39:1.31148 41:0.655738 43:0.983607 44:0.655738 46:0.327869 47:0.327869 49:0.327869 51:0.327869 52:0.327869 53:0.655738 54:0.327869 55:0.983607 57:0.327869 59:0.655738 61:0.983607 62:0.983607 63:0.655738 64:0.327869 65:0.983607 66:0.327869 
1 1:0.255468 2:0.135692 3:14.7891 4:12.9442 5:14.5567 6:0.714286 11:1.42857 15:2.14286 17:0.714286 18:0.714286 19:0.714286 21:0.714286 23:0.714286 24:0.714286 30:0.714286 31:1.42857 34:0.714286 36:1.42857 37:0.714286 45:0.714286 46:0.714286 50:0.714286 53:1.42857 54:1.42857 57:0.714286 58:0.714286 
1 1:0.16234 2:0.0581536 3:15.6277 4:11.3406 5:15.035 13:1.53846 25:1.53846 26:1.53846 28:3.07692 29:1.53846 43:1.53846 45:1.53846 47:1.53846 49:1.53846 58:1.53846 60:1.53846 62:1.53846 
0.3134419238117238 1:0.166678 2:0.0678459 3:13.1347 4:11.5775 5:13.065 6:1.33333 11:4 15:1.33333 17:1.33333 18:1.33333 38:1.33333 42:1.33333 45:2.66667 46:1.33333 51:1.33333 53:1.33333 64:1.33333 
1 1:0.197044 2:0.0969227 3:17.8031 4:13.6117 5:17.3554 9:0.952381 10:0.952381 15:0.952381 17:0.952381 28:0.952381 29:1.90476 35:0.952381 37:0.952381 41:0.952381 44:2.85714 46:1.90476 47:0.952381 51:0.952381 53:0.952381 54:0.952381 56:1.90476 
1 1:0.260327 2:0.251999 3:15.3543 4:15.2254 5:14.1781 7:1.13208 8:0.377358 11:0.754717 12:1.13208 13:0.377358 15:0.377358 16:0.754717 18:0.377358 20:0.377358 22:0.754717 24:0.377358 25:0.754717 26:0.377358 27:0.377358 28:0.377358 29:0.377358 31:0.754717 34:1.50943 35:1.50943 36:0.377358 37:0.377358 44:0.377358 45:0.377358 46:1.13208 48:0.377358 55:0.377358 56:0.377358 57:0.754717 58:0.754717 59:0.377358 60:0.377358 63:0.377358 64:0.377358 65:0.377358 
0.4094610191133362 1:0.214657 2:0.0920766 3:15.8046 4:16.0929 5:17.2541 7:2 8:1 9:2 15:1 16:1 29:1 31:1 40:1 45:1 50:1 55:1 57:1 58:1 60:1 61:1 64:3 
1 1:0.223662 2:0.193845 3:15.0872 4:12.6674 5:14.6069 6:0.97561 7:0.487805 9:1.46341 10:0.487805 11:0.97561 18:0.97561 19:0.97561 22:0.487805 23:0.487805 24:0.487805 26:0.97561 28:1.46341 29:0.487805 34:0.487805 43:0.97561 45:0.487805 47:0.487805 49:0.487805 50:0.487805 51:0.487805 52:0.487805 53:0.487805 58:0.487805 59:0.487805 60:0.97561 63:0.97561 64:0.97561 65:0.487805 
1 1:0.231443 2:0.21323 3:14.5953 4:12.2087 5:14.1213 7:0.888889 8:0.444444 9:0.444444 10:0.888889 11:0.444444 12:0.444444 14:0.444444 15:0.444444 17:0.444444 18:0.444444 20:0.444444 22:0.888889 26:0.888889 27:0.444444 28:0.888889 30:0.888889 34:0.888889 37:0.444444 41:0.444444 43:0.444444 45:0.444444 46:0.444444 49:0.444444 50:0.444444 52:0.444444 53:0.444444 56:0.444444 57:0.888889 58:1.33333 59:0.444444 61:0.888889 62:0.444444 63:0.444444 64:0.444444 
1 1:0.221864 2:0.188999 3:15.0975 4:11.3034 5:14.0294 7:0.512821 9:1.02564 10:0.512821 11:0.512821 14:1.02564 15:1.02564 17:0.512821 18:1.02564 20:0.512821 21:1.02564 30:0.512821 31:0.512821 37:1.02564 38:0.512821 43:0.512821 44:1.53846 45:1.02564 48:0.512821 49:1.02564 52:1.02564 53:1.02564 55:1.02564 56:0.512821 58:1.02564 66:0.512821 
1 1:0.209824 2:0.0969227 3:14.5807 4:15.0808 5:15.1962 8:0.952381 11:1.90476 15:0.952381 16:0.952381 17:0.952381 18:0.952381 20:0.952381 21:0.952381 35:0.952381 38:0.952381 45:0.952381 46:2.85714 49:1.90476 50:0.952381 57:0.952381 61:0.952381 63:0.952381 
1 1:0.198958 2:0.174461 3:14.9869 4:17.7315 5:14.8559 7:1.11111 9:1.11111 10:0.555556 11:0.555556 15:1.11111 18:0.555556 20:0.555556 22:0.555556 26:0.555556 28:2.22222 30:0.555556 38:0.555556 39:0.555556 40:0.555556 41:2.22222 44:0.555556 47:0.555556 50:1.11111 55:1.11111 56:0.555556 58:1.11111 59:0.555556 64:1.11111 
1 1:0.292732 2:0.804458 3:15.0748 4:19.5527 5:15.1073 6:0.121951 7:0.853659 8:0.243902 9:0.365854 10:0.121951 11:0.609756 12:0.243902 13:0.243902 14:0.487805 15:0.853659 16:0.487805 17:0.243902 18:0.609756 20:0.731707 21:0.365854 22:0.487805 24:0.243902 26:0.243902 28:1.09756 29:0.243902 30:0.243902 31:0.365854 34:0.487805 35:0.243902 37:0.121951 38:0.243902 39:0.243902 40:0.731707 41:0.853659 43:0.121951 44:0.243902 45:0.243902 46:0.243902 47:0.609756 50:0.853659 52:0.243902 55:1.21951 56:0.243902 57:0.243902 58:1.09756 59:0.487805 62:0.121951 64:1.21951 66:0.365854 
0.4310107213903166 1:0.164953 2:0.0678459 3:14.0561 4:10.0205 5:15.8855 11:1.33333 22:1.33333 25:1.33333 26:1.33333 27:1.33333 33:1.33333 34:1.33333 37:1.33333 45:1.33333 46:1.33333 51:1.33333 52:1.33333 57:1.33333 58:1.33333 61:1.33333 
0.2053247996864645 1:0.15911 2:0.0339229 3:16.4285 4:12.356 5:14.8467 11:2.5 30:2.5 38:5 43:2.5 51:2.5 52:2.5 54:2.5 
1 1:0.26598 2:0.222922 3:15.2978 4:18.1949 5:15.1868 7:1.30435 8:0.434783 9:0.434783 17:0.434783 18:2.17391 21:0.434783 26:0.434783 27:0.869565 28:0.434783 29:0.434783 34:0.434783 35:0.434783 37:0.869565 38:0.869565 39:0.434783 40:0.869565 42:0.869565 43:0.434783 44:0.869565 46:0.869565 48:0.434783 49:0.434783 51:0.869565 52:0.434783 54:0.434783 55:0.434783 57:0.869565 58:0.869565 59:0.434783 64:0.434783 
0.0491676134725375 1:0.160143 2:0.0920766 3:14.3225 4:14.3579 5:15.9189 6:1.05263 9:2.10526 12:1.05263 13:1.05263 20:2.10526 21:1.05263 26:1.05263 31:3.15789 37:1.05263 46:2.10526 47:1.05263 55:2.10526 58:1.05263 
1 1:0.2254 2:0.130846 3:15.3033 4:8.61915 5:12.9605 7:1.42857 8:2.14286 13:2.14286 18:0.714286 21:0.714286 26:0.714286 28:0.714286 32:0.714286 37:0.714286 38:1.42857 40:1.42857 42:0.714286 47:0.714286 48:0.714286 52:1.42857 55:0.714286 57:0.714286 62:0.714286 64:0.714286 65:0.714286 
1 1:0.187553 2:0.184153 3:15.3127 4:15.3785 5:15.8143 6:1.53846 7:1.02564 8:0.512821 12:1.53846 13:0.512821 15:0.512821 17:0.512821 20:0.512821 21:0.512821 24:0.512821 26:0.512821 28:0.512821 29:0.512821 31:1.53846 34:0.512821 35:0.512821 37:0.512821 45:1.53846 46:1.02564 47:0.512821 49:0.512821 51:0.512821 52:1.53846 56:0.512821 57:0.512821 58:1.02564 
1 1:0.164958 2:0.0436152 3:16.9628 4:9.53854 5:13.4006 21:2 22:2 32:2 35:2 38:2 46:2 50:2 54:4 55:2 
0.8918939029174631 1:0.168243 2:0.0436152 3:16.7445 4:11.145 5:13.1042 7:2 37:2 38:4 43:2 44:4 46:2 55:4 
1 1:0.259999 2:0.232614 3:15.3389 4:5.83888 5:13.7684 9:0.416667 10:0.416667 12:0.416667 14:0.416667 15:0.416667 18:0.416667 20:0.833333 22:0.416667 25:0.416667 28:0.833333 29:0.416667 30:0.833333 33:0.416667 34:0.833333 35:1.25 36:0.833333 40:0.416667 41:0.416667 42:0.416667 43:0.416667 45:0.416667 46:0.416667 50:1.66667 51:0.416667 52:0.416667 55:0.416667 58:0.416667 60:0.416667 63:1.66667 65:0.416667 66:2.08333 
1 1:0.172385 2:0.121153 3:14.8382 4:10.4253 5:13.8826 7:2.30769 8:0.769231 10:0.769231 12:1.53846 14:0.769231 15:0.769231 18:0.769231 19:0.769231 24:0.769231 26:0.769231 27:0.769231 35:1.53846 38:0.769231 45:0.769231 46:1.53846 48:0.769231 49:0.769231 54:0.769231 59:0.769231 61:0.769231 62:0.769231 
1 1:0.174045 2:0.0920766 3:14.9792 4:11.4663 5:13.5926 11:1 12:1 15:1 17:1 18:1 21:1 26:1 29:1 33:1 45:4 46:1 49:1 53:3 59:1 60:1 
1 1:0.167206 2:0.0484614 3:17.1398 4:10.5024 5:17.8949 9:1.81818 11:1.81818 18:1.81818 25:1.81818 26:1.81818 40:1.81818 46:1.81818 50:3.63636 53:1.81818 57:1.81818 
1 1:0.239539 2:0.164769 3:14.5133 4:9.73934 5:14.6764 7:3.42857 8:0.571429 11:1.71429 12:0.571429 13:0.571429 16:0.571429 17:0.571429 20:0.571429 24:0.571429 28:0.571429 31:1.14286 33:0.571429 35:0.571429 36:0.571429 38:1.71429 40:1.14286 44:1.14286 46:0.571429 56:1.14286 58:0.571429 59:0.571429 60:0.571429 
0.7517080923932046 1:0.156697 3:14.9141 4:3.27335 5:12.3359 57:20 
1 1:0.194621 2:0.0872304 3:15.6807 4:9.27994 5:14.6369 7:1.05263 18:2.10526 23:1.05263 29:1.05263 34:1.05263 38:1.05263 41:1.05263 42:1.05263 46:1.05263 48:1.05263 49:1.05263 50:1.05263 51:1.05263 52:1.05263 58:2.10526 61:2.10526 
0.8135468835556494 1:0.229918 2:0.0872304 3:14.2728 4:6.10279 5:13.1833 6:1.05263 10:2.10526 12:1.05263 15:2.10526 19:1.05263 20:2.10526 30:1.05263 32:1.05263 41:1.05263 49:2.10526 53:1.05263 58:1.05263 61:2.10526 65:1.05263 
0.7654669033732918 1:0.21597 2:0.0775382 3:16.4198 4:13.6639 5:14.9384 7:1.17647 14:1.17647 17:1.17647 30:1.17647 31:1.17647 35:1.17647 40:1.17647 43:1.17647 47:1.17647 50:1.17647 52:1.17647 53:1.17647 57:1.17647 61:3.52941 63:1.17647 
0.5288135246454724 1:0.182809 2:0.0775382 3:16.9277 4:7.54653 5:14.6697 9:3.52941 16:1.17647 22:2.35294 23:1.17647 34:1.17647 36:1.17647 39:1.17647 40:1.17647 50:1.17647 53:1.17647 54:1.17647 55:2.35294 58:1.17647 
1 1:0.357049 2:0.377999 3:15.8963 4:8.88332 5:14.0894 7:0.253165 8:1.01266 9:0.253165 10:0.759494 11:0.506329 13:0.506329 14:0.759494 15:0.253165 19:0.253165 20:0.253165 23:0.253165 24:0.253165 27:0.759494 28:0.506329 29:0.253165 30:0.253165 31:0.759494 34:0.506329 35:0.506329 37:0.253165 40:0.759494 41:0.759494 43:1.51899 44:1.01266 45:0.253165 46:0.253165 47:1.01266 48:0.253165 49:0.253165 50:0.253165 52:0.253165 53:0.759494 55:0.506329 56:0.253165 58:0.253165 59:0.253165 60:0.253165 61:0.253165 62:0.759494 63:0.253165 64:0.506329 65:0.253165 
1 1:0.197841 2:0.101769 3:16.6358 4:6.54621 5:15.0334 8:0.909091 11:0.909091 14:0.909091 15:0.909091 16:0.909091 21:0.909091 26:0.909091 27:0.909091 28:0.909091 29:0.909091 30:0.909091 31:0.909091 36:0.909091 40:0.909091 44:1.81818 45:0.909091 50:1.81818 54:0.909091 60:0.909091 61:0.909091 
1 1:0.225671 2:0.121153 3:14.8124 4:13.394 5:13.7529 7:2.30769 10:1.53846 11:1.53846 18:0.769231 25:0.769231 29:0.769231 34:0.769231 38:0.769231 44:0.769231 45:1.53846 46:0.769231 47:0.769231 50:1.53846 52:0.769231 55:1.53846 56:1.53846 57:0.769231 61:0.769231 
0.2617518415673787 1:0.172925 2:0.0533075 3:15.0318 4:10.4605 5:13.8541 6:1.66667 10:1.66667 13:1.66667 17:1.66667 31:1.66667 42:1.66667 44:1.66667 46:1.66667 47:1.66667 53:1.66667 57:1.66667 62:1.66667 
