svm_type c_svc
kernel_type rbf
gamma 0.0151515
nr_class 2
total_sv 6101
rho 2.90524
label 1 -1
nr_sv 2961 3140
SV
1 1:0.395963 2:0.0763793 3:22.9152 4:3.08783 5:16.9355 7:0.352941 9:0.352941 12:0.352941 15:1.05882 16:0.705882 17:0.352941 19:0.352941 21:0.352941 23:0.705882 24:0.352941 25:7.05882 27:0.705882 28:0.352941 29:0.352941 30:0.705882 32:1.41176 33:0.705882 34:0.352941 36:2.11765 37:0.352941 39:1.41176 40:0.705882 42:1.41176 44:0.705882 47:0.352941 48:0.705882 50:0.705882 52:0.352941 53:0.705882 54:0.705882 55:0.705882 59:0.352941 61:1.41176 62:0.352941 63:1.41176 64:0.352941 65:1.05882 66:1.05882 
1 1:0.654889 2:0.400767 3:22.1684 4:6.14711 5:17.6025 6:0.136674 7:0.205011 8:0.273349 9:1.02506 10:0.205011 12:0.546697 13:0.136674 14:0.615034 15:0.615034 16:0.546697 17:0.0683371 18:0.205011 19:1.09339 20:0.0683371 21:0.136674 22:0.136674 23:0.615034 24:1.16173 25:1.50342 26:0.410023 27:0.820046 28:0.0683371 29:0.136674 30:0.410023 31:0.205011 32:1.16173 33:0.888383 34:0.136674 35:0.410023 36:1.29841 37:0.95672 38:0.683371 39:0.683371 40:0.47836 41:0.341686 42:1.64009 43:0.136674 44:0.47836 45:0.136674 46:0.0683371 47:0.47836 48:0.341686 49:0.410023 50:0.47836 51:0.0683371 52:0.888383 53:0.683371 54:0.341686 55:0.273349 57:0.136674 58:0.0683371 59:0.410023 60:0.136674 61:1.16173 62:0.820046 63:0.95672 64:0.136674 65:0.546697 66:1.57175 
1 1:0.27155 2:0.0709878 3:22.0207 4:14.6581 5:22.6426 6:0.375 7:1.125 8:0.375 9:1.125 10:1.125 11:0.375 13:0.375 14:0.375 15:0.75 18:0.375 20:1.125 22:0.375 23:0.375 24:0.375 26:0.375 28:1.5 29:0.375 30:0.375 31:1.5 34:0.75 35:0.375 40:2.25 41:0.75 42:0.75 43:0.375 44:1.5 45:1.5 46:0.75 47:1.875 48:0.375 49:0.375 50:0.75 53:0.75 54:0.375 55:0.375 57:0.375 58:0.75 60:0.375 64:1.125 65:0.375 66:0.375 
1 1:0.297367 2:0.171629 3:21.4639 4:8.84057 5:17.5761 7:0.473684 8:0.473684 9:0.473684 10:0.473684 11:0.315789 12:0.473684 13:1.26316 14:0.157895 15:0.473684 17:0.157895 18:0.631579 19:0.473684 20:0.157895 21:0.315789 23:0.789474 24:0.473684 25:3.15789 26:0.631579 27:0.315789 28:0.473684 29:0.473684 30:0.157895 32:0.315789 33:1.73684 34:0.315789 35:0.473684 36:0.947368 37:0.947368 38:0.789474 39:1.73684 40:0.947368 41:0.473684 42:0.473684 43:0.157895 44:0.631579 45:0.157895 46:0.157895 48:0.789474 50:0.315789 52:0.315789 53:0.315789 54:0.789474 55:0.473684 57:0.157895 58:0.315789 59:0.789474 60:0.315789 61:0.947368 62:0.473684 63:0.947368 64:0.473684 65:0.315789 66:0.789474 
1 1:0.203629 2:0.0143773 3:19.9181 4:13.2381 5:21.2754 7:5.29412 10:1.76471 17:1.76471 18:1.76471 34:1.76471 42:1.76471 44:3.52941 47:3.52941 54:1.76471 57:1.76471 62:1.76471 64:1.76471 66:1.76471 
0.7182457971324443 1:0.24728 2:0.130294 3:21.2224 4:23.2164 5:21.9449 6:1.23288 7:1.23288 10:0.821918 11:1.23288 12:0.205479 13:0.821918 14:0.205479 15:0.205479 16:0.205479 17:0.205479 19:0.205479 20:0.616438 21:0.205479 22:0.205479 24:0.616438 26:0.821918 27:0.205479 28:1.84932 29:0.616438 30:0.616438 31:1.0274 32:0.205479 34:0.410959 35:1.23288 37:0.410959 38:0.410959 39:0.410959 40:0.821918 41:0.410959 42:0.616438 43:0.821918 44:0.616438 45:0.410959 46:0.205479 47:1.0274 49:0.616438 50:0.205479 51:0.410959 52:0.205479 53:1.0274 54:0.410959 55:0.410959 56:0.205479 57:1.0274 58:1.0274 59:0.821918 60:0.205479 62:0.205479 64:1.0274 65:0.616438 66:0.205479 
1 1:0.203629 2:0.0143773 3:19.9181 4:13.2381 5:21.2754 7:5.29412 10:1.76471 17:1.76471 18:1.76471 34:1.76471 42:1.76471 44:3.52941 47:3.52941 54:1.76471 57:1.76471 62:1.76471 64:1.76471 66:1.76471 
1 1:0.362665 2:0.142874 3:22.2221 4:9.04628 5:21.4334 6:0.1875 7:0.75 8:0.1875 9:0.375 10:1.125 11:0.375 12:0.375 13:0.75 15:0.375 16:0.375 17:0.375 18:0.1875 19:0.1875 20:1.6875 21:0.375 22:0.1875 23:0.5625 24:0.375 26:0.75 27:0.1875 28:0.375 29:0.1875 30:0.9375 31:0.9375 32:0.375 33:0.1875 34:0.375 35:0.375 36:0.375 37:0.5625 39:0.75 40:1.3125 41:0.9375 42:1.3125 44:0.9375 45:0.5625 46:0.9375 47:0.1875 49:0.5625 50:0.375 51:0.5625 52:0.5625 53:0.1875 54:0.75 55:0.5625 56:0.9375 57:0.9375 58:0.1875 59:0.375 60:0.375 61:0.1875 62:0.375 64:1.3125 65:0.1875 66:0.1875 
1 1:1.13606 2:0.265081 3:24.9619 4:18.5974 5:23.1614 6:0.40678 7:0.915254 8:0.101695 9:0.101695 10:0.610169 11:0.101695 12:0.101695 13:0.101695 14:0.20339 15:0.101695 16:0.101695 17:0.20339 18:0.40678 19:0.305085 20:0.101695 21:0.813559 22:0.101695 23:1.01695 24:0.101695 25:0.20339 26:0.305085 27:0.40678 28:0.305085 29:1.83051 30:0.305085 31:1.22034 32:0.101695 33:0.20339 34:0.20339 35:2.64407 36:0.20339 37:0.20339 38:0.101695 40:3.35593 41:1.42373 42:0.508475 43:0.508475 44:2.64407 45:0.40678 46:0.711864 47:0.305085 49:0.508475 50:0.40678 52:0.40678 55:0.305085 57:0.20339 58:0.508475 59:2.0339 61:0.813559 62:0.20339 64:0.40678 65:0.101695 66:0.20339 
1 1:0.599761 2:0.375607 3:22.0903 4:10.1849 5:19.254 6:0.288462 7:1.00962 8:0.288462 9:0.504808 10:0.288462 11:0.504808 12:0.288462 13:0.504808 14:0.288462 15:0.216346 16:0.504808 18:0.360577 19:0.288462 20:0.288462 21:0.576923 22:0.216346 23:1.15385 24:0.216346 25:1.00962 26:0.432692 28:0.288462 29:0.649038 30:0.432692 31:0.649038 32:0.216346 33:0.360577 34:0.288462 35:0.576923 36:0.432692 37:0.793269 38:0.721154 39:0.432692 40:1.51442 41:0.865385 42:0.865385 43:0.504808 44:0.9375 45:0.288462 46:0.144231 47:0.360577 48:0.432692 49:0.360577 50:0.288462 51:0.216346 52:0.721154 53:0.576923 54:1.37019 55:0.288462 56:0.432692 57:0.576923 58:0.360577 59:1.15385 60:0.432692 61:0.432692 62:0.432692 63:0.504808 64:0.144231 65:0.504808 66:0.721154 
1 1:0.303237 2:0.17073 3:21.8146 4:11.1368 5:19.5712 6:0.31746 7:0.952381 8:0.31746 9:0.31746 10:0.15873 11:0.634921 12:0.47619 13:0.15873 15:0.31746 16:0.634921 17:0.793651 18:0.31746 19:0.47619 20:0.31746 21:0.634921 22:0.31746 23:1.42857 24:0.31746 25:1.5873 26:0.31746 27:0.15873 28:0.47619 29:0.47619 30:0.15873 31:1.26984 32:0.634921 33:1.26984 34:0.15873 35:0.634921 36:0.952381 37:0.793651 38:1.11111 39:1.11111 40:0.952381 41:1.42857 43:0.793651 44:0.47619 45:0.15873 46:0.793651 47:0.31746 48:0.15873 49:0.15873 50:0.31746 51:0.31746 53:0.31746 54:0.15873 55:0.15873 57:0.15873 58:0.15873 59:0.15873 60:0.31746 61:0.47619 62:0.31746 63:1.26984 64:0.15873 65:0.793651 66:0.47619 
1 1:0.729345 2:0.236327 3:23.2763 4:6.09722 5:19.0405 7:0.114504 8:0.229008 9:0.114504 10:0.229008 11:0.229008 12:0.572519 13:0.458015 14:0.343511 15:0.229008 16:0.343511 18:0.229008 19:0.572519 20:0.114504 21:0.343511 22:0.229008 23:1.25954 24:0.687023 25:2.06107 26:0.572519 27:0.114504 28:0.114504 29:0.114504 30:0.801527 31:0.343511 32:0.114504 33:1.37405 34:0.343511 35:1.25954 36:1.14504 37:1.71756 38:0.572519 39:0.801527 40:0.916031 41:1.37405 42:0.343511 43:0.229008 44:0.343511 45:0.229008 46:0.572519 47:0.114504 48:0.343511 49:0.343511 50:0.458015 51:0.114504 52:0.916031 53:0.687023 54:0.687023 55:0.229008 57:0.114504 58:0.343511 59:1.94656 60:0.114504 61:0.343511 62:0.229008 63:1.03053 65:0.572519 66:0.687023 
1 1:0.267914 2:0.0871623 3:21.7815 4:8.67333 5:18.9126 7:1.53061 8:1.83673 9:0.612245 10:1.83673 11:0.918367 12:0.306122 13:0.306122 15:0.612245 16:0.306122 18:0.612245 19:0.612245 21:0.306122 23:0.612245 24:0.306122 25:1.83673 26:1.22449 27:0.306122 30:0.306122 31:0.612245 32:0.306122 34:0.306122 35:0.612245 37:0.612245 38:1.22449 39:0.306122 40:0.612245 41:0.612245 42:0.918367 43:0.612245 44:0.306122 45:0.612245 47:0.918367 48:0.612245 49:0.918367 50:0.612245 52:0.306122 53:0.612245 55:0.306122 57:0.306122 59:1.22449 61:0.612245 62:0.306122 63:0.918367 65:0.918367 66:0.306122 
1 1:0.307788 2:0.0611035 3:22.5987 4:11.3284 5:21.3303 7:1.30435 8:0.434783 10:1.30435 11:0.869565 13:0.434783 15:0.434783 18:0.434783 20:0.869565 23:0.869565 24:0.434783 26:1.30435 27:0.434783 28:0.434783 29:0.434783 31:0.869565 34:2.6087 35:2.6087 37:0.434783 40:1.30435 41:0.434783 42:0.869565 43:0.434783 44:1.30435 45:0.869565 49:0.434783 50:0.869565 51:0.434783 53:1.30435 55:0.434783 58:0.869565 59:0.869565 61:0.434783 62:0.869565 65:1.30435 66:0.434783 
1 1:0.304315 2:0.0566106 3:22.0879 4:14.7938 5:21.0999 7:1.40625 8:0.46875 10:1.40625 11:0.9375 13:0.46875 15:0.46875 18:0.46875 20:0.9375 23:0.46875 24:0.46875 26:1.40625 28:0.46875 29:0.46875 31:0.9375 34:2.8125 35:2.34375 37:0.46875 40:1.40625 41:0.46875 42:0.46875 43:0.46875 44:1.40625 45:0.9375 49:0.46875 50:0.9375 51:0.46875 53:1.40625 55:0.46875 58:0.9375 59:0.46875 61:0.46875 62:0.9375 65:1.40625 66:0.46875 
1 1:0.307788 2:0.0611035 3:22.5987 4:7.00032 5:21.3303 7:1.30435 8:0.434783 10:1.30435 11:0.869565 13:0.434783 15:0.434783 18:0.434783 20:0.869565 23:0.869565 24:0.434783 26:1.30435 27:0.434783 28:0.434783 29:0.434783 31:0.869565 34:2.6087 35:2.6087 37:0.434783 40:1.30435 41:0.434783 42:0.869565 43:0.434783 44:1.30435 45:0.869565 49:0.434783 50:0.869565 51:0.434783 53:1.30435 55:0.434783 58:0.869565 59:0.869565 61:0.434783 62:0.869565 65:1.30435 66:0.434783 
1 1:0.54718 2:0.102438 3:25.1881 4:4.30169 5:17.8896 9:0.526316 10:0.263158 13:0.263158 16:0.526316 21:0.263158 23:3.42105 24:1.05263 25:3.15789 26:1.31579 28:0.263158 29:0.526316 30:0.526316 32:0.789474 33:2.10526 34:0.263158 36:4.21053 37:1.05263 38:0.526316 39:0.789474 40:2.10526 41:2.89474 42:0.526316 43:0.263158 47:0.263158 48:0.789474 52:0.263158 55:0.263158 59:0.789474 61:0.263158 63:1.31579 
0.9857414732818082 1:0.317391 2:0.0871623 3:23.6162 4:9.49102 5:19.0254 6:0.306122 8:0.306122 9:0.306122 10:0.612245 12:0.612245 13:0.306122 14:0.612245 15:0.306122 16:0.612245 17:0.306122 18:0.612245 19:0.306122 20:0.306122 21:0.306122 22:0.612245 23:1.83673 24:0.918367 25:3.06122 26:0.612245 27:0.306122 28:0.612245 29:1.22449 30:0.306122 31:0.306122 33:0.306122 34:0.306122 35:0.918367 36:0.918367 37:0.918367 38:2.14286 39:0.306122 40:2.44898 41:0.612245 42:0.612245 43:0.612245 46:0.612245 47:0.306122 50:0.612245 52:0.306122 54:0.612245 56:0.306122 59:1.53061 63:0.918367 65:0.306122 66:0.306122 
1 1:0.349928 2:0.044929 3:22.3985 4:1.71426 5:18.7213 8:0.612245 10:1.22449 13:0.612245 14:3.67347 18:0.612245 19:0.612245 21:0.612245 23:0.612245 30:2.44898 32:0.612245 34:0.612245 42:5.5102 43:0.612245 46:0.612245 47:0.612245 48:0.612245 50:1.83673 51:0.612245 53:1.22449 58:0.612245 61:0.612245 62:2.44898 66:2.44898 
1 1:0.349928 2:0.044929 3:22.3985 4:2.03822 5:18.7213 8:0.612245 10:1.22449 13:0.612245 14:3.67347 18:0.612245 19:0.612245 21:0.612245 23:0.612245 30:2.44898 32:0.612245 34:0.612245 42:5.5102 43:0.612245 46:0.612245 47:0.612245 48:0.612245 50:1.83673 51:0.612245 53:1.22449 58:0.612245 61:0.612245 62:2.44898 66:2.44898 
1 1:0.349928 2:0.044929 3:22.3985 4:1.97877 5:18.7213 8:0.612245 10:1.22449 13:0.612245 14:3.67347 18:0.612245 19:0.612245 21:0.612245 23:0.612245 30:2.44898 32:0.612245 34:0.612245 42:5.5102 43:0.612245 46:0.612245 47:0.612245 48:0.612245 50:1.83673 51:0.612245 53:1.22449 58:0.612245 61:0.612245 62:2.44898 66:2.44898 
0.8769888881610306 1:0.349928 2:0.044929 3:22.3985 4:2.10986 5:18.7213 8:0.612245 10:1.22449 13:0.612245 14:3.67347 18:0.612245 19:0.612245 21:0.612245 23:0.612245 30:2.44898 32:0.612245 34:0.612245 42:5.5102 43:0.612245 46:0.612245 47:0.612245 48:0.612245 50:1.83673 51:0.612245 53:1.22449 58:0.612245 61:0.612245 62:2.44898 66:2.44898 
1 1:0.42453 2:0.0871623 3:23.1784 4:2.93342 5:18.8644 8:0.618557 9:0.618557 10:0.927835 13:0.927835 14:0.618557 16:0.927835 17:1.23711 18:0.309278 19:0.618557 20:0.309278 22:0.309278 24:0.927835 26:0.309278 27:0.309278 28:0.927835 30:2.16495 32:1.54639 34:0.309278 36:1.54639 37:0.618557 38:0.309278 40:1.54639 41:0.618557 42:3.71134 44:1.23711 47:0.618557 48:0.927835 52:0.309278 53:0.309278 55:0.309278 60:0.927835 61:0.927835 63:1.54639 64:0.309278 66:0.309278 
1 1:0.316033 2:0.0826694 3:22.7284 4:6.48621 5:18.2245 10:0.645161 11:0.645161 13:1.29032 15:0.645161 17:0.322581 18:0.967742 19:0.967742 21:1.29032 22:0.322581 23:0.645161 24:0.645161 25:2.58065 26:0.322581 27:0.645161 28:0.322581 29:0.322581 30:0.322581 31:0.322581 32:0.322581 33:0.967742 35:0.322581 36:1.93548 37:1.6129 39:0.967742 40:1.29032 41:1.29032 42:0.967742 44:0.322581 45:1.29032 48:0.322581 52:0.645161 53:1.93548 55:0.645161 59:1.6129 60:0.322581 63:0.645161 65:0.322581 66:0.322581 
1 1:0.316033 2:0.0826694 3:22.7284 4:6.48621 5:18.2245 10:0.645161 11:0.645161 13:1.29032 15:0.645161 17:0.322581 18:0.967742 19:0.967742 21:1.29032 22:0.322581 23:0.645161 24:0.645161 25:2.58065 26:0.322581 27:0.645161 28:0.322581 29:0.322581 30:0.322581 31:0.322581 32:0.322581 33:0.967742 35:0.322581 36:1.93548 37:1.6129 39:0.967742 40:1.29032 41:1.29032 42:0.967742 44:0.322581 45:1.29032 48:0.322581 52:0.645161 53:1.93548 55:0.645161 59:1.6129 60:0.322581 63:0.645161 65:0.322581 66:0.322581 
1 1:0.234413 2:0.044929 3:21.559 4:21.197 5:21.7823 6:0.588235 7:1.76471 11:1.17647 13:0.588235 14:0.588235 15:0.588235 16:0.588235 17:1.17647 18:0.588235 21:0.588235 22:0.588235 23:0.588235 31:1.17647 32:0.588235 34:1.17647 35:0.588235 37:0.588235 38:0.588235 40:0.588235 41:0.588235 44:4.11765 45:0.588235 46:1.17647 47:0.588235 49:0.588235 52:0.588235 54:0.588235 55:0.588235 57:0.588235 59:1.76471 60:1.76471 62:0.588235 64:0.588235 65:0.588235 
1 1:0.256607 2:0.0242617 3:20.4978 4:5.84009 5:19.8051 7:1.11111 8:1.11111 14:1.11111 15:1.11111 20:1.11111 22:1.11111 27:1.11111 30:3.33333 32:1.11111 35:2.22222 37:1.11111 40:1.11111 41:1.11111 42:1.11111 43:2.22222 44:1.11111 45:1.11111 47:1.11111 52:1.11111 57:1.11111 58:2.22222 61:1.11111 
1 1:0.256607 2:0.0242617 3:20.4978 4:5.84009 5:19.8051 7:1.11111 8:1.11111 14:1.11111 15:1.11111 20:1.11111 22:1.11111 27:1.11111 30:3.33333 32:1.11111 35:2.22222 37:1.11111 40:1.11111 41:1.11111 42:1.11111 43:2.22222 44:1.11111 45:1.11111 47:1.11111 52:1.11111 57:1.11111 58:2.22222 61:1.11111 
1 1:0.268498 2:0.0754807 3:22.8584 4:13.4097 5:18.3877 7:0.352941 9:1.41176 10:0.352941 12:0.352941 15:0.352941 16:0.705882 17:0.352941 18:0.705882 20:0.352941 21:1.41176 22:0.352941 23:0.352941 24:0.352941 25:3.52941 29:1.05882 30:0.352941 31:0.352941 32:0.705882 33:1.41176 34:0.352941 35:1.41176 36:0.705882 37:1.05882 38:0.705882 39:1.41176 40:1.05882 41:0.705882 42:0.352941 43:0.352941 44:0.352941 46:0.352941 48:0.705882 49:0.352941 50:0.352941 51:0.352941 52:0.705882 53:0.705882 54:1.41176 55:0.352941 59:0.705882 61:0.352941 64:0.352941 65:1.05882 66:0.705882 
1 1:0.225072 2:0.0485233 3:21.4687 4:24.5149 5:20.9217 6:1.63636 7:2.72727 9:0.545455 11:1.63636 14:0.545455 18:0.545455 21:1.09091 29:0.545455 31:0.545455 32:1.09091 34:1.09091 35:1.63636 36:0.545455 40:1.09091 41:1.09091 42:1.09091 43:1.09091 44:0.545455 46:1.09091 47:1.09091 49:1.09091 51:0.545455 53:1.09091 55:0.545455 56:0.545455 58:1.09091 61:0.545455 64:1.09091 65:2.18182 
1 1:0.311964 2:0.089858 3:22.2322 4:6.60716 5:18.6641 7:1.18812 8:0.29703 9:0.29703 10:0.29703 12:0.29703 14:1.48515 15:1.18812 16:0.594059 17:0.891089 18:0.29703 19:0.594059 20:0.594059 22:0.29703 23:0.29703 24:1.48515 25:0.594059 26:0.29703 28:0.891089 29:0.29703 30:0.29703 33:0.29703 35:0.594059 36:0.29703 38:0.594059 39:0.594059 40:0.891089 41:0.29703 42:1.18812 44:0.29703 45:0.29703 47:0.891089 48:1.78218 49:0.594059 50:0.891089 51:0.29703 52:0.29703 53:0.594059 55:0.891089 58:0.594059 59:0.594059 60:0.594059 61:1.48515 62:0.891089 63:1.18812 65:0.29703 66:0.594059 
1 1:0.259282 2:0.0305517 3:24.4224 4:6.54104 5:18.5978 7:1.71429 19:2.57143 23:0.857143 24:1.71429 26:0.857143 30:0.857143 33:2.57143 36:3.42857 37:0.857143 38:2.57143 39:1.71429 40:0.857143 42:0.857143 48:0.857143 54:2.57143 55:0.857143 59:0.857143 62:0.857143 63:1.71429 66:0.857143 
1 1:0.251081 2:0.0548134 3:21.3751 4:12.2884 5:20.855 6:0.483871 7:0.967742 9:0.483871 10:0.483871 11:0.483871 13:0.483871 17:0.967742 18:0.483871 20:0.483871 21:1.45161 22:0.483871 27:0.967742 29:0.483871 31:2.41935 34:0.483871 36:0.483871 38:0.483871 39:0.483871 40:0.967742 41:1.93548 43:0.483871 44:1.93548 45:0.483871 47:0.967742 48:0.483871 50:1.45161 51:0.483871 53:0.483871 55:2.90323 56:0.483871 57:0.483871 58:0.967742 59:0.483871 61:0.967742 65:0.967742 
0.9656018551083164 1:0.259603 2:0.0781765 3:21.5285 4:14.7072 5:22.3098 6:0.340909 7:1.02273 10:1.02273 11:1.02273 12:0.340909 13:0.681818 14:1.36364 17:0.681818 18:1.02273 21:1.02273 22:0.340909 27:0.340909 28:0.681818 30:0.340909 31:1.36364 32:0.340909 35:2.38636 37:0.681818 38:0.340909 40:1.36364 41:0.340909 42:0.340909 44:1.36364 45:1.02273 46:1.02273 47:0.681818 50:0.681818 51:0.681818 53:0.340909 55:0.681818 56:1.02273 57:0.681818 58:1.02273 59:0.681818 60:1.02273 62:0.681818 64:0.340909 65:0.681818 
1 1:0.232087 2:0.0736836 3:21.3428 4:17.8498 5:20.41 6:0.361446 7:0.722892 8:0.722892 9:0.361446 10:0.722892 11:0.361446 12:0.361446 15:0.722892 16:0.722892 17:0.361446 18:1.44578 19:0.361446 20:0.722892 21:0.361446 23:1.08434 24:0.361446 26:1.80723 29:0.361446 30:1.08434 31:1.08434 34:0.361446 35:0.361446 36:0.361446 37:0.361446 38:0.361446 40:1.08434 41:0.722892 43:0.361446 44:1.08434 45:0.722892 46:0.361446 47:1.08434 49:0.722892 50:0.361446 51:0.361446 52:0.361446 53:1.08434 54:0.361446 55:0.722892 56:0.361446 57:0.722892 58:0.722892 59:0.361446 60:0.361446 61:0.361446 62:0.722892 65:1.08434 
1 1:0.32455 2:0.106032 3:22.347 4:15.6201 5:20.1173 7:0.756303 8:0.252101 9:0.252101 10:0.252101 11:1.0084 12:0.504202 13:0.756303 16:0.756303 17:0.504202 18:0.252101 19:0.504202 21:0.252101 22:0.252101 23:1.2605 24:0.756303 25:1.0084 26:0.252101 27:0.252101 29:1.2605 31:0.504202 32:0.756303 33:0.252101 34:2.26891 35:1.51261 37:0.252101 38:0.504202 39:0.756303 40:1.2605 42:1.0084 43:0.504202 45:0.252101 46:0.252101 47:0.252101 48:0.504202 49:0.756303 50:0.252101 52:0.252101 53:0.756303 54:0.252101 55:0.504202 56:0.504202 57:1.2605 59:1.0084 60:0.252101 61:1.0084 62:0.252101 63:0.756303 64:0.504202 66:0.252101 
1 1:0.285146 2:0.0808722 3:21.9996 4:12.9814 5:20.2985 6:0.333333 7:1 9:1.66667 10:0.333333 11:1 12:0.666667 14:0.666667 15:1.33333 16:0.333333 18:0.666667 19:1 22:1 24:1.66667 27:1.33333 28:2 29:0.333333 30:0.666667 31:1.33333 32:0.333333 34:0.333333 35:0.333333 36:0.333333 37:1 40:1 41:0.666667 42:1.33333 43:0.333333 44:1.33333 46:0.333333 47:0.333333 49:0.333333 50:1.33333 51:0.333333 53:0.333333 55:0.333333 57:0.333333 58:0.333333 59:0.333333 60:0.333333 62:0.333333 63:0.333333 65:0.333333 
1 1:0.266974 2:0.0440304 3:21.1996 4:11.7869 5:20.2643 6:0.6 7:2.4 8:1.8 11:0.6 13:1.8 15:0.6 17:0.6 18:1.2 24:0.6 25:1.2 27:0.6 30:0.6 31:0.6 32:0.6 34:0.6 35:0.6 38:1.8 39:0.6 40:0.6 42:2.4 44:0.6 45:1.2 46:1.2 47:0.6 49:1.2 53:0.6 55:0.6 56:0.6 59:1.2 63:0.6 64:0.6 65:0.6 66:0.6 
1 1:0.293889 2:0.0799736 3:22.0489 4:7.44688 5:18.194 6:0.333333 8:0.666667 9:1.66667 11:0.666667 12:0.666667 13:0.333333 14:0.333333 15:0.666667 16:0.333333 17:0.333333 19:1 21:0.333333 23:0.666667 24:2 25:3.33333 26:1 27:0.666667 28:0.333333 29:0.333333 31:0.333333 32:0.333333 33:0.333333 36:1.33333 37:1 38:0.333333 39:1.33333 40:0.333333 41:0.666667 42:0.666667 44:0.333333 48:0.333333 51:0.333333 52:1 53:1.33333 54:0.333333 55:0.666667 57:0.333333 59:0.333333 61:1 62:0.333333 63:0.333333 64:0.666667 65:0.666667 66:1.33333 
1 1:0.293889 2:0.0799736 3:22.0489 4:8.1076 5:18.194 6:0.333333 8:0.666667 9:1.66667 11:0.666667 12:0.666667 13:0.333333 14:0.333333 15:0.666667 16:0.333333 17:0.333333 19:1 21:0.333333 23:0.666667 24:2 25:3.33333 26:1 27:0.666667 28:0.333333 29:0.333333 31:0.333333 32:0.333333 33:0.333333 36:1.33333 37:1 38:0.333333 39:1.33333 40:0.333333 41:0.666667 42:0.666667 44:0.333333 48:0.333333 51:0.333333 52:1 53:1.33333 54:0.333333 55:0.666667 57:0.333333 59:0.333333 61:1 62:0.333333 63:0.333333 64:0.666667 65:0.666667 66:1.33333 
1 1:0.293889 2:0.0799736 3:22.0489 4:7.44688 5:18.194 6:0.333333 8:0.666667 9:1.66667 11:0.666667 12:0.666667 13:0.333333 14:0.333333 15:0.666667 16:0.333333 17:0.333333 19:1 21:0.333333 23:0.666667 24:2 25:3.33333 26:1 27:0.666667 28:0.333333 29:0.333333 31:0.333333 32:0.333333 33:0.333333 36:1.33333 37:1 38:0.333333 39:1.33333 40:0.333333 41:0.666667 42:0.666667 44:0.333333 48:0.333333 51:0.333333 52:1 53:1.33333 54:0.333333 55:0.666667 57:0.333333 59:0.333333 61:1 62:0.333333 63:0.333333 64:0.666667 65:0.666667 66:1.33333 
1 1:0.293889 2:0.0799736 3:22.0489 4:7.66811 5:18.194 6:0.333333 8:0.666667 9:1.66667 11:0.666667 12:0.666667 13:0.333333 14:0.333333 15:0.666667 16:0.333333 17:0.333333 19:1 21:0.333333 23:0.666667 24:2 25:3.33333 26:1 27:0.666667 28:0.333333 29:0.333333 31:0.333333 32:0.333333 33:0.333333 36:1.33333 37:1 38:0.333333 39:1.33333 40:0.333333 41:0.666667 42:0.666667 44:0.333333 48:0.333333 51:0.333333 52:1 53:1.33333 54:0.333333 55:0.666667 57:0.333333 59:0.333333 61:1 62:0.333333 63:0.333333 64:0.666667 65:0.666667 66:1.33333 
1 1:0.337929 2:0.0611035 3:22.0487 4:2.09048 5:18.2904 6:0.441176 7:0.882353 8:0.882353 11:1.32353 16:0.882353 17:0.441176 19:0.882353 22:0.441176 23:0.882353 25:2.64706 26:0.441176 27:1.32353 29:0.882353 32:0.441176 34:0.441176 35:1.76471 36:2.20588 37:0.441176 38:0.441176 39:2.20588 40:1.32353 41:0.441176 44:0.441176 45:0.441176 46:0.441176 47:0.441176 48:0.441176 49:0.441176 51:0.441176 52:0.882353 55:0.441176 59:0.441176 61:0.441176 62:0.882353 63:2.20588 66:0.882353 
1 1:0.686073 2:0.276763 3:22.8209 4:10.2277 5:19.6825 6:0.0977199 7:0.29316 8:0.29316 9:1.27036 10:0.0977199 11:0.0977199 12:0.19544 13:0.0977199 14:0.29316 15:0.19544 16:0.586319 17:0.19544 19:0.19544 21:0.19544 22:0.29316 23:0.488599 24:0.684039 25:0.390879 26:1.27036 27:0.488599 28:0.29316 29:0.29316 30:1.27036 31:0.586319 32:1.36808 33:0.488599 35:0.684039 36:0.390879 37:0.977199 38:0.390879 39:0.390879 40:2.443 41:0.977199 42:0.390879 43:0.586319 44:0.19544 45:0.29316 46:0.390879 47:0.488599 48:0.29316 49:0.488599 50:0.390879 51:0.488599 52:0.29316 53:0.586319 54:0.586319 55:0.879479 56:0.29316 57:0.684039 58:0.29316 59:0.586319 60:0.0977199 61:0.586319 62:0.488599 63:0.879479 64:0.488599 65:0.390879 66:0.781759 
1 1:0.679537 2:0.277661 3:22.7869 4:10.2373 5:19.6368 6:0.0974026 7:0.292208 8:0.292208 9:1.26623 10:0.0974026 11:0.0974026 12:0.194805 13:0.0974026 14:0.292208 15:0.194805 16:0.584416 17:0.194805 19:0.194805 21:0.194805 22:0.292208 23:0.487013 24:0.681818 25:0.38961 26:1.26623 27:0.487013 28:0.292208 29:0.292208 30:1.26623 31:0.584416 32:1.36364 33:0.487013 35:0.681818 36:0.38961 37:0.974026 38:0.38961 39:0.38961 40:2.43506 41:0.974026 42:0.38961 43:0.584416 44:0.194805 45:0.292208 46:0.38961 47:0.487013 48:0.292208 49:0.487013 50:0.38961 51:0.487013 52:0.292208 53:0.584416 54:0.584416 55:0.974026 56:0.292208 57:0.681818 58:0.292208 59:0.584416 60:0.0974026 61:0.584416 62:0.487013 63:0.876623 64:0.487013 65:0.38961 66:0.779221 
1 1:0.345594 2:0.248907 3:21.4529 4:15.4578 5:19.7715 6:0.433213 7:0.32491 8:0.216606 9:0.108303 10:0.866426 11:0.866426 12:0.433213 13:0.541516 14:0.32491 15:0.649819 16:0.216606 17:0.32491 18:0.649819 19:0.758123 20:0.541516 21:0.433213 22:0.108303 23:0.32491 24:0.433213 26:1.08303 28:0.433213 29:0.433213 30:0.649819 31:0.32491 34:0.433213 35:1.51625 37:0.649819 38:0.758123 39:0.541516 40:0.974729 41:1.62455 42:0.32491 43:0.433213 44:0.649819 45:0.433213 46:0.216606 47:0.32491 48:0.32491 49:0.758123 50:0.32491 51:0.541516 52:0.649819 53:0.758123 54:0.758123 55:0.541516 56:0.216606 57:0.649819 58:0.433213 59:0.866426 60:0.108303 61:0.866426 62:0.433213 63:0.108303 64:0.541516 65:0.216606 66:0.541516 
1 1:0.27085 2:0.141077 3:21.488 4:17.6953 5:21.581 6:0.189873 7:1.32911 8:0.189873 9:0.56962 10:0.759494 11:0.189873 13:0.189873 15:0.379747 17:1.32911 18:0.189873 20:0.949367 21:0.56962 22:1.13924 23:0.379747 26:0.189873 27:1.13924 28:0.759494 29:0.949367 30:0.189873 31:0.949367 32:0.379747 34:0.189873 35:1.32911 37:0.189873 38:0.56962 40:1.13924 41:1.89873 42:0.189873 43:0.189873 44:2.08861 45:1.13924 46:0.379747 47:0.56962 49:0.189873 50:0.949367 51:0.56962 52:0.379747 53:0.189873 54:0.189873 55:0.379747 56:0.56962 57:1.32911 58:0.189873 59:0.379747 60:0.56962 61:0.56962 62:0.189873 64:0.189873 66:0.379747 
0.01425557433764024 1:0.425214 2:0.194093 3:22.0179 4:23.3938 5:21.7647 6:0.416667 7:2.08333 8:0.138889 9:0.416667 10:0.416667 11:0.277778 12:0.138889 13:0.416667 14:0.555556 15:0.277778 16:0.138889 17:0.138889 18:0.555556 19:0.416667 20:0.555556 21:0.277778 22:0.416667 23:0.138889 24:0.416667 26:1.38889 27:0.138889 28:0.694444 29:0.694444 30:0.277778 31:1.25 32:0.277778 34:0.694444 35:1.80556 36:0.277778 37:0.138889 38:0.416667 39:0.277778 40:0.972222 41:0.833333 42:0.416667 43:0.277778 44:1.52778 45:0.833333 46:0.277778 47:1.25 48:0.416667 49:0.555556 50:0.555556 51:0.138889 52:0.416667 53:0.277778 55:0.555556 56:0.277778 57:0.833333 58:0.555556 59:0.416667 60:0.694444 61:0.277778 64:0.416667 65:0.138889 66:0.555556 
1 1:0.292777 2:0.0566106 3:21.8473 4:6.96502 5:19.3239 7:0.47619 8:1.42857 9:0.47619 10:0.47619 11:0.47619 12:0.47619 13:0.952381 14:0.47619 15:0.47619 16:0.47619 17:0.47619 19:0.47619 21:0.47619 22:0.47619 23:0.47619 24:1.42857 25:5.71429 26:1.42857 28:0.47619 29:0.47619 31:0.47619 35:0.47619 36:0.952381 38:0.47619 40:1.42857 42:0.952381 44:0.47619 47:0.47619 48:1.42857 49:0.47619 52:0.952381 53:0.47619 54:0.952381 57:0.952381 58:0.47619 59:0.952381 60:0.47619 61:0.47619 63:1.42857 
1 1:0.20722 2:0.0296531 3:20.2796 4:26.161 5:19.9161 7:4.41176 9:0.882353 15:0.882353 17:0.882353 20:0.882353 23:0.882353 26:0.882353 29:0.882353 35:1.76471 38:0.882353 41:0.882353 44:3.52941 45:1.76471 47:0.882353 49:0.882353 51:0.882353 53:0.882353 54:0.882353 55:2.64706 56:0.882353 57:0.882353 60:0.882353 64:0.882353 
0.2369409472269116 1:0.229247 2:0.0395375 3:20.4425 4:27.0732 5:21.1659 7:0.666667 8:1.33333 11:2 12:1.33333 13:0.666667 14:0.666667 18:1.33333 19:0.666667 20:0.666667 21:0.666667 23:0.666667 28:0.666667 31:0.666667 35:1.33333 36:0.666667 38:0.666667 39:0.666667 40:0.666667 42:1.33333 43:1.33333 44:0.666667 46:1.33333 47:1.33333 53:0.666667 55:0.666667 56:0.666667 57:2 58:2 61:0.666667 64:0.666667 65:0.666667 
1 1:0.274864 2:0.106931 3:21.0486 4:16.6243 5:19.7938 6:1 7:2 8:0.25 11:0.25 12:0.25 13:0.5 17:0.25 18:1.25 19:0.75 20:0.75 21:0.75 22:0.5 24:0.25 25:0.5 26:0.25 29:0.75 30:1.25 31:1 33:0.25 34:0.5 35:1.5 37:0.25 38:1.25 39:0.25 40:1.25 41:0.5 42:0.75 43:0.25 44:0.75 45:0.5 46:0.25 47:0.5 49:1 51:0.5 52:0.25 53:1.5 54:0.75 55:1.5 57:0.75 58:0.25 59:0.25 60:0.25 61:0.5 64:0.25 65:0.75 66:0.5 
1 1:0.232243 2:0.0314503 3:21.44 4:1.9666 5:22.7777 11:1.71429 15:0.857143 19:0.857143 20:0.857143 22:1.71429 26:3.42857 28:2.57143 30:0.857143 31:0.857143 35:0.857143 39:0.857143 40:0.857143 41:1.71429 42:1.71429 43:0.857143 44:0.857143 45:0.857143 46:0.857143 48:2.57143 49:0.857143 51:0.857143 55:0.857143 60:1.71429 
1 1:0.374799 2:0.216558 3:21.8068 4:29.1478 5:21.2522 6:0.867769 7:0.867769 8:0.247934 10:0.371901 11:0.619835 13:0.495868 14:1.1157 15:0.247934 17:0.619835 18:0.619835 19:0.123967 20:0.619835 21:0.867769 22:0.371901 23:0.371901 24:0.247934 26:0.247934 27:0.123967 28:0.371901 29:0.371901 30:0.371901 31:0.743802 32:0.619835 33:0.123967 34:0.371901 35:1.8595 36:0.371901 37:0.123967 38:0.123967 39:0.247934 40:1.61157 41:0.743802 42:0.247934 43:0.867769 44:1.36364 45:0.123967 46:0.991736 47:0.371901 48:0.123967 49:0.371901 50:0.123967 51:0.123967 52:0.619835 53:0.743802 54:0.495868 55:1.23967 56:0.371901 57:1.23967 58:0.619835 59:0.495868 60:0.371901 61:0.743802 62:0.123967 65:0.867769 66:0.247934 
1 1:0.255435 2:0.0296531 3:22.5532 4:4.17811 5:18.2092 9:0.882353 10:0.882353 12:1.76471 13:0.882353 14:0.882353 16:0.882353 20:0.882353 22:0.882353 24:0.882353 25:3.52941 26:0.882353 27:0.882353 33:0.882353 37:1.76471 39:3.52941 40:1.76471 41:0.882353 45:0.882353 52:0.882353 53:1.76471 58:0.882353 59:1.76471 62:0.882353 64:0.882353 66:0.882353 
1 1:0.247256 2:0.0539148 3:21.3312 4:11.2956 5:21.4054 6:0.491803 7:0.491803 10:0.491803 12:0.491803 13:0.491803 15:1.96721 17:0.491803 18:1.47541 19:0.491803 21:0.983607 23:0.491803 24:0.983607 26:1.47541 28:0.491803 31:0.983607 32:0.491803 34:0.491803 38:0.491803 40:0.983607 41:0.983607 42:0.491803 43:0.491803 44:0.491803 45:0.983607 46:0.983607 50:0.491803 51:0.491803 52:0.983607 53:1.96721 55:0.491803 57:0.983607 58:0.491803 59:1.96721 60:0.491803 61:0.491803 64:0.491803 65:0.491803 66:0.983607 
0.5952228891187276 1:23.0005 2:5.93422 3:25.579 4:11.6144 5:21.2725 6:0.0772259 7:0.213507 8:0.28619 9:0.277105 10:0.240763 11:0.172623 12:0.522411 13:0.38613 14:0.472441 15:0.558752 16:0.204422 17:0.0181708 18:0.109025 19:0.513325 20:0.21805 21:0.463356 22:0.0999394 23:1.54906 24:0.472441 25:1.10842 26:2.00787 27:0.136281 28:0.0635978 29:0.545124 30:0.763174 31:0.558752 32:0.0999394 33:0.599637 34:0.23622 35:1.07662 36:0.699576 37:0.776802 38:0.154452 39:1.06753 40:2.4258 41:1.50363 42:0.826772 43:0.11811 44:0.304361 45:0.0863113 46:0.390672 47:0.449727 48:0.422471 49:0.526953 50:0.263477 51:0.0545124 52:0.358873 53:0.317989 54:0.799515 55:0.181708 56:0.145366 57:0.0953967 58:0.11811 59:1.81708 60:0.0863113 61:0.55421 62:0.536039 63:0.208964 64:0.245306 65:0.299818 66:0.667777 
1 1:26.9857 2:7.1509 3:25.4623 4:12.2423 5:21.0788 6:0.0678562 7:0.211108 8:0.241267 9:0.290274 10:0.237497 11:0.17341 12:0.53531 13:0.399598 14:0.516461 15:0.565469 16:0.196029 17:0.018849 18:0.113094 19:0.622016 20:0.256346 21:0.486303 22:0.0980146 23:1.59085 24:0.456145 25:1.05554 26:1.82081 27:0.109324 28:0.0678562 29:0.505152 30:0.761498 31:0.493843 32:0.0942448 33:0.565469 34:0.226187 35:1.05177 36:0.686102 37:0.750188 38:0.154561 39:1.048 40:2.34858 41:1.50415 42:0.833124 43:0.120633 44:0.290274 45:0.0791656 46:0.384519 47:0.429756 48:0.3619 49:0.576778 50:0.248806 51:0.0527771 52:0.395828 53:0.35436 54:0.848203 55:0.169641 56:0.128173 57:0.0867052 58:0.128173 59:1.89244 60:0.0867052 61:0.580548 62:0.591857 63:0.237497 64:0.222418 65:0.36944 66:0.738879 
1 1:0.514907 2:0.15815 3:23.7055 4:9.69611 5:19.2622 7:0.508475 9:0.338983 11:0.338983 12:0.169492 13:0.338983 15:0.169492 17:0.338983 18:0.508475 19:0.169492 20:0.169492 21:1.01695 23:1.52542 24:0.169492 25:0.677966 26:0.677966 27:0.169492 29:0.847458 30:0.508475 31:0.338983 32:0.169492 33:0.508475 34:0.338983 35:0.338983 36:0.169492 37:0.508475 38:0.169492 39:1.35593 40:1.86441 41:2.88136 42:0.847458 43:1.52542 44:1.35593 45:0.677966 46:0.508475 48:0.338983 49:0.508475 51:0.169492 52:0.677966 53:0.338983 54:0.847458 55:0.677966 59:1.86441 60:0.169492 61:0.338983 62:0.847458 63:0.169492 64:0.169492 65:0.847458 66:0.169492 
1 1:0.546848 2:0.31001 3:22.6605 4:12.6317 5:18.5314 7:0.0867052 8:0.433526 9:0.346821 10:0.953757 11:0.520231 12:0.520231 13:0.346821 14:0.0867052 15:0.346821 16:0.433526 17:0.17341 18:0.520231 19:0.780347 20:0.346821 21:1.47399 23:1.47399 24:0.346821 25:0.693642 26:0.433526 27:0.260116 28:0.0867052 29:0.433526 30:0.606936 31:0.520231 32:0.0867052 33:0.17341 34:0.0867052 35:0.17341 36:1.04046 37:1.12717 38:0.433526 39:1.99422 40:1.56069 41:0.780347 42:0.867052 43:0.0867052 44:0.260116 45:0.346821 46:0.520231 47:0.260116 49:0.0867052 50:0.17341 52:0.606936 53:1.12717 54:1.47399 55:0.606936 56:0.17341 58:0.17341 59:0.693642 61:0.433526 62:0.606936 63:0.260116 64:0.606936 65:0.953757 66:0.346821 
0.05838004694981723 1:0.247364 2:0.0862637 3:21.1887 4:21.7319 5:21.6143 6:1.54639 7:1.23711 9:0.309278 10:0.618557 11:2.16495 12:0.618557 13:0.309278 14:1.23711 15:0.309278 17:0.309278 18:0.309278 19:0.309278 21:0.309278 22:0.309278 23:0.309278 24:0.309278 26:0.309278 28:1.23711 29:1.23711 30:0.309278 31:0.618557 34:0.927835 35:0.309278 38:0.618557 39:0.309278 40:1.54639 41:0.618557 42:0.618557 43:0.618557 44:0.927835 46:0.309278 47:1.85567 49:0.309278 50:0.618557 51:0.927835 55:0.309278 56:0.927835 57:0.618557 58:0.618557 59:0.927835 60:0.309278 64:0.618557 65:0.927835 
1 1:0.301823 2:0.112323 3:22.1994 4:13.6994 5:19.2794 7:0.238095 9:0.714286 10:0.952381 11:0.714286 12:0.238095 13:0.47619 14:0.47619 15:0.47619 16:0.238095 17:0.47619 18:0.47619 19:0.714286 20:0.714286 21:0.47619 22:0.238095 23:0.238095 25:2.38095 26:1.66667 27:0.238095 28:0.238095 29:1.42857 30:0.47619 31:1.19048 33:0.714286 34:0.238095 35:0.238095 37:0.238095 38:1.42857 39:0.47619 40:0.714286 41:0.714286 42:0.714286 43:0.952381 44:1.19048 45:0.238095 46:0.47619 49:0.47619 50:0.47619 52:1.19048 53:0.714286 54:0.47619 55:0.238095 57:0.714286 59:0.952381 61:0.47619 63:0.238095 64:0.238095 65:0.47619 66:0.714286 
0.5388341444523921 1:0.816594 2:0.271371 3:23.5443 4:5.30606 5:17.9735 6:0.0993377 8:0.298013 9:0.496689 10:0.0993377 12:1.39073 13:0.496689 15:0.596026 16:0.397351 18:0.298013 19:0.596026 20:0.198675 21:0.397351 22:0.198675 23:1.78808 24:0.298013 25:1.19205 26:0.993377 27:0.198675 29:0.695364 30:0.993377 32:0.0993377 33:0.993377 34:0.0993377 35:0.496689 36:0.993377 37:0.596026 38:0.596026 39:1.39073 40:1.19205 41:1.19205 42:0.596026 44:0.198675 45:0.0993377 46:0.496689 47:0.397351 48:0.298013 49:0.198675 50:0.298013 51:0.198675 52:0.695364 53:0.993377 54:0.89404 55:0.198675 56:0.0993377 59:1.49007 61:0.496689 62:0.397351 63:0.496689 64:0.0993377 65:0.397351 66:2.18543 
1 1:0.638383 2:0.242617 3:23.4358 4:5.57375 5:18.7359 6:0.110701 8:0.110701 9:1.10701 10:0.221402 11:0.110701 13:0.553506 14:0.110701 15:0.442804 16:0.774908 17:0.221402 19:0.664207 22:0.221402 23:0.885609 24:1.99262 25:1.32841 26:1.43911 27:0.553506 28:0.332103 29:0.221402 30:1.21771 32:0.332103 33:0.553506 34:0.221402 35:0.442804 36:0.885609 37:1.43911 38:0.553506 39:1.10701 40:0.99631 41:1.21771 42:0.99631 43:0.110701 44:0.110701 45:0.553506 47:0.332103 48:0.774908 50:0.221402 52:0.774908 53:0.664207 54:0.664207 55:0.442804 57:0.110701 58:0.221402 59:0.442804 61:0.442804 62:0.332103 63:0.664207 64:0.553506 65:0.442804 66:1.43911 
1 1:0.632588 2:0.306416 3:22.7469 4:6.17098 5:18.0451 7:0.176471 8:0.441176 9:0.970588 10:0.176471 11:0.264706 13:0.441176 15:0.441176 16:0.352941 18:0.0882353 19:0.705882 20:0.0882353 21:0.441176 22:0.352941 23:0.794118 24:1.58824 25:1.23529 26:0.794118 27:1.85294 29:0.352941 30:0.441176 32:0.352941 33:0.705882 35:0.441176 36:1.32353 37:1.5 38:0.352941 39:0.617647 40:1.14706 41:0.970588 42:1.5 43:0.176471 44:0.264706 45:0.882353 46:0.0882353 47:0.264706 48:0.617647 50:0.0882353 52:0.617647 53:0.705882 54:0.0882353 55:0.176471 56:0.0882353 57:0.0882353 58:0.0882353 59:0.705882 60:0.176471 61:0.705882 62:0.705882 63:0.970588 64:0.352941 65:0.970588 66:0.882353 
1 1:0.625346 2:0.251602 3:23.163 4:4.61373 5:18.3791 7:0.214286 8:0.535714 9:0.428571 10:0.214286 11:0.321429 12:2.03571 13:0.535714 14:0.214286 15:0.75 16:0.428571 19:0.535714 20:0.107143 21:0.535714 22:0.107143 23:0.75 24:0.857143 25:1.07143 26:0.642857 27:0.107143 28:0.107143 29:0.214286 30:1.07143 31:0.214286 32:0.214286 33:0.535714 34:0.107143 35:0.214286 36:0.857143 37:1.82143 38:0.321429 39:1.07143 40:1.17857 41:1.5 42:0.642857 43:0.107143 44:0.428571 45:0.428571 46:0.535714 47:0.107143 48:0.75 49:0.214286 50:0.428571 52:0.214286 53:0.642857 54:0.428571 55:0.107143 59:1.71429 61:0.75 62:1.28571 63:0.75 64:0.214286 65:0.214286 66:0.75 
1 1:0.661793 2:0.172527 3:23.7516 4:4.58483 5:19.5285 7:0.15625 8:0.3125 9:0.15625 10:0.46875 11:0.15625 12:0.46875 13:0.46875 14:0.46875 15:0.3125 16:0.15625 18:0.15625 19:0.625 21:0.3125 23:0.9375 24:0.9375 25:0.9375 26:0.625 27:0.15625 28:0.15625 29:0.15625 30:0.9375 31:0.46875 33:1.5625 34:0.3125 35:1.5625 36:1.25 37:1.71875 38:0.46875 39:1.09375 40:0.9375 41:1.40625 43:0.3125 44:0.3125 45:0.15625 46:0.625 47:0.15625 48:0.3125 49:0.3125 50:0.3125 51:0.15625 52:0.625 53:0.9375 54:0.78125 55:0.3125 58:0.15625 59:2.1875 61:0.46875 62:0.3125 63:0.625 65:0.46875 66:1.09375 
1 1:0.554556 2:0.238124 3:22.7767 4:6.95503 5:19.5278 6:0.566038 7:0.90566 8:0.226415 9:0.339623 10:0.339623 11:1.13208 12:0.226415 13:0.339623 14:0.113208 15:0.679245 16:0.113208 17:0.226415 18:0.339623 19:0.113208 21:0.566038 23:0.792453 24:0.792453 25:1.13208 26:0.679245 28:0.339623 29:0.113208 30:0.566038 31:0.226415 32:0.339623 33:0.45283 34:0.339623 35:0.226415 36:1.58491 37:1.24528 38:0.226415 39:0.679245 40:0.90566 41:0.792453 42:0.679245 43:0.339623 44:0.566038 45:0.226415 46:0.339623 48:0.679245 49:0.45283 50:0.90566 51:0.226415 52:0.679245 53:0.566038 54:0.339623 55:0.339623 56:0.226415 57:0.226415 58:0.339623 59:1.24528 60:0.226415 61:1.01887 62:0.566038 63:0.566038 64:0.45283 65:0.566038 66:1.13208 
1 1:0.582216 2:0.14557 3:23.4362 4:3.61584 5:18.3162 8:0.37037 9:0.37037 10:0.37037 12:0.555556 13:0.37037 18:0.185185 21:0.925926 23:1.85185 24:0.37037 25:1.11111 26:1.2963 27:0.37037 28:0.185185 29:1.11111 30:0.925926 31:0.37037 32:0.740741 33:0.185185 34:0.185185 35:0.185185 36:0.555556 37:2.03704 38:0.555556 39:1.66667 40:1.2963 41:1.11111 42:1.2963 44:0.185185 45:0.37037 47:0.185185 48:0.185185 49:0.185185 50:0.185185 52:1.11111 53:0.740741 54:0.37037 55:0.185185 56:0.555556 58:0.185185 59:2.59259 60:0.185185 61:0.37037 62:1.11111 65:0.555556 66:0.740741 
1 1:0.556379 2:0.171629 3:23.5059 4:7.23367 5:18.7146 9:0.314136 10:0.314136 11:0.471204 12:0.78534 13:0.942408 14:0.157068 15:0.628272 18:0.314136 19:0.78534 20:0.157068 21:0.314136 23:1.41361 24:0.314136 25:1.88482 26:0.78534 27:0.157068 28:0.157068 29:0.157068 30:0.314136 31:0.628272 33:1.09948 34:0.314136 35:0.314136 36:1.09948 37:0.78534 38:0.471204 39:0.942408 40:1.72775 41:1.09948 42:0.471204 44:0.628272 45:0.157068 46:0.314136 47:0.314136 48:0.314136 49:0.157068 52:1.09948 53:0.471204 54:0.78534 59:2.19895 60:0.157068 61:0.314136 62:0.78534 63:1.72775 65:0.314136 66:1.88482 
1 1:0.470102 2:0.270473 3:22.0293 4:6.85294 5:17.8599 6:0.201342 7:0.302013 8:0.100671 9:0.302013 10:0.302013 11:0.402685 12:0.805369 13:0.704698 14:0.302013 15:0.805369 16:0.201342 18:0.100671 19:1.4094 20:0.402685 21:1.00671 23:0.805369 24:0.503356 25:0.604027 26:0.90604 27:0.302013 28:0.302013 29:0.402685 30:0.704698 31:0.302013 32:0.100671 33:0.805369 34:0.402685 35:1.00671 36:0.201342 37:0.805369 38:0.503356 39:0.704698 40:0.805369 41:1.4094 42:0.503356 43:0.100671 44:0.503356 45:0.302013 46:0.402685 47:0.704698 48:0.402685 49:0.604027 50:0.302013 52:1.00671 53:0.302013 54:0.805369 55:0.100671 56:0.100671 57:0.100671 59:0.704698 60:0.100671 61:0.302013 62:0.704698 63:1.00671 64:0.302013 65:0.503356 66:1.51007 
1 1:0.803173 2:0.34146 3:22.8089 4:6.40545 5:18.1414 7:0.396825 8:0.238095 9:1.03175 10:0.634921 11:0.0793651 12:0.15873 13:0.238095 14:0.15873 15:0.15873 16:0.555556 17:0.238095 18:0.238095 19:1.03175 20:0.238095 21:0.0793651 22:0.15873 23:0.634921 24:2.38095 25:1.42857 26:0.714286 27:0.793651 28:0.15873 29:0.238095 30:0.793651 31:0.31746 32:1.11111 33:0.714286 34:0.31746 35:0.238095 36:1.50794 37:1.03175 38:0.15873 39:0.47619 40:0.952381 41:0.873016 42:1.34921 43:0.238095 44:0.634921 45:0.15873 46:0.0793651 47:0.238095 48:0.873016 49:0.15873 50:0.0793651 51:0.238095 52:0.31746 53:0.555556 54:0.0793651 55:0.47619 56:0.396825 57:0.0793651 59:0.238095 60:0.238095 61:0.47619 62:0.31746 63:1.26984 64:0.0793651 65:0.31746 66:1.34921 
1 1:0.466049 2:0.144671 3:23.4915 4:8.38182 5:18.8557 8:1.85185 9:0.37037 10:0.185185 11:0.37037 12:1.66667 13:0.37037 14:0.185185 15:0.37037 18:0.185185 19:0.37037 20:0.185185 21:0.185185 23:2.03704 24:0.37037 25:2.59259 26:1.11111 27:0.37037 29:0.37037 30:0.740741 31:0.185185 33:0.555556 34:0.185185 35:0.925926 36:0.740741 37:1.11111 38:0.37037 39:1.85185 40:1.2963 41:1.11111 42:0.740741 43:0.37037 44:0.37037 45:0.185185 46:0.185185 48:0.555556 50:0.555556 52:0.37037 53:0.185185 54:0.555556 55:0.37037 56:0.185185 57:0.185185 58:0.185185 59:1.2963 61:0.37037 62:0.740741 63:0.185185 64:0.185185 65:0.37037 66:0.925926 
1 1:0.394795 2:0.135686 3:22.4797 4:7.70013 5:20.2169 6:0.986842 7:0.789474 9:0.197368 10:0.394737 11:0.394737 13:0.986842 14:1.18421 15:0.394737 18:0.394737 19:0.394737 20:0.197368 21:0.197368 22:0.197368 26:0.197368 28:0.197368 29:0.197368 30:0.789474 33:0.394737 34:0.986842 35:1.18421 36:0.197368 37:0.789474 38:0.592105 40:1.18421 41:1.18421 42:1.38158 43:0.394737 44:0.394737 45:0.592105 46:0.394737 47:0.394737 48:0.197368 49:0.986842 50:0.986842 52:0.592105 53:0.592105 54:0.394737 55:0.789474 56:0.592105 57:0.592105 58:0.394737 59:1.18421 60:0.197368 61:0.789474 62:0.789474 63:0.394737 65:1.38158 66:0.986842 
1 1:0.728137 2:0.235428 3:23.5148 4:4.71092 5:19.2556 6:0.229008 7:0.343511 8:0.114504 9:0.114504 10:0.572519 11:0.458015 12:0.229008 13:0.343511 15:0.801527 16:0.572519 17:0.229008 19:1.83206 20:0.114504 21:0.343511 23:1.83206 24:0.458015 25:0.916031 26:0.687023 27:0.343511 29:0.916031 30:1.25954 31:0.114504 32:0.114504 33:0.572519 34:0.229008 35:0.572519 36:0.916031 37:0.343511 38:0.229008 39:0.801527 40:1.14504 41:0.687023 42:1.37405 43:0.229008 44:0.229008 45:0.114504 46:0.572519 47:0.114504 48:0.343511 49:0.687023 50:0.458015 52:0.229008 53:0.572519 54:0.572519 55:0.572519 56:0.229008 57:0.114504 58:0.114504 59:0.801527 60:0.343511 61:0.687023 62:0.916031 63:0.687023 64:0.343511 65:0.687023 66:1.03053 
1 1:0.410103 2:0.127598 3:22.9943 4:8.06356 5:18.8319 7:0.20979 8:0.20979 9:0.41958 10:0.20979 11:0.20979 12:0.629371 13:0.629371 14:0.20979 15:0.20979 19:0.629371 20:0.629371 21:0.629371 23:1.46853 24:0.41958 26:0.629371 27:0.20979 28:0.20979 29:0.839161 30:1.88811 32:0.41958 33:0.41958 34:0.41958 35:0.839161 36:0.20979 37:1.25874 38:0.20979 39:0.839161 40:0.839161 41:0.629371 42:0.629371 43:0.20979 44:0.629371 45:0.41958 46:0.629371 47:0.41958 48:0.20979 49:0.629371 50:0.41958 52:0.839161 53:0.41958 54:0.41958 55:0.41958 56:0.41958 57:0.20979 58:0.20979 59:1.67832 60:0.20979 61:0.839161 62:0.41958 63:0.41958 64:0.41958 65:0.839161 66:1.46853 
0.5656494949656964 1:9.33577 2:1.80884 3:26.9839 4:8.27359 5:21.5961 6:0.0149031 7:0.0596125 8:0.0298063 9:0.104322 10:0.163934 11:0.0149031 12:0.0745156 13:0.0894188 14:0.0745156 15:0.0894188 16:0.134128 17:0.0447094 18:0.178838 19:0.461997 20:0.134128 21:0.52161 22:0.0596125 23:1.84799 24:0.223547 25:1.13264 26:0.938897 27:0.253353 28:0.0298063 29:0.536513 30:0.461997 31:0.193741 32:0.208644 33:0.968703 34:0.104322 35:1.14754 36:1.78838 37:0.417288 38:0.119225 39:0.819672 40:4.08346 41:2.95082 42:0.879285 43:0.23845 44:0.4769 45:0.23845 46:0.253353 47:0.283159 48:0.163934 49:0.134128 50:0.253353 51:0.0447094 52:0.432191 53:0.104322 54:1.07303 55:0.0894188 56:0.0894188 57:0.134128 58:0.0596125 59:3.42772 60:0.268256 61:0.566319 62:0.223547 63:0.104322 64:0.253353 65:0.134128 66:0.163934 
1 1:0.720136 2:0.72785 3:21.7924 4:17.139 5:18.2697 6:0.112219 7:0.261845 8:0.224439 9:1.00998 10:0.523691 11:0.149626 12:0.261845 13:0.561097 14:0.523691 15:0.486284 16:0.523691 17:0.074813 18:0.112219 19:1.04738 20:0.224439 21:0.224439 22:0.299252 23:0.411471 24:1.30923 25:0.149626 26:0.523691 27:0.448878 28:0.149626 29:0.074813 30:1.23441 31:0.187032 32:0.710723 33:0.187032 34:0.374065 35:0.448878 36:0.785536 37:1.34663 38:0.972569 39:0.374065 40:1.04738 41:0.523691 42:1.30923 43:0.261845 44:0.411471 45:0.187032 46:0.187032 47:0.448878 48:0.561097 49:0.411471 50:0.673317 52:1.08479 53:0.673317 54:0.112219 55:0.486284 56:0.074813 57:0.074813 58:0.074813 59:0.411471 60:0.187032 61:0.673317 62:0.74813 63:0.972569 64:0.673317 65:0.336658 66:1.1596 
1 1:0.349314 2:0.109627 3:22.0076 4:12.9771 5:20.51 6:0.743802 8:0.495868 9:0.495868 10:0.743802 11:0.991736 12:0.495868 13:0.247934 14:0.495868 15:0.495868 17:0.247934 18:0.495868 19:0.247934 23:1.73554 24:0.247934 26:0.743802 27:1.4876 28:1.23967 29:0.991736 30:0.247934 31:1.23967 32:0.247934 33:0.495868 34:0.247934 35:0.495868 36:1.23967 37:0.247934 38:0.495868 40:0.743802 41:0.991736 42:1.23967 43:0.247934 44:0.991736 45:0.247934 46:0.247934 47:0.247934 48:0.495868 50:0.495868 51:0.495868 52:0.495868 53:0.495868 55:0.743802 56:0.247934 57:0.495868 58:0.495868 59:0.743802 62:0.247934 63:0.743802 65:0.743802 66:0.495868 
1 1:0.349314 2:0.109627 3:22.0076 4:11.5425 5:20.51 6:0.743802 8:0.495868 9:0.495868 10:0.743802 11:0.991736 12:0.495868 13:0.247934 14:0.495868 15:0.495868 17:0.247934 18:0.495868 19:0.247934 23:1.73554 24:0.247934 26:0.743802 27:1.4876 28:1.23967 29:0.991736 30:0.247934 31:1.23967 32:0.247934 33:0.495868 34:0.247934 35:0.495868 36:1.23967 37:0.247934 38:0.495868 40:0.743802 41:0.991736 42:1.23967 43:0.247934 44:0.991736 45:0.247934 46:0.247934 47:0.247934 48:0.495868 50:0.495868 51:0.495868 52:0.495868 53:0.495868 55:0.743802 56:0.247934 57:0.495868 58:0.495868 59:0.743802 62:0.247934 63:0.743802 65:0.743802 66:0.495868 
1 1:0.349314 2:0.109627 3:22.0076 4:12.3267 5:20.51 6:0.743802 8:0.495868 9:0.495868 10:0.743802 11:0.991736 12:0.495868 13:0.247934 14:0.495868 15:0.495868 17:0.247934 18:0.495868 19:0.247934 23:1.73554 24:0.247934 26:0.743802 27:1.4876 28:1.23967 29:0.991736 30:0.247934 31:1.23967 32:0.247934 33:0.495868 34:0.247934 35:0.495868 36:1.23967 37:0.247934 38:0.495868 40:0.743802 41:0.991736 42:1.23967 43:0.247934 44:0.991736 45:0.247934 46:0.247934 47:0.247934 48:0.495868 50:0.495868 51:0.495868 52:0.495868 53:0.495868 55:0.743802 56:0.247934 57:0.495868 58:0.495868 59:0.743802 62:0.247934 63:0.743802 65:0.743802 66:0.495868 
1 1:0.349314 2:0.109627 3:22.0076 4:11.4505 5:20.51 6:0.743802 8:0.495868 9:0.495868 10:0.743802 11:0.991736 12:0.495868 13:0.247934 14:0.495868 15:0.495868 17:0.247934 18:0.495868 19:0.247934 23:1.73554 24:0.247934 26:0.743802 27:1.4876 28:1.23967 29:0.991736 30:0.247934 31:1.23967 32:0.247934 33:0.495868 34:0.247934 35:0.495868 36:1.23967 37:0.247934 38:0.495868 40:0.743802 41:0.991736 42:1.23967 43:0.247934 44:0.991736 45:0.247934 46:0.247934 47:0.247934 48:0.495868 50:0.495868 51:0.495868 52:0.495868 53:0.495868 55:0.743802 56:0.247934 57:0.495868 58:0.495868 59:0.743802 62:0.247934 63:0.743802 65:0.743802 66:0.495868 
1 1:0.349314 2:0.109627 3:22.0076 4:12.484 5:20.51 6:0.743802 8:0.495868 9:0.495868 10:0.743802 11:0.991736 12:0.495868 13:0.247934 14:0.495868 15:0.495868 17:0.247934 18:0.495868 19:0.247934 23:1.73554 24:0.247934 26:0.743802 27:1.4876 28:1.23967 29:0.991736 30:0.247934 31:1.23967 32:0.247934 33:0.495868 34:0.247934 35:0.495868 36:1.23967 37:0.247934 38:0.495868 40:0.743802 41:0.991736 42:1.23967 43:0.247934 44:0.991736 45:0.247934 46:0.247934 47:0.247934 48:0.495868 50:0.495868 51:0.495868 52:0.495868 53:0.495868 55:0.743802 56:0.247934 57:0.495868 58:0.495868 59:0.743802 62:0.247934 63:0.743802 65:0.743802 66:0.495868 
1 1:0.344166 2:0.236327 3:21.4658 4:11.4969 5:20.0585 6:0.454545 7:1.36364 8:0.340909 9:0.340909 10:0.795455 11:0.909091 12:0.568182 13:0.113636 14:0.795455 15:0.909091 16:0.454545 17:0.340909 18:0.454545 19:0.568182 20:0.795455 21:0.681818 23:0.340909 24:0.340909 25:0.227273 26:0.681818 27:0.227273 28:0.227273 29:0.454545 30:0.340909 31:0.568182 32:0.227273 33:0.113636 34:0.681818 35:1.13636 37:0.340909 38:0.795455 39:0.227273 40:0.113636 41:0.681818 42:0.454545 43:0.227273 44:0.227273 45:0.227273 46:0.795455 47:0.795455 48:0.113636 49:0.909091 50:1.25 53:1.13636 54:0.227273 55:0.681818 56:0.340909 57:0.795455 58:0.454545 59:0.568182 60:0.113636 61:0.113636 62:0.340909 63:0.454545 64:0.454545 65:1.25 66:0.568182 
1 1:0.326933 2:0.231834 3:21.3989 4:11.3466 5:20.3689 6:0.46332 7:1.62162 8:0.34749 9:0.34749 10:0.926641 11:1.1583 12:0.579151 14:0.694981 15:1.04247 16:0.46332 17:0.34749 18:0.34749 19:0.810811 20:1.04247 21:0.46332 22:0.11583 23:0.46332 24:0.34749 25:0.23166 26:0.46332 27:0.11583 28:0.23166 29:0.579151 30:0.34749 31:0.579151 32:0.23166 33:0.11583 34:0.579151 35:1.27413 37:0.34749 38:0.810811 39:0.23166 40:0.11583 41:0.694981 42:0.34749 43:0.34749 44:0.46332 45:0.23166 46:0.694981 47:0.34749 48:0.11583 49:0.926641 50:1.04247 53:1.38996 54:0.23166 55:0.46332 56:0.34749 57:0.810811 58:0.46332 59:0.34749 61:0.11583 62:0.11583 63:0.46332 64:0.579151 65:1.1583 66:0.579151 
1 1:0.326933 2:0.231834 3:21.3989 4:11.3466 5:20.3689 6:0.46332 7:1.62162 8:0.34749 9:0.34749 10:0.926641 11:1.1583 12:0.579151 14:0.694981 15:1.04247 16:0.46332 17:0.34749 18:0.34749 19:0.810811 20:1.04247 21:0.46332 22:0.11583 23:0.46332 24:0.34749 25:0.23166 26:0.46332 27:0.11583 28:0.23166 29:0.579151 30:0.34749 31:0.579151 32:0.23166 33:0.11583 34:0.579151 35:1.27413 37:0.34749 38:0.810811 39:0.23166 40:0.11583 41:0.694981 42:0.34749 43:0.34749 44:0.46332 45:0.23166 46:0.694981 47:0.34749 48:0.11583 49:0.926641 50:1.04247 53:1.38996 54:0.23166 55:0.46332 56:0.34749 57:0.810811 58:0.46332 59:0.34749 61:0.11583 62:0.11583 63:0.46332 64:0.579151 65:1.1583 66:0.579151 
1 1:0.326933 2:0.231834 3:21.3989 4:11.6976 5:20.3689 6:0.46332 7:1.62162 8:0.34749 9:0.34749 10:0.926641 11:1.1583 12:0.579151 14:0.694981 15:1.04247 16:0.46332 17:0.34749 18:0.34749 19:0.810811 20:1.04247 21:0.46332 22:0.11583 23:0.46332 24:0.34749 25:0.23166 26:0.46332 27:0.11583 28:0.23166 29:0.579151 30:0.34749 31:0.579151 32:0.23166 33:0.11583 34:0.579151 35:1.27413 37:0.34749 38:0.810811 39:0.23166 40:0.11583 41:0.694981 42:0.34749 43:0.34749 44:0.46332 45:0.23166 46:0.694981 47:0.34749 48:0.11583 49:0.926641 50:1.04247 53:1.38996 54:0.23166 55:0.46332 56:0.34749 57:0.810811 58:0.46332 59:0.34749 61:0.11583 62:0.11583 63:0.46332 64:0.579151 65:1.1583 66:0.579151 
1 1:0.466748 2:0.84197 3:21.3226 4:19.4352 5:18.5103 6:0.0320513 7:1.69872 8:0.0641026 9:0.192308 10:1.37821 11:0.192308 12:0.0320513 13:0.0961538 14:0.0961538 15:0.160256 16:0.25641 17:0.160256 18:0.0961538 19:1.25 20:1.15385 21:0.673077 22:0.25641 23:0.192308 24:0.320513 25:0.769231 26:0.384615 27:0.352564 28:0.192308 29:0.673077 30:0.288462 31:0.352564 32:0.737179 33:0.448718 34:0.512821 35:1.44231 36:0.865385 37:0.25641 38:0.352564 39:0.25641 40:0.576923 41:0.608974 42:0.25641 43:0.384615 44:1.1859 45:0.0320513 46:0.25641 47:0.352564 48:0.192308 49:0.160256 50:0.25641 51:0.224359 52:0.737179 53:1.79487 54:0.480769 55:1.66667 56:0.320513 57:0.25641 58:0.160256 59:0.384615 60:0.128205 61:0.0961538 62:0.25641 63:0.480769 64:0.448718 65:1.79487 66:0.705128 
1 1:0.629544 2:0.131193 3:24.8162 4:4.18026 5:20.1419 7:0.206897 9:0.206897 11:0.206897 12:0.206897 15:0.62069 16:0.206897 18:0.413793 22:0.206897 23:3.10345 24:0.206897 25:5.37931 29:1.24138 30:0.62069 31:0.413793 33:0.413793 35:0.206897 36:0.206897 37:0.413793 39:0.62069 40:2.27586 41:0.206897 42:2.48276 43:0.206897 44:1.03448 45:1.03448 46:1.03448 47:0.206897 48:0.206897 49:1.03448 50:0.206897 51:0.413793 52:0.62069 53:0.206897 55:0.413793 58:0.206897 59:3.10345 60:0.413793 61:1.24138 62:0.413793 64:0.206897 66:0.413793 
1 1:0.306679 2:0.234529 3:21.4178 4:24.1186 5:19.7922 6:0.229008 7:1.25954 8:0.343511 10:1.25954 11:0.572519 12:0.229008 13:0.572519 14:0.114504 15:0.458015 17:0.343511 18:0.687023 19:0.916031 20:0.458015 21:0.343511 23:0.572519 24:0.229008 25:0.229008 26:0.343511 27:0.114504 28:0.229008 29:0.687023 30:0.801527 31:0.687023 32:0.114504 34:1.03053 35:1.14504 36:0.114504 37:0.229008 38:0.458015 39:0.687023 40:0.572519 41:1.48855 42:1.14504 43:0.687023 44:1.48855 45:0.343511 46:0.343511 47:0.458015 49:0.343511 50:0.572519 51:0.114504 52:0.343511 53:0.687023 54:0.229008 55:0.687023 56:0.458015 57:0.687023 58:0.458015 59:0.114504 60:0.458015 61:0.458015 62:0.687023 64:0.916031 65:0.801527 66:0.114504 
1 1:0.611417 2:0.221949 3:23.1354 4:6.37308 5:18.7343 6:0.120968 7:0.120968 8:0.483871 9:0.120968 11:0.120968 12:0.967742 13:0.725806 14:0.120968 15:0.604839 18:0.241935 19:0.967742 21:0.483871 23:1.45161 24:0.483871 25:0.241935 26:0.846774 27:0.241935 28:0.120968 29:0.846774 30:0.967742 31:0.362903 32:0.120968 33:0.604839 35:0.725806 36:0.483871 37:0.483871 38:0.362903 39:0.604839 40:1.08871 41:1.69355 42:0.241935 43:0.725806 44:0.362903 45:0.483871 46:0.120968 47:0.241935 48:0.120968 49:0.120968 50:0.241935 51:0.120968 52:0.241935 53:0.241935 54:1.57258 55:0.483871 56:0.120968 58:0.483871 59:2.17742 60:0.362903 61:1.20968 62:0.604839 63:0.241935 64:0.362903 65:0.846774 66:1.57258 
1 1:0.490853 2:0.186905 3:23.1731 4:7.39296 5:18.7493 6:0.144231 7:0.288462 8:0.865385 9:0.432692 10:0.144231 11:0.576923 12:1.00962 13:0.432692 14:0.288462 15:0.288462 18:0.288462 19:0.576923 20:0.144231 21:0.144231 22:0.288462 23:1.29808 24:1.00962 25:1.15385 26:1.15385 29:1.00962 30:0.432692 31:0.144231 32:0.144231 33:1.00962 34:0.144231 35:0.576923 36:0.576923 37:0.576923 38:1.15385 39:0.721154 40:1.875 41:1.15385 42:0.432692 43:0.432692 44:0.288462 46:0.288462 47:0.432692 48:0.144231 49:0.576923 50:0.144231 52:0.144231 53:0.576923 54:0.865385 55:0.144231 57:0.288462 59:1.15385 60:0.288462 61:0.721154 62:1.15385 63:0.432692 65:0.865385 66:1.15385 
1 1:0.255295 2:0.0350446 3:21.4086 4:3.84589 5:21.4753 6:0.769231 7:0.769231 11:0.769231 14:0.769231 15:0.769231 19:0.769231 22:1.53846 24:0.769231 26:1.53846 34:0.769231 38:1.53846 42:2.30769 44:3.07692 45:1.53846 46:0.769231 47:1.53846 49:3.84615 50:0.769231 52:0.769231 55:0.769231 57:0.769231 58:0.769231 62:0.769231 64:0.769231 66:0.769231 
1 1:0.469031 2:0.176122 3:22.6582 4:9.63469 5:18.5844 6:0.459184 7:0.459184 8:0.306122 9:0.459184 10:0.306122 11:0.459184 12:0.306122 13:0.612245 15:0.153061 16:0.153061 17:0.306122 18:0.153061 19:0.612245 20:0.306122 21:0.459184 23:1.22449 25:2.14286 27:0.153061 28:0.459184 29:0.765306 30:0.459184 31:0.153061 32:0.153061 33:0.459184 34:0.306122 35:0.765306 36:0.612245 37:0.306122 38:0.459184 39:1.53061 40:1.07143 41:1.53061 42:0.459184 43:0.612245 44:0.765306 45:0.459184 46:0.459184 47:0.306122 48:0.306122 50:0.153061 51:0.459184 52:0.306122 53:0.459184 54:0.612245 55:0.153061 56:0.153061 57:0.153061 58:0.459184 59:0.918367 61:0.765306 62:0.153061 63:1.83673 64:0.612245 65:0.612245 66:1.83673 
1 1:0.741487 2:0.26598 3:23.6452 4:5.12851 5:19.319 7:0.505051 8:0.10101 9:0.30303 10:0.707071 11:0.30303 12:0.10101 13:0.20202 14:0.30303 15:0.606061 16:0.20202 18:0.505051 19:0.909091 21:0.40404 23:1.91919 24:0.808081 25:0.40404 26:0.505051 27:0.20202 28:0.10101 29:0.505051 30:0.505051 31:0.20202 32:0.606061 33:0.606061 34:0.505051 35:0.40404 36:0.606061 37:0.909091 38:0.30303 39:0.606061 40:1.31313 41:0.808081 42:0.606061 43:0.20202 44:0.20202 45:0.505051 46:0.606061 47:0.20202 48:0.20202 49:0.909091 50:0.30303 51:0.10101 52:0.909091 53:0.808081 54:1.71717 55:0.30303 56:0.20202 57:0.10101 58:0.20202 59:1.11111 60:0.10101 61:0.808081 62:0.40404 63:0.30303 64:0.20202 65:0.505051 66:1.71717 
0.8376223068048864 1:1.12905 2:0.181513 3:27.1294 4:6.45895 5:22.1207 11:0.295567 12:0.44335 13:0.295567 14:0.738916 15:1.7734 16:0.147783 19:0.44335 20:0.147783 21:0.295567 23:1.03448 24:0.147783 25:0.8867 26:0.591133 27:0.147783 28:0.147783 29:0.295567 30:0.8867 31:0.147783 32:0.147783 33:0.738916 34:0.147783 35:2.06897 36:0.8867 37:0.44335 38:0.147783 39:1.7734 40:2.21675 41:1.7734 42:2.06897 45:0.295567 46:1.18227 48:0.295567 49:1.47783 50:0.8867 53:0.147783 54:1.03448 56:0.147783 59:1.33005 61:0.591133 62:0.295567 63:0.295567 65:0.147783 66:1.03448 
1 1:0.70529 2:0.204876 3:24.0481 4:3.84822 5:18.18 6:0.263158 7:0.263158 8:0.263158 9:0.394737 12:0.921053 13:0.789474 14:0.657895 15:0.526316 16:0.789474 18:0.263158 19:0.789474 21:0.131579 23:1.57895 25:4.21053 26:0.657895 27:0.394737 29:0.526316 30:0.263158 31:0.131579 32:0.394737 33:1.05263 34:0.131579 35:0.394737 36:1.18421 37:0.921053 38:0.526316 39:1.84211 40:1.05263 41:0.526316 42:1.44737 44:0.657895 46:0.526316 48:0.263158 49:0.263158 50:0.394737 51:0.131579 52:0.263158 53:0.131579 54:0.789474 55:0.131579 58:0.131579 59:0.526316 61:0.789474 62:0.263158 63:1.57895 65:0.131579 66:1.84211 
1 1:0.218047 2:0.0494219 3:20.8335 4:27.6565 5:21.1173 7:2.67857 9:1.07143 11:1.07143 14:1.07143 15:0.535714 18:2.67857 19:0.535714 20:0.535714 22:0.535714 23:0.535714 29:0.535714 32:0.535714 35:1.07143 38:0.535714 39:0.535714 40:1.07143 41:0.535714 42:0.535714 43:1.07143 44:0.535714 45:1.60714 47:1.07143 49:0.535714 50:0.535714 56:0.535714 57:1.60714 58:2.14286 59:1.07143 60:0.535714 61:1.07143 64:0.535714 65:0.535714 
1 1:0.292719 2:0.12041 3:21.6908 4:24.7518 5:20.2458 6:0.676692 7:1.12782 8:0.451128 9:0.451128 10:0.676692 13:0.902256 15:0.902256 18:0.225564 20:0.902256 21:0.451128 22:0.225564 23:0.225564 25:1.80451 26:2.4812 28:0.225564 29:1.12782 30:0.451128 31:1.12782 34:0.451128 35:0.225564 36:0.676692 37:0.225564 38:1.12782 40:2.25564 41:1.12782 42:0.676692 43:0.451128 44:0.676692 45:0.451128 46:0.676692 47:0.451128 49:0.902256 50:0.451128 52:0.225564 54:0.902256 55:0.451128 57:0.225564 58:0.451128 59:1.12782 61:0.451128 62:0.225564 63:0.225564 65:0.902256 66:0.451128 
1 1:0.5521 2:0.254298 3:22.4593 4:8.79702 5:17.794 8:0.638298 9:0.957447 10:0.212766 11:0.212766 12:0.425532 13:0.106383 14:0.319149 15:0.531915 16:0.638298 17:0.212766 19:0.851064 20:0.531915 22:0.212766 23:0.319149 24:1.2766 25:0.425532 26:0.531915 27:1.2766 28:0.106383 30:0.851064 31:0.106383 32:0.744681 33:0.531915 34:0.106383 35:0.744681 36:0.744681 37:0.319149 38:1.70213 39:0.744681 40:1.38298 41:0.744681 42:1.2766 43:0.425532 44:0.744681 45:0.638298 47:0.851064 48:0.425532 50:0.425532 52:0.531915 53:1.06383 54:0.212766 55:0.425532 56:0.212766 59:0.531915 60:0.319149 61:0.957447 62:0.425532 63:1.38298 65:0.319149 66:0.531915 
1 1:0.67435 2:0.210268 3:23.4263 4:3.9126 5:18.821 6:0.12766 8:0.255319 9:0.510638 10:0.638298 12:0.893617 13:1.02128 14:0.382979 15:0.382979 16:0.255319 18:0.255319 19:0.765957 20:0.255319 21:0.510638 22:0.12766 23:2.55319 24:0.255319 25:0.510638 26:1.02128 27:0.12766 28:0.255319 29:0.893617 30:0.510638 33:0.382979 34:0.255319 35:0.510638 36:0.382979 37:0.638298 38:0.382979 39:1.53191 41:1.2766 42:0.765957 43:0.382979 44:0.12766 45:0.255319 46:0.765957 47:0.255319 48:0.12766 49:0.893617 50:0.255319 53:1.2766 54:1.14894 55:0.12766 56:0.255319 57:0.12766 58:0.255319 59:1.65957 61:1.91489 62:0.510638 63:0.12766 64:0.12766 65:0.510638 66:0.510638 
1 1:0.757241 2:0.2534 3:23.4336 4:2.09771 5:17.6011 10:0.320285 12:1.17438 13:0.640569 14:0.213523 15:0.427046 16:0.106762 18:0.106762 19:1.06762 20:0.106762 21:0.320285 23:1.3879 24:0.533808 25:2.34875 26:0.640569 27:0.106762 29:0.640569 30:0.533808 32:0.213523 33:1.81495 34:0.106762 35:0.213523 36:1.06762 37:1.06762 38:0.427046 39:1.81495 40:0.320285 41:0.960854 42:0.533808 44:0.427046 45:0.427046 46:0.213523 48:0.427046 50:0.213523 51:0.106762 52:0.213523 53:0.960854 54:1.06762 55:0.427046 57:0.106762 59:2.24199 60:0.106762 61:0.960854 62:0.427046 63:1.28114 64:0.213523 65:0.427046 66:1.70819 
1 1:0.76135 2:0.252501 3:23.4487 4:2.02628 5:17.5323 9:0.107143 10:0.321429 12:1.17857 13:0.642857 14:0.214286 15:0.428571 16:0.107143 18:0.107143 19:1.17857 20:0.107143 21:0.321429 23:1.39286 24:0.535714 25:2.57143 26:0.535714 27:0.107143 29:0.75 30:0.535714 32:0.214286 33:1.82143 34:0.107143 35:0.214286 36:1.07143 37:0.964286 38:0.428571 39:1.71429 40:0.321429 41:0.964286 42:0.535714 44:0.321429 45:0.535714 46:0.214286 48:0.428571 50:0.107143 51:0.107143 52:0.107143 53:0.964286 54:1.07143 55:0.428571 59:2.25 60:0.107143 61:0.964286 62:0.428571 63:1.28571 64:0.214286 65:0.535714 66:1.71429 
1 1:0.846199 2:0.434014 3:22.7121 4:6.15251 5:17.3739 9:0.25 10:0.5 11:0.0625 12:0.75 13:0.4375 14:0.25 15:0.375 16:0.25 18:0.0625 19:0.8125 20:0.125 21:0.375 22:0.0625 23:1.25 24:0.375 25:1.875 26:0.5625 27:0.125 28:0.0625 29:0.9375 30:0.375 31:0.0625 32:0.3125 33:1.25 34:0.3125 35:0.25 36:0.9375 37:1.25 38:0.6875 39:1.4375 40:0.5625 41:1 42:0.4375 43:0.0625 44:0.25 45:0.375 46:0.125 47:0.1875 48:0.375 49:0.1875 50:0.3125 51:0.0625 52:0.625 53:0.875 54:1.125 55:0.3125 56:0.0625 57:0.1875 58:0.0625 59:1.5625 60:0.125 61:1.125 62:0.5 63:1.0625 64:0.125 65:0.6875 66:2.1875 
1 1:0.239091 2:0.0332475 3:20.2982 4:6.05102 5:19.4693 6:1.57895 7:0.789474 9:2.36842 10:0.789474 15:3.15789 18:0.789474 19:0.789474 22:0.789474 26:0.789474 27:0.789474 28:0.789474 29:0.789474 30:1.57895 31:0.789474 34:1.57895 40:0.789474 45:0.789474 50:0.789474 51:0.789474 52:0.789474 53:1.57895 55:0.789474 58:0.789474 61:1.57895 62:1.57895 64:1.57895 
1 1:0.636621 2:0.432217 3:22.0706 4:6.32863 5:18.1546 7:0.628931 8:0.0628931 9:0.251572 10:0.188679 11:0.188679 12:0.314465 13:0.314465 14:0.125786 15:0.251572 16:0.125786 17:0.125786 18:0.566038 19:0.314465 20:0.188679 21:1.00629 22:0.188679 23:0.880503 24:0.251572 25:1.76101 26:0.566038 27:0.125786 28:0.440252 29:1.06918 30:0.314465 31:0.377358 32:0.377358 33:0.377358 34:0.81761 35:0.503145 36:1.06918 37:1.00629 38:0.81761 39:1.19497 40:1.13208 41:0.81761 42:0.628931 43:0.628931 44:0.566038 45:0.566038 46:0.188679 47:0.314465 48:0.251572 49:0.251572 50:0.566038 52:0.81761 53:0.81761 54:0.566038 55:0.377358 56:0.188679 57:0.566038 58:0.188679 59:1.19497 60:0.251572 61:0.503145 62:0.566038 63:0.628931 64:0.188679 65:0.251572 66:1.06918 
1 1:0.20805 2:0.0395375 3:20.9381 4:23.4986 5:21.5105 6:1.33333 7:2 9:0.666667 11:0.666667 13:0.666667 14:1.33333 15:1.33333 16:0.666667 17:2 20:1.33333 22:1.33333 24:2 27:0.666667 29:0.666667 31:1.33333 37:0.666667 42:0.666667 43:0.666667 44:1.33333 46:0.666667 47:0.666667 50:1.33333 52:0.666667 56:0.666667 57:0.666667 61:2.66667 63:0.666667 64:0.666667 
1 1:0.369541 2:0.14557 3:22.9449 4:12.0611 5:19.3921 7:0.368098 8:1.10429 10:0.368098 12:1.47239 13:0.184049 14:0.368098 15:0.552147 18:0.552147 19:0.368098 20:0.736196 21:0.368098 22:0.184049 23:1.65644 24:0.552147 25:0.368098 26:0.552147 27:0.184049 28:0.184049 29:0.552147 30:0.920245 31:0.920245 32:0.184049 33:0.368098 34:0.552147 35:0.184049 37:0.736196 38:0.920245 39:1.47239 40:0.736196 41:0.920245 42:1.10429 43:0.368098 44:0.920245 45:0.368098 46:0.184049 47:0.552147 49:0.368098 50:0.736196 51:0.184049 52:0.368098 53:0.184049 54:0.736196 56:0.184049 57:0.184049 58:0.368098 59:0.920245 61:1.28834 62:0.920245 63:0.184049 64:0.184049 65:0.736196 66:0.552147 
1 1:0.297854 2:0.0817708 3:22.1009 4:5.87898 5:18.1057 7:0.32967 8:0.32967 9:0.659341 10:0.32967 11:0.32967 12:0.32967 13:0.32967 14:0.659341 16:0.989011 18:1.31868 19:0.32967 21:0.659341 23:1.31868 24:0.32967 25:1.97802 26:0.659341 29:1.31868 30:1.64835 31:0.32967 35:0.989011 36:0.32967 37:1.64835 38:1.64835 40:0.659341 41:0.32967 42:0.32967 43:0.32967 44:0.659341 46:0.659341 47:0.989011 48:0.32967 50:0.659341 52:0.659341 53:0.659341 54:0.659341 55:0.32967 59:1.97802 61:0.659341 62:0.659341 63:0.989011 65:0.32967 66:0.32967 
1 1:0.34076 2:0.12041 3:22.1313 4:14.6303 5:18.8408 6:0.222222 7:0.666667 9:0.666667 10:0.666667 11:0.222222 13:0.666667 14:0.222222 15:1.11111 16:0.444444 17:0.222222 18:0.444444 19:1.11111 20:0.444444 23:1.55556 24:0.888889 25:0.444444 26:0.888889 28:0.666667 29:0.666667 30:0.222222 32:0.666667 34:0.666667 35:0.888889 36:0.222222 37:1.55556 38:1.11111 39:0.888889 40:0.444444 41:0.444444 42:0.222222 43:0.222222 44:0.222222 45:0.222222 46:0.666667 47:0.222222 48:0.444444 50:0.666667 53:0.666667 54:0.444444 55:0.444444 56:0.222222 57:0.444444 58:0.666667 59:0.666667 61:1.55556 62:0.444444 63:0.888889 64:0.222222 65:0.444444 66:0.888889 
1 1:0.218119 2:0.0548134 3:21.1592 4:21.8369 5:22.1085 6:0.483871 7:1.93548 9:0.483871 10:0.967742 11:2.41935 16:0.483871 17:0.967742 18:0.483871 20:0.483871 22:0.483871 23:0.483871 24:0.483871 29:0.483871 30:0.483871 31:1.45161 35:0.967742 38:0.483871 39:0.967742 40:0.483871 41:0.967742 42:1.45161 43:1.45161 44:0.483871 45:0.967742 46:0.483871 48:0.483871 50:0.483871 51:0.967742 55:0.483871 56:0.967742 57:0.967742 58:0.967742 59:0.483871 60:0.483871 61:0.967742 64:0.483871 65:0.967742 
1 1:0.201199 2:0.00718864 3:19.675 4:9.60862 5:17.9318 7:3.33333 9:3.33333 43:3.33333 44:6.66667 45:3.33333 49:3.33333 52:3.33333 55:3.33333 
1 1:0.230245 2:0.0368418 3:21.2557 4:21.7964 5:18.9456 6:0.731707 8:0.731707 9:0.731707 13:0.731707 14:0.731707 15:0.731707 18:0.731707 20:0.731707 26:0.731707 29:1.46341 31:0.731707 34:0.731707 35:2.19512 38:0.731707 39:1.46341 40:0.731707 42:1.46341 43:0.731707 46:0.731707 49:1.46341 50:0.731707 53:2.19512 55:1.46341 57:0.731707 58:0.731707 59:1.46341 61:1.46341 62:1.46341 63:0.731707 
1 1:0.200768 2:0.0089858 3:22.9994 4:20.2006 5:24.0273 7:2.72727 18:5.45455 21:2.72727 35:2.72727 40:2.72727 44:2.72727 46:2.72727 47:2.72727 49:2.72727 60:2.72727 
1 1:0.399895 2:0.217456 3:22.0143 4:9.05028 5:19.587 6:0.123967 7:0.123967 8:0.123967 9:1.1157 10:0.619835 11:0.247934 12:0.123967 13:0.123967 15:0.619835 16:0.123967 18:1.1157 19:0.247934 20:0.371901 21:1.23967 22:0.495868 23:0.371901 24:0.743802 26:0.495868 27:0.371901 28:0.743802 29:1.4876 30:0.371901 31:0.867769 33:0.247934 34:1.1157 35:0.619835 36:0.123967 37:0.371901 38:0.743802 39:1.36364 40:0.495868 41:1.1157 42:0.371901 44:0.371901 45:0.991736 46:0.371901 47:0.247934 49:0.371901 50:0.867769 51:0.123967 52:0.247934 53:1.23967 54:0.991736 55:0.247934 56:0.371901 57:0.371901 58:0.371901 59:0.991736 60:0.123967 61:0.371901 62:0.123967 63:0.991736 64:0.123967 65:0.743802 66:0.495868 
1 1:0.403714 2:0.216558 3:22.0585 4:9.05157 5:19.6358 6:0.124481 7:0.124481 8:0.124481 9:1.12033 10:0.622407 11:0.248963 12:0.124481 13:0.124481 15:0.622407 16:0.124481 18:1.12033 19:0.248963 20:0.373444 21:1.24481 22:0.497925 23:0.373444 24:0.746888 26:0.497925 27:0.373444 28:0.746888 29:1.49378 30:0.373444 31:0.871369 33:0.248963 34:1.12033 35:0.746888 36:0.124481 37:0.373444 38:0.746888 39:1.36929 40:0.497925 41:1.12033 42:0.373444 44:0.373444 45:0.995851 46:0.373444 47:0.248963 49:0.373444 50:0.746888 51:0.124481 52:0.124481 53:1.24481 54:0.995851 55:0.248963 56:0.373444 57:0.373444 58:0.373444 59:0.995851 60:0.124481 61:0.373444 62:0.124481 63:0.995851 64:0.124481 65:0.746888 66:0.497925 
1 1:0.257826 2:0.0637992 3:22.5939 4:17.0526 5:19.4327 7:1.25 9:0.833333 11:0.416667 13:0.416667 15:0.416667 16:0.416667 18:0.416667 19:0.416667 21:1.25 22:0.833333 23:0.416667 25:0.833333 26:0.416667 27:0.833333 28:0.416667 29:2.08333 30:1.25 31:0.416667 32:0.833333 33:1.25 36:1.25 37:1.25 38:0.416667 39:0.416667 40:0.416667 41:0.833333 42:0.833333 44:2.5 45:0.416667 46:0.833333 47:0.416667 51:0.833333 52:1.66667 53:0.416667 55:0.416667 59:0.416667 60:0.416667 61:0.416667 63:0.416667 65:0.416667 
1 1:0.257826 2:0.0637992 3:22.5939 4:20.5735 5:19.4327 7:1.25 9:0.833333 11:0.416667 13:0.416667 15:0.416667 16:0.416667 18:0.416667 19:0.416667 21:1.25 22:0.833333 23:0.416667 25:0.833333 26:0.416667 27:0.833333 28:0.416667 29:2.08333 30:1.25 31:0.416667 32:0.833333 33:1.25 36:1.25 37:1.25 38:0.416667 39:0.416667 40:0.416667 41:0.833333 42:0.833333 44:2.5 45:0.416667 46:0.833333 47:0.416667 51:0.833333 52:1.66667 53:0.416667 55:0.416667 59:0.416667 60:0.416667 61:0.416667 63:0.416667 65:0.416667 
1 1:0.257826 2:0.0637992 3:22.5939 4:21.4869 5:19.4327 7:1.25 9:0.833333 11:0.416667 13:0.416667 15:0.416667 16:0.416667 18:0.416667 19:0.416667 21:1.25 22:0.833333 23:0.416667 25:0.833333 26:0.416667 27:0.833333 28:0.416667 29:2.08333 30:1.25 31:0.416667 32:0.833333 33:1.25 36:1.25 37:1.25 38:0.416667 39:0.416667 40:0.416667 41:0.833333 42:0.833333 44:2.5 45:0.416667 46:0.833333 47:0.416667 51:0.833333 52:1.66667 53:0.416667 55:0.416667 59:0.416667 60:0.416667 61:0.416667 63:0.416667 65:0.416667 
1 1:0.284801 2:0.0862637 3:21.4352 4:8.25132 5:19.1254 9:1.875 10:0.3125 11:0.3125 12:0.3125 13:0.625 14:0.625 16:0.625 17:1.25 19:1.5625 20:0.9375 21:0.3125 24:1.5625 25:1.25 26:1.25 28:0.625 29:0.9375 31:0.3125 32:0.3125 33:0.625 34:0.625 35:0.625 36:0.3125 37:0.9375 38:0.625 39:0.3125 40:0.9375 42:0.9375 44:1.875 45:0.3125 47:0.3125 48:0.625 49:0.3125 50:0.625 51:0.3125 52:0.3125 53:1.25 54:0.625 58:0.625 59:0.3125 60:0.3125 61:0.3125 63:0.625 64:0.3125 66:0.625 
1 1:0.376557 2:0.276763 3:21.5578 4:12.9037 5:19.0375 6:0.487013 7:1.16883 8:0.584416 9:0.0974026 10:0.194805 11:0.584416 12:1.55844 13:0.292208 14:0.0974026 15:0.194805 16:0.487013 17:0.0974026 18:0.38961 19:1.16883 20:0.194805 21:0.779221 22:0.194805 23:0.876623 24:0.681818 25:0.38961 26:0.779221 27:0.194805 28:0.38961 29:0.292208 30:0.38961 31:0.487013 32:0.0974026 33:0.292208 34:0.38961 35:0.38961 36:0.487013 37:0.974026 38:0.487013 39:0.584416 40:0.974026 41:0.974026 42:0.876623 43:0.38961 44:0.584416 45:0.38961 46:0.487013 47:0.681818 49:0.194805 50:0.38961 51:0.194805 52:0.584416 53:0.292208 54:0.487013 55:0.876623 56:0.487013 57:0.681818 58:0.38961 59:0.584416 60:0.194805 61:0.876623 62:0.584416 63:0.194805 64:0.38961 65:0.487013 66:0.194805 
1 1:0.402721 2:0.11412 3:23.3591 4:2.45066 5:17.9974 6:0.234375 7:0.46875 10:0.234375 13:0.234375 15:0.9375 18:0.234375 19:0.46875 20:0.234375 21:0.703125 23:0.46875 24:1.64062 25:3.28125 26:0.234375 27:0.234375 29:0.46875 30:0.9375 31:0.234375 33:1.875 35:0.234375 36:0.9375 37:1.17188 38:0.46875 39:0.46875 40:0.9375 41:1.64062 42:0.234375 43:0.234375 44:0.234375 45:0.234375 48:0.9375 49:0.234375 50:0.234375 52:0.46875 53:0.46875 54:0.46875 55:0.46875 56:0.234375 58:0.234375 59:0.234375 60:0.46875 61:0.703125 62:0.234375 63:1.40625 64:0.46875 65:1.17188 66:3.28125 
1 1:0.403689 2:0.10783 3:23.1371 4:2.20079 5:17.662 7:0.495868 10:0.247934 13:0.247934 15:0.743802 18:0.247934 19:0.495868 20:0.247934 21:0.743802 23:0.247934 24:1.4876 25:3.47107 26:0.247934 27:0.247934 29:0.495868 30:0.991736 31:0.247934 33:1.98347 36:0.991736 37:0.991736 38:0.495868 39:0.495868 40:0.743802 41:1.73554 42:0.247934 43:0.247934 44:0.247934 45:0.247934 48:0.991736 49:0.247934 50:0.247934 52:0.495868 53:0.495868 54:0.495868 55:0.495868 56:0.247934 58:0.247934 59:0.247934 60:0.495868 61:0.743802 62:0.247934 63:1.4876 64:0.495868 65:1.23967 66:3.47107 
1 1:0.221271 2:0.0485233 3:20.9369 4:27.6123 5:21.5143 6:1.09091 7:1.09091 8:0.545455 9:1.09091 11:2.72727 13:0.545455 14:2.18182 18:1.09091 19:0.545455 20:1.09091 21:1.63636 22:0.545455 26:1.09091 27:0.545455 31:1.09091 38:1.09091 41:1.09091 42:1.09091 44:1.63636 47:0.545455 52:1.09091 55:0.545455 58:1.63636 59:1.09091 60:1.09091 61:0.545455 62:0.545455 64:0.545455 65:0.545455 
1 1:0.367941 2:0.13928 3:21.9127 4:3.24309 5:18.6471 7:0.38961 13:0.38961 14:0.194805 15:0.194805 18:0.194805 19:0.194805 23:0.38961 24:0.38961 26:0.584416 30:0.194805 31:0.194805 32:0.194805 34:0.584416 35:0.584416 36:0.38961 37:0.779221 39:0.974026 40:0.194805 41:2.92208 42:0.974026 43:0.779221 44:0.584416 45:0.974026 46:1.36364 47:0.38961 48:0.194805 49:1.55844 50:0.194805 51:0.38961 52:1.16883 54:0.974026 55:0.38961 56:0.584416 58:0.779221 59:2.14286 60:0.584416 61:2.72727 62:1.55844 64:0.194805 65:0.194805 66:1.36364 
1 1:0.260129 2:0.0251602 3:24.7496 4:6.7311 5:20.6094 19:2.06897 21:1.03448 25:4.13793 26:1.03448 28:1.03448 32:1.03448 33:2.06897 36:2.06897 37:1.03448 38:1.03448 40:1.03448 42:2.06897 44:1.03448 49:2.06897 52:2.06897 54:1.03448 59:2.06897 60:1.03448 62:1.03448 63:1.03448 66:1.03448 
1 1:0.260129 2:0.0251602 3:24.7496 4:7.34469 5:20.6094 19:2.06897 21:1.03448 25:4.13793 26:1.03448 28:1.03448 32:1.03448 33:2.06897 36:2.06897 37:1.03448 38:1.03448 40:1.03448 42:2.06897 44:1.03448 49:2.06897 52:2.06897 54:1.03448 59:2.06897 60:1.03448 62:1.03448 63:1.03448 66:1.03448 
1 1:0.364642 2:0.0790751 3:22.4336 4:3.14257 5:19.6926 7:0.674157 9:0.674157 10:0.674157 11:0.674157 12:0.337079 13:0.337079 14:0.674157 15:0.337079 18:0.337079 19:1.01124 20:0.674157 21:0.337079 22:0.337079 23:0.337079 24:0.337079 26:0.674157 27:0.674157 28:0.337079 32:0.674157 33:1.01124 34:0.674157 35:2.35955 36:0.337079 37:0.337079 38:0.337079 39:1.68539 40:1.01124 41:0.337079 42:1.34831 43:1.01124 44:0.337079 45:0.337079 48:0.337079 50:1.01124 52:0.674157 53:1.01124 54:0.337079 55:1.68539 57:0.337079 61:0.337079 62:0.337079 64:1.01124 65:0.337079 66:1.34831 
1 1:0.427679 2:0.132091 3:22.5353 4:3.14585 5:17.9559 7:0.204082 8:0.204082 9:0.204082 10:0.816327 11:0.204082 12:0.408163 13:0.204082 14:0.408163 15:0.408163 16:0.612245 19:0.612245 20:0.204082 21:0.204082 22:0.204082 23:2.04082 24:0.408163 25:3.26531 26:0.204082 27:0.612245 29:0.816327 30:0.204082 32:0.204082 33:0.816327 34:0.204082 35:1.42857 36:0.612245 37:0.816327 38:0.204082 39:0.408163 40:1.83673 41:1.02041 42:0.408163 44:1.02041 45:0.612245 46:0.204082 48:0.204082 49:0.204082 51:0.204082 53:0.816327 54:0.612245 55:0.816327 56:0.408163 58:0.408163 59:0.408163 60:0.204082 61:1.02041 63:1.63265 64:0.204082 65:0.816327 66:1.42857 
1 1:0.326523 2:0.0799736 3:21.9608 4:3.03657 5:17.3858 9:0.674157 10:0.337079 13:0.337079 16:1.01124 17:0.337079 19:1.68539 20:0.337079 21:1.34831 23:3.03371 24:0.337079 25:3.37079 27:1.34831 29:0.337079 32:0.674157 33:1.34831 34:1.34831 35:0.337079 36:1.01124 37:0.337079 39:0.674157 42:1.01124 45:0.337079 47:0.337079 48:0.337079 49:0.674157 51:0.337079 52:0.337079 53:1.68539 55:1.34831 56:0.337079 59:0.674157 61:0.337079 62:0.337079 63:0.674157 64:0.674157 65:0.674157 66:1.34831 
0.941607272253976 1:0.392028 2:0.194093 3:21.8244 4:9.43317 5:20.7097 6:0.139535 7:0.418605 8:0.139535 9:0.27907 10:0.139535 11:0.139535 13:0.139535 15:0.27907 17:0.139535 18:0.139535 19:0.139535 21:1.25581 22:0.418605 23:0.139535 24:0.837209 25:0.27907 26:2.23256 28:1.11628 29:0.55814 30:0.418605 31:0.418605 33:0.27907 34:0.697674 35:0.27907 37:0.55814 39:0.27907 40:2.37209 41:0.27907 42:0.418605 43:1.39535 44:1.11628 45:0.976744 46:2.37209 47:0.697674 49:0.697674 50:0.139535 51:0.697674 53:0.418605 55:0.27907 56:0.418605 58:1.67442 59:0.27907 60:0.418605 61:0.976744 62:2.09302 65:0.139535 66:0.418605 
1 1:0.392028 2:0.194093 3:21.8244 4:9.08787 5:20.7097 6:0.139535 7:0.418605 8:0.139535 9:0.27907 10:0.139535 11:0.139535 13:0.139535 15:0.27907 17:0.139535 18:0.139535 19:0.139535 21:1.25581 22:0.418605 23:0.139535 24:0.837209 25:0.27907 26:2.23256 28:1.11628 29:0.55814 30:0.418605 31:0.418605 33:0.27907 34:0.697674 35:0.27907 37:0.55814 39:0.27907 40:2.37209 41:0.27907 42:0.418605 43:1.39535 44:1.11628 45:0.976744 46:2.37209 47:0.697674 49:0.697674 50:0.139535 51:0.697674 53:0.418605 55:0.27907 56:0.418605 58:1.67442 59:0.27907 60:0.418605 61:0.976744 62:2.09302 65:0.139535 66:0.418605 
1 1:0.2989 2:0.038639 3:20.8866 4:2.11436 5:17.8158 7:1.39535 11:1.39535 12:1.39535 16:0.697674 17:0.697674 21:1.39535 24:0.697674 26:1.39535 28:0.697674 29:0.697674 30:0.697674 31:0.697674 32:0.697674 33:1.39535 36:0.697674 37:1.39535 38:0.697674 39:2.7907 40:2.09302 41:0.697674 47:0.697674 48:0.697674 52:1.39535 58:0.697674 61:0.697674 62:0.697674 63:1.39535 65:0.697674 66:0.697674 
1 1:0.385512 2:0.132091 3:22.7711 4:12.0438 5:18.4701 6:0.405405 7:0.405405 10:0.202703 11:0.405405 12:1.21622 13:1.01351 14:0.810811 15:0.608108 16:0.202703 17:0.202703 18:0.405405 19:0.810811 20:0.202703 23:0.608108 24:0.202703 25:2.43243 26:0.202703 27:0.202703 28:0.202703 29:0.810811 30:0.405405 31:0.405405 33:1.21622 35:0.608108 36:1.21622 37:1.21622 38:0.405405 39:1.21622 40:0.202703 41:0.202703 42:0.405405 43:0.202703 44:0.405405 45:0.608108 46:0.608108 48:0.202703 49:0.405405 52:0.608108 53:0.202703 54:0.405405 55:0.810811 56:0.202703 59:2.22973 61:1.82432 62:1.01351 63:0.608108 64:0.202703 65:0.608108 66:1.01351 
1 1:0.253083 2:0.044929 3:21.2481 4:7.33734 5:17.8143 10:1.2 11:0.6 13:0.6 14:0.6 15:1.8 16:0.6 19:1.2 20:0.6 21:0.6 22:0.6 23:1.8 24:0.6 25:1.2 27:0.6 30:0.6 32:1.2 36:1.2 37:1.8 38:1.2 39:1.8 40:1.8 47:0.6 50:1.2 52:0.6 53:0.6 55:0.6 58:0.6 59:1.2 61:0.6 63:0.6 64:0.6 65:0.6 66:0.6 
1 1:0.224367 2:0.0395375 3:20.6104 4:21.8243 5:20.4943 6:0.666667 7:0.666667 8:1.33333 10:1.33333 11:0.666667 12:0.666667 13:0.666667 14:0.666667 15:0.666667 17:0.666667 18:0.666667 20:0.666667 23:0.666667 24:0.666667 26:0.666667 28:0.666667 30:0.666667 31:0.666667 34:0.666667 35:1.33333 39:0.666667 40:0.666667 41:1.33333 42:0.666667 43:1.33333 44:2 45:2.66667 46:0.666667 51:1.33333 53:1.33333 57:0.666667 60:0.666667 65:0.666667 
1 1:0.201905 2:0.010783 3:18.2859 4:13.5376 5:18.5125 7:4.61538 11:2.30769 24:2.30769 43:2.30769 45:2.30769 52:2.30769 55:4.61538 57:2.30769 59:2.30769 62:2.30769 64:2.30769 
1 1:0.422773 2:0.337866 3:21.8083 4:10.7063 5:18.7214 6:0.08 7:0.96 8:0.4 9:0.32 10:1.04 11:0.56 12:0.56 13:0.24 14:0.16 15:0.16 16:0.32 17:0.32 18:0.48 19:0.8 20:0.08 21:0.48 22:0.16 23:0.72 24:0.24 25:1.6 26:0.4 27:0.08 28:0.4 29:1.04 30:0.4 31:0.4 32:0.4 33:0.24 34:0.48 35:0.32 36:1.44 37:0.72 38:0.4 39:0.8 40:0.88 41:0.88 43:0.72 44:1.12 45:0.56 46:0.16 47:0.32 48:0.24 49:0.64 50:0.48 51:0.24 52:0.24 53:0.56 54:0.24 55:0.64 56:0.24 57:0.24 58:0.32 59:0.88 60:0.08 61:0.8 62:0.32 63:0.56 64:0.64 65:0.72 66:0.88 
1 1:0.398874 2:0.0754807 3:23.3994 4:1.20354 5:19.818 7:1.41176 9:1.76471 10:0.352941 11:0.705882 12:1.41176 13:0.352941 14:0.352941 16:2.47059 17:0.705882 19:0.705882 20:0.352941 22:1.05882 23:1.76471 24:0.352941 25:2.82353 26:1.05882 31:0.352941 32:0.705882 33:1.05882 34:0.352941 35:0.352941 36:0.705882 37:1.05882 38:0.705882 39:1.41176 40:1.05882 42:0.705882 44:0.705882 45:0.352941 47:0.352941 48:1.05882 50:0.352941 52:0.352941 53:0.352941 58:0.352941 59:0.352941 61:0.352941 62:0.352941 64:0.352941 
1 1:0.510031 2:0.199485 3:22.8431 4:12.7145 5:19.5982 6:0.27027 7:0.540541 8:0.135135 9:0.135135 10:0.27027 11:0.27027 12:0.135135 13:0.675676 14:0.675676 15:0.540541 17:0.27027 18:0.27027 19:0.405405 20:0.405405 21:0.675676 22:0.135135 23:1.08108 24:0.810811 25:1.35135 26:0.675676 28:0.135135 29:0.540541 30:0.540541 31:0.27027 32:0.135135 33:0.810811 34:0.945946 35:0.675676 36:1.08108 37:0.810811 38:0.405405 39:1.08108 40:1.75676 41:0.810811 42:0.540541 43:0.405405 44:0.405405 45:0.135135 46:0.135135 47:1.08108 48:0.540541 50:0.405405 51:0.135135 53:0.810811 54:0.675676 55:0.135135 57:0.675676 58:0.405405 59:0.675676 61:1.08108 62:0.27027 63:0.405405 64:0.27027 65:0.405405 66:1.35135 
1 1:0.289274 2:0.102438 3:21.9726 4:20.9243 5:21.3575 6:0.521739 7:0.521739 9:0.26087 10:0.521739 11:0.521739 12:0.521739 13:0.521739 14:0.521739 15:0.26087 18:0.521739 19:0.782609 20:0.26087 21:0.26087 22:0.521739 23:0.782609 24:0.521739 25:1.56522 26:1.04348 27:0.26087 28:1.04348 29:1.30435 30:0.521739 31:0.782609 32:0.521739 34:0.521739 36:0.521739 37:0.782609 38:0.521739 40:0.521739 41:0.26087 42:0.782609 44:0.521739 45:0.521739 46:1.04348 48:0.521739 49:0.782609 50:0.26087 51:0.521739 52:0.26087 53:0.521739 54:0.26087 55:0.521739 56:0.782609 57:0.782609 58:0.26087 59:1.04348 60:0.782609 61:0.782609 63:0.26087 64:1.04348 66:0.521739 
1 1:0.357789 2:0.0754807 3:22.4694 4:5.66599 5:18.8025 8:0.352941 9:0.352941 10:0.705882 11:1.41176 13:0.352941 16:0.352941 18:1.05882 19:0.705882 20:1.05882 23:2.11765 25:1.41176 26:0.352941 27:0.352941 28:0.352941 29:1.05882 32:0.352941 33:0.705882 34:2.11765 35:0.705882 36:1.76471 39:0.705882 41:1.05882 42:2.11765 43:0.352941 44:0.352941 45:0.705882 46:0.352941 47:0.352941 48:0.705882 50:0.705882 51:0.352941 52:0.352941 53:0.352941 55:0.705882 57:0.352941 58:0.352941 61:0.352941 62:0.352941 64:0.352941 66:2.11765 
1 1:0.269321 2:0.0700893 3:21.8038 4:9.32114 5:21.7634 6:1.13924 7:1.51899 8:0.379747 9:0.379747 10:0.379747 11:2.27848 13:0.759494 14:1.13924 15:1.13924 19:0.759494 21:1.13924 22:1.13924 25:0.759494 26:1.51899 28:0.379747 29:0.759494 33:0.379747 35:0.759494 36:0.379747 37:0.379747 38:0.759494 40:0.379747 41:0.379747 42:0.379747 44:0.379747 45:1.13924 46:0.759494 47:0.379747 49:1.13924 51:0.759494 54:0.379747 56:0.759494 57:1.51899 58:0.759494 59:1.89873 61:0.379747 63:0.379747 66:0.379747 
1 1:0.259991 2:0.152759 3:21.3487 4:16.9706 5:21.3941 6:0.701754 7:0.350877 8:1.05263 9:0.701754 10:0.526316 11:0.526316 13:0.350877 14:0.526316 15:0.877193 16:0.175439 17:0.701754 18:1.05263 19:1.05263 20:0.175439 21:0.526316 22:0.175439 23:0.175439 24:0.175439 25:0.350877 26:0.350877 28:0.701754 29:0.701754 30:0.701754 31:2.10526 32:0.350877 34:0.175439 35:0.877193 37:0.350877 38:0.175439 39:0.350877 40:0.526316 41:0.877193 42:0.701754 43:0.350877 44:0.526316 45:0.350877 46:1.05263 47:0.350877 48:0.350877 49:0.175439 50:0.701754 51:0.175439 52:0.526316 53:1.05263 54:0.350877 55:0.701754 56:0.526316 57:0.350877 58:0.877193 59:0.175439 60:0.350877 62:0.526316 64:0.701754 65:0.526316 66:0.350877 
1 1:0.272343 2:0.0512191 3:22.6546 4:3.80925 5:17.4794 9:1.03448 10:0.517241 11:0.517241 12:0.517241 14:0.517241 16:1.03448 18:0.517241 23:3.10345 24:0.517241 25:4.13793 26:0.517241 29:1.55172 30:0.517241 32:0.517241 33:0.517241 34:0.517241 36:0.517241 37:1.03448 39:1.03448 40:0.517241 41:1.03448 44:1.55172 48:0.517241 52:1.03448 53:1.55172 59:1.03448 61:1.03448 62:0.517241 63:1.03448 64:0.517241 65:1.03448 66:1.55172 
1 1:0.293694 2:0.0494219 3:24.4886 4:9.95989 5:17.6621 7:0.535714 9:1.07143 12:0.535714 16:0.535714 20:0.535714 23:1.07143 25:5.35714 26:1.60714 27:0.535714 29:2.14286 30:1.60714 32:0.535714 33:0.535714 34:0.535714 36:2.67857 37:0.535714 38:1.60714 39:2.67857 40:0.535714 41:1.60714 44:0.535714 48:1.07143 52:0.535714 53:0.535714 59:1.07143 63:1.07143 66:1.07143 
0.2858693096868435 1:0.359357 2:0.239921 3:21.7364 4:24.1517 5:21.8115 6:0.223881 7:2.35075 8:0.11194 9:0.335821 10:0.671642 11:0.223881 12:0.11194 13:0.11194 17:1.56716 18:0.895522 19:0.11194 20:0.447761 21:0.895522 22:0.11194 23:0.223881 24:0.11194 25:0.447761 26:0.223881 28:0.895522 29:0.447761 30:0.11194 31:0.895522 32:0.223881 34:0.559701 35:2.12687 36:0.223881 37:0.11194 38:0.223881 40:1.00746 41:1.45522 42:0.447761 43:1.90299 44:3.02239 45:0.559701 46:0.223881 47:1.23134 49:0.559701 50:0.335821 51:0.11194 54:0.11194 55:0.559701 56:0.447761 57:1.00746 58:0.335821 59:0.559701 60:0.671642 61:0.335821 62:0.335821 
1 1:0.286571 2:0.0889594 3:21.5557 4:11.0594 5:19.3146 7:0.612245 10:0.918367 11:1.22449 12:0.612245 13:0.612245 14:0.612245 15:1.83673 16:0.306122 17:0.306122 18:0.918367 19:1.22449 21:0.306122 22:0.306122 23:0.612245 24:0.612245 26:0.306122 28:0.306122 29:0.306122 30:0.306122 31:0.306122 33:0.306122 34:1.22449 35:1.22449 36:0.918367 38:0.306122 39:1.53061 40:0.306122 42:1.22449 44:0.612245 45:0.306122 46:0.612245 49:1.22449 50:0.918367 51:0.306122 52:0.612245 54:0.612245 57:0.306122 58:0.306122 59:1.53061 60:0.306122 61:0.612245 62:0.612245 63:0.306122 65:0.612245 66:0.612245 
1 1:0.286571 2:0.0889594 3:21.5557 4:11.728 5:19.3146 7:0.612245 10:0.918367 11:1.22449 12:0.612245 13:0.612245 14:0.612245 15:1.83673 16:0.306122 17:0.306122 18:0.918367 19:1.22449 21:0.306122 22:0.306122 23:0.612245 24:0.612245 26:0.306122 28:0.306122 29:0.306122 30:0.306122 31:0.306122 33:0.306122 34:1.22449 35:1.22449 36:0.918367 38:0.306122 39:1.53061 40:0.306122 42:1.22449 44:0.612245 45:0.306122 46:0.612245 49:1.22449 50:0.918367 51:0.306122 52:0.612245 54:0.612245 57:0.306122 58:0.306122 59:1.53061 60:0.306122 61:0.612245 62:0.612245 63:0.306122 65:0.612245 66:0.612245 
1 1:0.677247 2:0.227341 3:23.2723 4:8.22127 5:20.2803 7:0.237154 8:0.118577 9:0.237154 10:0.711462 11:0.355731 12:0.355731 13:0.355731 15:0.118577 16:0.118577 18:0.592885 19:0.592885 20:0.355731 21:0.948617 22:0.118577 23:0.83004 24:0.355731 25:0.237154 26:0.948617 27:0.118577 28:0.118577 29:0.355731 30:0.592885 31:0.83004 32:0.711462 33:0.355731 34:0.474308 35:1.18577 36:1.30435 37:1.18577 38:0.118577 39:0.474308 40:2.13439 41:0.592885 42:0.83004 44:0.237154 45:0.237154 46:0.237154 47:0.355731 48:0.237154 49:0.237154 50:0.355731 51:0.237154 52:0.83004 53:0.948617 54:0.83004 55:0.474308 57:0.355731 58:0.118577 59:1.66008 60:0.118577 61:0.711462 62:0.118577 64:0.83004 65:0.948617 66:1.06719 
1 1:0.483631 2:0.150961 3:23.4798 4:5.47348 5:19.1229 7:0.177515 8:0.887574 10:0.177515 12:0.710059 13:0.710059 14:0.532544 15:1.42012 19:0.887574 20:0.532544 21:1.2426 22:0.35503 23:2.13018 24:0.532544 25:0.35503 26:1.06509 29:0.887574 30:0.532544 32:0.177515 33:0.35503 34:0.177515 35:0.177515 36:0.887574 37:0.532544 38:0.710059 39:0.710059 40:0.532544 41:0.887574 42:0.177515 44:0.532544 45:0.35503 46:0.710059 47:0.532544 48:0.532544 49:1.06509 50:0.177515 52:0.532544 53:0.532544 54:0.35503 56:0.35503 59:2.66272 60:0.35503 61:1.42012 62:0.532544 63:0.35503 64:0.177515 66:0.532544 
0.6286276462022163 1:0.536599 2:0.209369 3:23.1584 4:8.76155 5:19.5141 7:0.25641 8:0.641026 9:0.384615 11:0.128205 12:0.512821 13:0.897436 14:0.384615 15:1.15385 18:0.25641 19:0.641026 20:0.512821 21:0.897436 22:0.512821 23:1.15385 24:0.512821 25:1.02564 26:0.769231 28:0.128205 29:1.02564 30:0.641026 31:0.128205 32:0.128205 33:0.384615 34:0.128205 35:0.128205 36:1.02564 37:0.641026 38:0.641026 39:0.897436 40:0.897436 41:0.641026 42:0.25641 44:0.641026 45:0.512821 46:0.769231 47:0.641026 48:0.384615 49:1.15385 50:0.128205 52:0.384615 53:0.384615 54:0.25641 55:0.384615 56:0.25641 59:2.82051 60:0.25641 61:1.02564 62:0.512821 63:0.384615 64:0.384615 65:0.384615 66:0.512821 
1 1:0.503056 2:0.1896 3:23.1722 4:7.51496 5:19.1132 7:0.141509 8:0.707547 9:0.141509 11:0.141509 12:0.566038 13:0.849057 14:0.424528 15:1.5566 18:0.424528 19:0.849057 20:0.424528 21:0.849057 22:0.707547 23:1.27358 24:0.424528 25:0.849057 26:0.849057 28:0.141509 29:1.13208 30:0.707547 32:0.141509 33:0.424528 34:0.141509 35:0.141509 36:0.849057 37:0.707547 38:0.424528 39:0.849057 40:0.566038 41:0.707547 42:0.141509 44:0.424528 45:0.424528 46:0.707547 47:0.566038 48:0.424528 49:1.13208 50:0.141509 52:0.424528 53:0.424528 54:0.283019 55:0.283019 56:0.283019 59:2.9717 60:0.283019 61:1.13208 62:0.707547 63:0.424528 64:0.424528 65:0.283019 66:0.424528 
1 1:0.681033 2:0.148266 3:24.3493 4:7.35148 5:20.8797 7:0.181818 10:0.545455 11:0.181818 12:0.363636 13:0.181818 14:0.363636 15:0.363636 18:0.181818 19:0.363636 20:0.363636 21:0.181818 22:0.181818 23:1.09091 24:0.545455 25:0.363636 26:0.909091 27:0.181818 29:0.363636 30:0.181818 31:0.363636 33:0.181818 35:1.63636 36:0.181818 37:0.545455 38:0.363636 39:0.363636 40:2.72727 41:2.90909 42:0.363636 43:0.181818 44:0.181818 45:0.181818 46:0.545455 47:0.181818 48:0.181818 49:0.363636 51:0.181818 52:0.363636 53:0.363636 54:0.363636 55:0.363636 56:0.181818 57:0.363636 58:0.363636 59:3.45455 60:0.545455 61:1.45455 62:1.45455 63:0.363636 64:0.363636 65:0.727273 66:0.727273 
0.4837462023016609 1:0.273214 2:0.17073 3:21.4129 4:22.9749 5:20.9232 6:0.157068 7:0.942408 9:0.471204 10:1.57068 11:0.78534 12:0.471204 13:0.628272 14:0.942408 15:0.628272 16:0.157068 17:0.78534 18:0.314136 20:0.157068 21:0.78534 22:0.314136 23:0.471204 24:0.314136 26:0.157068 28:0.471204 29:0.314136 30:0.314136 31:0.78534 34:0.314136 35:1.09948 37:0.314136 38:0.314136 39:0.314136 40:0.942408 41:0.471204 42:0.471204 43:0.628272 44:0.78534 45:0.314136 46:0.314136 47:0.78534 48:0.314136 49:1.25654 50:0.628272 51:0.157068 52:0.157068 53:0.78534 54:0.471204 55:0.628272 56:0.78534 57:0.78534 58:1.09948 59:0.628272 60:0.157068 61:0.942408 62:0.471204 64:1.41361 65:0.157068 66:0.157068 
0.3440482351110423 1:0.256321 2:0.0772779 3:21.7062 4:26.3872 5:21.4258 6:0.689655 7:1.37931 9:0.689655 10:1.72414 11:0.689655 12:0.344828 13:1.03448 14:1.37931 15:1.03448 17:0.344828 18:0.689655 21:0.344828 22:0.344828 23:0.344828 24:0.344828 26:0.689655 27:0.344828 28:0.344828 29:2.06897 30:0.344828 31:0.689655 32:0.344828 34:0.689655 35:1.03448 37:0.344828 38:0.689655 39:0.344828 40:0.344828 41:0.344828 42:0.344828 43:0.689655 45:1.03448 46:0.344828 47:1.03448 48:0.344828 49:1.03448 50:0.344828 51:0.344828 56:0.344828 58:1.37931 59:1.03448 61:0.689655 62:0.344828 64:0.344828 66:0.344828 
1 1:0.363726 2:0.127598 3:22.1849 4:17.5625 5:19.4625 7:0.211268 8:0.211268 9:1.69014 10:0.422535 11:0.422535 12:0.84507 13:0.211268 16:0.422535 17:0.211268 18:0.633803 19:1.05634 20:0.422535 21:0.633803 23:1.05634 24:0.422535 25:1.26761 26:1.47887 27:0.84507 28:0.422535 29:0.633803 30:0.633803 31:0.422535 33:0.84507 34:0.211268 35:0.211268 36:0.211268 37:0.633803 38:1.47887 40:1.69014 41:0.633803 42:0.633803 43:0.633803 44:0.633803 45:0.422535 46:0.84507 47:0.422535 48:0.211268 49:0.211268 51:0.211268 53:0.211268 54:0.633803 56:0.211268 57:0.633803 58:0.211268 59:1.05634 60:0.211268 61:0.211268 62:0.633803 63:0.84507 64:0.211268 65:0.422535 66:0.422535 
1 1:0.20399 2:0.0260588 3:20.1896 4:18.6093 5:19.8398 6:1 7:1 9:1 11:3 15:1 18:2 21:2 41:1 42:2 44:1 45:1 46:2 47:1 48:1 50:1 51:1 54:1 56:2 58:1 59:1 62:1 63:1 64:1 
1 1:0.20399 2:0.0260588 3:20.1896 4:11.0771 5:19.8398 6:1 7:1 9:1 11:3 15:1 18:2 21:2 41:1 42:2 44:1 45:1 46:2 47:1 48:1 50:1 51:1 54:1 56:2 58:1 59:1 62:1 63:1 64:1 
1 1:0.250987 2:0.0629006 3:21.8968 4:9.68123 5:20.0011 6:0.422535 7:1.69014 9:0.422535 11:1.69014 14:1.69014 18:0.84507 21:0.84507 22:0.422535 23:0.422535 24:0.422535 26:0.84507 29:0.84507 32:0.422535 34:0.422535 35:2.53521 38:0.422535 39:0.422535 40:0.422535 41:1.69014 42:0.422535 43:0.422535 44:0.84507 46:0.422535 47:0.84507 50:0.84507 51:0.422535 52:0.84507 53:1.69014 54:0.422535 55:0.422535 56:0.422535 57:0.84507 62:0.422535 63:0.422535 64:0.422535 65:2.53521 66:0.422535 
1 1:0.434298 2:0.0979452 3:23.5627 4:7.82041 5:19.8529 7:0.545455 8:0.545455 9:0.272727 10:0.272727 11:0.272727 12:1.63636 13:1.09091 18:0.545455 19:1.09091 21:0.818182 23:1.09091 24:0.272727 25:0.545455 26:1.90909 29:0.545455 30:1.09091 31:0.272727 33:0.818182 34:0.818182 35:0.272727 36:0.818182 38:0.272727 39:1.36364 40:1.36364 41:1.63636 44:0.818182 45:0.272727 46:0.272727 47:0.818182 48:0.818182 49:0.272727 50:0.818182 52:0.818182 53:0.272727 54:0.272727 55:0.272727 58:0.272727 59:1.90909 62:0.545455 64:0.545455 65:0.545455 66:0.545455 
1 1:0.24864 2:0.0224645 3:17.9856 4:4.80204 5:15.4858 8:1.2 9:2.4 11:2.4 12:1.2 13:2.4 14:1.2 15:1.2 16:1.2 19:3.6 24:3.6 30:1.2 37:1.2 42:2.4 45:1.2 47:1.2 48:1.2 51:1.2 
1 1:0.24864 2:0.0224645 3:17.9856 4:4.80204 5:15.4858 8:1.2 9:2.4 11:2.4 12:1.2 13:2.4 14:1.2 15:1.2 16:1.2 19:3.6 24:3.6 30:1.2 37:1.2 42:2.4 45:1.2 47:1.2 48:1.2 51:1.2 
1 1:0.347049 2:0.248008 3:21.465 4:22.113 5:19.4357 6:0.217391 7:0.326087 8:0.434783 9:0.326087 10:0.543478 11:0.543478 12:0.326087 13:0.869565 14:1.41304 15:0.652174 16:0.108696 17:0.108696 18:0.76087 19:0.652174 20:0.434783 21:0.434783 22:0.108696 23:0.434783 24:0.543478 25:0.217391 26:0.978261 28:0.217391 29:0.217391 30:1.19565 31:0.217391 32:0.326087 33:0.108696 34:0.543478 35:0.76087 37:0.543478 38:0.434783 39:0.76087 40:0.434783 41:0.869565 42:0.543478 43:0.434783 44:0.869565 45:0.543478 46:0.434783 47:0.869565 49:0.326087 50:0.434783 51:0.434783 52:0.434783 53:0.434783 54:0.76087 55:0.76087 56:0.434783 57:0.869565 58:0.108696 59:1.30435 60:0.434783 61:0.76087 62:0.652174 64:0.434783 65:0.543478 66:0.217391 
1 1:0.450503 2:0.238124 3:22.2275 4:12.4243 5:19.588 6:0.339623 7:0.679245 8:0.45283 9:0.45283 10:0.679245 11:0.339623 12:0.226415 13:0.45283 14:0.226415 15:0.792453 16:0.226415 17:0.113208 18:0.339623 19:0.113208 20:0.45283 21:0.113208 23:1.24528 24:0.90566 25:0.45283 26:0.339623 27:0.45283 28:0.566038 29:1.35849 30:0.113208 31:0.566038 32:0.566038 33:0.792453 34:0.45283 35:0.339623 36:0.679245 37:0.679245 38:1.58491 39:0.45283 40:1.13208 41:1.01887 42:0.45283 43:0.679245 44:0.226415 45:1.01887 46:0.339623 49:0.226415 50:0.113208 52:0.45283 53:0.113208 54:0.566038 55:0.566038 56:0.339623 57:0.339623 58:0.226415 59:2.03774 60:0.45283 61:0.45283 62:0.45283 64:0.566038 65:0.45283 66:0.45283 
1 1:0.267903 2:0.0485233 3:21.8675 4:12.4274 5:19.1847 8:0.555556 10:0.555556 12:1.66667 15:1.11111 18:0.555556 21:0.555556 23:2.22222 25:1.11111 26:0.555556 30:0.555556 31:0.555556 34:0.555556 35:1.66667 38:0.555556 39:1.66667 40:1.11111 41:0.555556 42:0.555556 44:1.11111 45:1.11111 46:0.555556 47:0.555556 49:0.555556 50:0.555556 52:0.555556 53:0.555556 54:0.555556 55:1.11111 58:1.11111 59:4.44444 65:0.555556 66:0.555556 
0.1482726917829142 1:0.81462 2:0.239921 3:23.5262 4:22.6596 5:24.8442 6:0.337079 7:1.34831 8:0.337079 9:0.337079 10:0.337079 11:0.561798 12:0.11236 13:0.11236 14:0.337079 15:0.11236 16:0.11236 17:0.561798 18:0.449438 19:0.11236 20:0.224719 21:0.224719 22:0.337079 23:0.11236 24:0.337079 25:0.224719 26:0.337079 28:0.224719 29:0.449438 30:0.11236 31:2.58427 32:0.11236 34:0.11236 35:0.337079 36:0.11236 37:0.561798 38:0.674157 39:0.561798 40:3.25843 41:0.337079 42:0.449438 43:0.337079 44:3.93258 45:0.786517 46:0.449438 47:0.449438 49:0.337079 50:0.561798 51:0.224719 52:0.337079 54:0.11236 55:0.337079 57:1.34831 58:0.674157 59:1.23596 60:0.337079 61:0.337079 63:0.337079 64:0.786517 65:0.224719 66:0.11236 
1 1:0.792516 2:0.203079 3:23.8543 4:21.6482 5:25.0222 6:0.39823 7:1.19469 8:0.265487 9:0.39823 10:0.265487 11:0.663717 12:0.132743 13:0.132743 14:0.265487 15:0.132743 16:0.132743 17:0.663717 18:0.265487 19:0.132743 20:0.265487 21:0.132743 22:0.265487 23:0.132743 24:0.265487 25:0.265487 26:0.39823 28:0.265487 29:0.39823 31:2.78761 32:0.132743 34:0.132743 35:0.39823 36:0.132743 37:0.663717 38:0.530973 39:0.530973 40:3.58407 41:0.39823 42:0.530973 43:0.39823 44:4.38053 45:0.663717 46:0.530973 47:0.39823 49:0.39823 50:0.530973 52:0.39823 54:0.132743 55:0.39823 57:1.19469 58:0.663717 59:1.06195 60:0.39823 61:0.132743 63:0.39823 64:0.530973 65:0.132743 66:0.132743 
1 1:0.741731 2:0.202181 3:23.7373 4:22.659 5:25.4502 6:0.4 7:1.2 8:0.4 9:0.266667 10:0.266667 11:0.533333 12:0.133333 13:0.133333 14:0.4 15:0.133333 16:0.133333 17:0.533333 18:0.533333 20:0.266667 21:0.266667 22:0.133333 23:0.133333 24:0.4 25:0.266667 26:0.4 28:0.133333 29:0.4 30:0.133333 31:3.06667 32:0.133333 34:0.133333 36:0.133333 37:0.266667 38:0.8 39:0.533333 40:2.93333 41:0.4 42:0.4 43:0.266667 44:4.4 45:0.933333 46:0.266667 47:0.533333 49:0.266667 50:0.533333 51:0.266667 54:0.133333 55:0.133333 57:1.73333 58:0.533333 59:1.33333 60:0.4 61:0.4 63:0.266667 64:0.933333 65:0.266667 66:0.133333 
1 1:0.350261 2:0.159049 3:21.9085 4:7.04576 5:19.4858 6:0.338983 7:0.169492 8:0.169492 9:0.508475 10:0.338983 11:0.677966 14:0.677966 15:0.508475 16:0.677966 18:0.338983 19:0.677966 20:0.338983 22:0.677966 23:0.169492 24:1.18644 25:0.338983 26:0.338983 27:0.508475 28:0.338983 30:1.18644 31:0.677966 32:1.35593 34:1.18644 35:0.508475 36:0.338983 37:0.338983 38:0.169492 40:0.338983 41:0.508475 42:1.18644 43:0.508475 45:0.508475 46:0.169492 47:0.508475 48:0.508475 49:1.01695 50:0.508475 51:0.338983 52:0.338983 53:0.847458 55:0.677966 56:0.169492 57:0.677966 58:0.169492 59:0.677966 60:0.508475 61:1.52542 62:0.677966 63:0.338983 64:0.508475 65:1.01695 66:1.18644 
1 1:0.405121 2:0.148266 3:22.1693 4:8.27025 5:19.598 6:0.363636 8:0.363636 9:0.909091 10:0.363636 11:0.909091 12:0.181818 13:0.363636 14:0.363636 15:1.81818 16:0.363636 17:0.181818 18:0.545455 19:0.363636 20:0.545455 21:0.909091 23:1.45455 24:0.545455 25:1.09091 26:0.909091 28:1.09091 29:0.727273 30:0.545455 31:0.545455 33:0.363636 34:0.545455 35:0.181818 36:0.181818 37:1.27273 38:0.727273 39:0.545455 40:0.545455 41:0.363636 42:0.545455 45:0.727273 46:0.363636 47:0.545455 49:1.81818 52:0.181818 53:0.181818 55:0.363636 56:0.363636 57:0.181818 58:0.363636 59:1.63636 60:0.181818 61:0.363636 62:0.181818 63:0.363636 64:0.545455 65:0.545455 66:0.909091 
1 1:0.35226 2:0.159947 3:21.7089 4:7.03952 5:18.84 6:0.505618 8:0.505618 9:0.842697 10:0.337079 11:0.842697 12:0.337079 13:0.674157 14:0.337079 15:1.85393 16:0.168539 17:0.168539 18:0.674157 19:0.505618 20:0.337079 21:0.674157 23:1.51685 24:0.674157 25:1.01124 26:0.842697 28:1.01124 29:1.01124 30:0.505618 31:0.337079 33:0.168539 34:0.842697 36:0.168539 37:1.17978 38:0.505618 39:0.505618 40:0.337079 41:0.168539 42:0.337079 45:0.674157 46:0.337079 47:0.842697 49:1.68539 50:0.168539 52:0.337079 53:0.337079 54:0.337079 55:0.168539 56:0.337079 57:0.168539 58:0.505618 59:1.68539 60:0.168539 61:0.505618 62:0.168539 63:0.337079 64:0.337079 65:0.505618 66:1.01124 
1 1:0.433744 2:0.174325 3:22.2026 4:15.1969 5:18.7725 6:0.309278 7:0.773196 8:0.154639 9:0.154639 10:0.154639 11:0.154639 12:0.463918 13:0.154639 14:0.309278 15:0.463918 18:0.309278 19:0.618557 20:0.463918 21:0.618557 22:0.154639 23:1.23711 24:0.618557 25:0.618557 27:0.154639 29:1.08247 30:0.463918 31:0.309278 32:0.463918 33:0.309278 34:0.463918 35:1.08247 36:0.463918 37:0.309278 38:0.309278 39:0.463918 40:0.927835 41:1.39175 42:0.618557 43:0.309278 44:1.23711 45:0.618557 46:0.618557 47:0.309278 49:0.463918 50:0.154639 52:0.463918 53:0.927835 54:0.463918 55:1.23711 56:0.618557 57:0.309278 58:0.309278 59:1.39175 60:0.309278 61:0.309278 62:0.618557 63:0.309278 64:0.773196 65:1.08247 66:0.927835 
1 1:0.437348 2:0.169832 3:22.2237 4:13.6016 5:18.9893 6:0.319149 7:0.797872 8:0.159574 9:0.159574 10:0.159574 11:0.159574 12:0.478723 13:0.159574 14:0.319149 15:0.319149 18:0.319149 19:0.638298 20:0.478723 21:0.478723 22:0.159574 23:1.2766 24:0.638298 25:1.2766 27:0.159574 29:0.957447 30:0.478723 31:0.319149 32:0.478723 33:0.638298 34:0.478723 35:1.2766 36:0.319149 37:0.319149 38:0.319149 39:0.478723 40:1.11702 41:1.11702 42:0.478723 43:0.159574 44:1.11702 45:0.638298 46:0.638298 47:0.319149 49:0.638298 50:0.159574 52:0.478723 53:0.957447 54:0.478723 55:1.2766 56:0.478723 57:0.319149 58:0.159574 59:1.43617 60:0.319149 61:0.319149 62:0.478723 63:0.319149 64:0.957447 65:0.797872 66:0.957447 
1 1:0.516814 2:0.119511 3:23.215 4:8.45904 5:20.4335 6:0.451128 7:0.451128 8:0.225564 9:0.451128 10:0.451128 11:0.451128 13:0.225564 14:0.225564 15:0.676692 16:0.225564 17:0.225564 18:0.902256 19:0.902256 21:0.225564 22:0.451128 23:0.902256 26:1.12782 27:0.225564 28:0.225564 29:0.676692 30:0.902256 31:0.676692 32:0.225564 33:0.225564 34:0.676692 35:0.451128 36:0.451128 37:0.225564 39:0.902256 40:1.12782 41:1.80451 42:1.57895 43:0.225564 44:0.676692 45:0.676692 47:0.225564 48:0.225564 49:0.225564 50:1.12782 51:0.225564 52:0.676692 53:0.451128 54:0.451128 55:0.225564 56:0.225564 57:0.451128 59:1.35338 60:0.225564 61:0.902256 62:1.12782 64:0.451128 65:0.451128 66:0.451128 
1 1:0.387525 2:0.16444 3:21.966 4:6.57757 5:19.4248 6:0.163934 7:0.983607 8:0.327869 9:0.163934 10:0.491803 11:1.14754 12:0.491803 13:0.655738 14:0.491803 15:0.655738 17:0.163934 18:0.327869 19:0.327869 20:0.491803 21:0.491803 22:0.163934 23:0.819672 24:0.327869 25:1.31148 26:0.163934 27:0.327869 28:0.163934 29:0.327869 30:0.491803 31:0.327869 32:0.163934 33:0.655738 34:0.163934 35:0.655738 36:0.491803 37:0.163934 38:0.983607 39:0.819672 40:0.655738 41:0.491803 42:1.14754 43:0.491803 44:1.14754 45:0.491803 46:0.983607 47:0.163934 48:0.163934 50:0.327869 52:0.819672 53:0.655738 54:0.819672 55:0.491803 56:0.327869 57:0.163934 58:0.819672 59:1.47541 60:0.163934 61:0.819672 63:0.819672 64:0.163934 65:0.491803 66:0.655738 
1 1:0.38813 2:0.25969 3:21.8092 4:7.05386 5:18.7138 7:0.3125 13:0.3125 19:0.104167 22:0.104167 23:1.875 24:2.5 26:0.104167 28:2.29167 29:0.208333 30:0.416667 34:2.08333 35:2.5 36:0.208333 41:1.66667 42:2.1875 43:0.208333 44:0.104167 46:1.45833 47:2.8125 48:0.416667 49:0.625 50:0.208333 52:0.208333 54:0.625 55:3.75 58:0.520833 61:0.3125 62:0.104167 64:0.104167 66:1.66667 
1 1:7.94965 2:1.63901 3:26.6378 4:8.42707 5:21.2606 6:0.116343 7:0.781163 8:0.0166205 9:0.299169 10:0.0498615 11:0.066482 12:0.481994 13:0.033241 14:0.0831025 15:0.099723 16:0.0498615 17:0.0166205 18:0.033241 19:0.033241 20:0.033241 21:0.0831025 22:0.033241 23:0.166205 24:1.96122 25:0.066482 26:0.132964 27:0.0498615 28:0.116343 29:0.033241 30:0.149584 32:0.182825 33:2.64266 35:2.47645 36:0.116343 37:0.116343 38:1.74515 39:1.01385 40:6.04986 41:0.565097 42:4.57064 43:0.0166205 44:0.930748 45:0.465374 47:0.0498615 48:0.066482 49:0.232687 50:1.14681 51:0.033241 52:0.066482 53:0.0831025 54:0.249307 55:0.914127 56:0.199446 57:0.0166205 58:0.033241 59:0.0498615 60:0.066482 61:0.448753 62:0.249307 63:0.166205 64:0.0166205 66:0.066482 
1 1:0.756873 2:0.439406 3:22.3416 4:14.7532 5:19.2107 6:0.184049 7:0.306748 8:0.122699 9:0.490798 10:0.368098 11:0.122699 12:0.122699 13:0.245399 15:0.245399 16:0.0613497 17:0.122699 18:0.184049 19:0.306748 20:0.368098 21:0.552147 22:0.122699 23:0.736196 24:0.184049 25:0.368098 26:0.981595 27:0.0613497 28:0.368098 29:0.429448 30:1.22699 31:0.368098 32:0.0613497 33:0.122699 34:1.10429 35:0.306748 37:1.04294 38:1.22699 39:0.797546 40:1.84049 41:3.68098 42:0.613497 43:0.613497 44:0.674847 45:0.0613497 46:0.184049 47:1.16564 48:0.122699 49:0.245399 50:0.429448 51:0.245399 52:0.920245 53:0.184049 54:1.59509 55:0.858896 56:0.184049 57:0.245399 58:0.184049 59:0.613497 61:0.306748 62:0.981595 63:0.122699 64:0.245399 65:0.368098 66:0.184049 
1 1:0.277027 2:0.0736836 3:21.9656 4:4.29662 5:18.449 8:1.11111 9:0.37037 10:0.37037 12:0.37037 13:0.37037 14:0.37037 15:0.37037 19:0.37037 21:0.37037 22:0.37037 23:0.37037 24:2.96296 26:0.740741 27:1.11111 28:0.37037 30:2.59259 32:1.11111 34:0.37037 35:0.37037 36:0.37037 37:0.37037 39:0.37037 40:1.11111 41:1.48148 42:0.37037 43:0.740741 44:0.740741 45:0.740741 46:0.37037 49:1.85185 50:0.37037 53:3.33333 58:0.37037 61:1.11111 62:0.740741 64:0.37037 66:0.740741 
